
\data\
ngram 1=2482
ngram 2=7634
ngram 3=899

\1-grams:
-2.187073	"	-0.2316097
-2.799857	&	-0.3112287
-3.100887	'	-0.2587764
-3.799857	'n	-0.2814008
-2.954759	(	-0.1539739
-2.954759	)	-0.4167588
-1.307796	,	-0.2667311
-1.927701	-	-0.2706227
-2.924796	--	-0.06559601
-4.100887	-based	-0.1062726
-1.402787	.	-2.660025
-3.021706	:	-0.09343535
-3.197797	;	-0.09524631
-1.100887	</s>	0
-1.916196	<dollar_value>	-1.015712
-2.702947	<double>	-0.6664855
-1.819854	<integer>	-0.4939899
-3.322736	<integer>/<integer>	-0.237685
-3.623766	<integer>/<percentage_value>	-0.1053759
-4.100887	<integer>b	-0.1064793
-3.322736	<integer>s	-0.1990265
-2.337459	<percentage_value>	-0.4403509
-99	<s>	-0.3639783
-4.100669	<unk>	0
-4.100887	?	-0.07074898
-1.720676	a	-0.2635222
-3.799857	a.	-0.1064449
-4.100887	abdallah	-0.1065482
-4.100887	abdication	-0.09542297
-4.100887	abga	-0.08908903
-4.100887	ability	-0.09760766
-4.100887	able	-0.09760766
-2.532686	about	-0.747418
-4.100887	above	-0.08505575
-3.623766	abrahamsson	-0.0793015
-4.100887	abroad	-0.10579
-4.100887	abusive	-0.1064104
-4.100887	accept	-0.106376
-4.100887	accident	-0.1064104
-4.100887	accompanied	-0.1052723
-3.498827	according	-0.3342122
-3.799857	account	-0.09538765
-3.799857	accounted	-0.2772813
-3.799857	accounting	-0.1020139
-3.799857	accrued	-0.2812285
-4.100887	accurately	-0.1065826
-4.100887	accuses	-0.1064449
-4.100887	achieve	-0.08505575
-4.100887	acid	-0.1061692
-3.322736	acquire	-0.06499016
-4.100887	acquired	-0.1060314
-4.100887	acquires	-0.1058245
-3.059494	acquisition	-0.2078905
-4.100887	acquisitions	-0.08908903
-3.623766	acreage	-0.456225
-3.498827	acres	-0.1498811
-4.100887	act	-0.1061348
-3.623766	action	-0.08621195
-4.100887	actions	-0.08908903
-4.100887	adams	-0.1049959
-4.100887	add	-0.1053414
-3.799857	added	-0.2792594
-3.799857	addison	-0.08422284
-3.799857	addition	-0.07521287
-3.401917	additional	-0.0998164
-4.100887	additions	-0.09760766
-4.100887	adjust	-0.1064104
-3.623766	adjusted	-0.1019444
-4.100887	adjusting	-0.09897629
-4.100887	adjustments	-0.0846938
-4.100887	adjusts	-0.1065826
-3.799857	administration	-0.1038195
-4.100887	administration's	-0.1064449
-4.100887	adr	-0.0846938
-4.100887	advanced	-0.09999121
-4.100887	advantage	-0.09542297
-4.100887	advantageous	-0.1062382
-3.623766	advertising	-0.08847925
-4.100887	advise	-0.1064449
-3.799857	aeronautics	-0.2741045
-4.100887	aerospace	-0.1059279
-4.100887	affairs	-0.08908903
-3.799857	affect	-0.09700973
-3.255789	after	-0.1669736
-3.623766	ag	-0.1931066
-3.197797	against	-0.1866802
-3.322736	agency	-0.2741965
-3.623766	ago	-0.08444028
-3.322736	agreed	-0.2318457
-3.021706	agreement	-0.09961409
-4.100887	agreements	-0.1064104
-3.799857	agriculture	-0.2811251
-3.799857	ahead	-0.07291225
-4.100887	aid	-0.08908903
-3.498827	air	-0.106376
-3.799857	airbus	-0.1040966
-3.498827	aircraft	-0.1449967
-4.100887	airlines	-0.1062726
-4.100887	airplanes	-0.09760766
-4.100887	ala	-0.08908903
-4.100887	ala.	-0.0846938
-4.100887	alan	-0.1065826
-4.100887	albany	-0.1052378
-4.100887	alberta	-0.1014569
-4.100887	alexander	-0.1065826
-4.100887	algoma	-0.1065826
-3.146645	all	-0.1420269
-3.799857	alleged	-0.1063415
-4.100887	alleges	-0.1065826
-4.100887	allied	-0.1065826
-4.100887	allocated	-0.09760766
-3.322736	allow	-0.2227307
-4.100887	allowed	-0.08505575
-3.799857	alloy	-0.1065482
-3.799857	along	-0.0840053
-3.623766	already	-0.105514
-2.986944	also	-0.1242156
-4.100887	amax	-0.1050305
-3.498827	america	-0.07937482
-2.870438	american	-0.2094957
-4.100887	americanism	-0.09936154
-3.623766	aminoil	-0.1029176
-3.799857	among	-0.1062726
-4.100887	amortizing	-0.1065826
-2.467419	an	-0.1740076
-4.100887	analyses	-0.1065826
-3.799857	analysis	-0.08833565
-4.100887	analysts	-0.1015266
-1.758465	and	-0.1101452
-3.623766	angeles	-0.1013175
-4.100887	anglo	-0.1014569
-3.799857	anne	-0.1065482
-3.623766	announced	-0.08462139
-4.100887	announcement	-0.1064793
-4.100887	annual	-0.1065826
-3.799857	annually	-0.08711309
-4.100887	annuities	-0.08908903
-3.623766	anti	-0.4536892
-4.100887	anticipate	-0.09827498
-4.100887	anticipated	-0.1063071
-3.799857	antonio	-0.06623875
-3.498827	any	-0.1057555
-4.100887	apart	-0.1049268
-4.100887	apparatus	-0.09897629
-3.623766	apparel	-0.1012478
-4.100887	appeals	-0.1062726
-4.100887	appear	-0.1065482
-4.100887	appears	-0.09760766
-4.100887	appliance	-0.09897629
-4.100887	apply	-0.1065826
-4.100887	appreciated	-0.1065482
-4.100887	appreciation	-0.09936154
-4.100887	approach	-0.1021531
-4.100887	approaching	-0.1065482
-3.255789	approval	-0.2466539
-4.100887	approvals	-0.0846938
-3.623766	approved	-0.07469444
-3.146645	april	-1.031965
-2.556819	are	-0.1496672
-3.623766	area	-0.0872931
-3.799857	areas	-0.09890622
-3.799857	ariz.	-0.2765851
-4.100887	arizona	-0.1065826
-3.799857	army	-0.2810906
-4.100887	arnold	-0.1065826
-4.100887	arrangement	-0.0846938
-4.100887	arrogance	-0.0846938
-4.100887	arthur	-0.1065482
-3.623766	article	-0.102744
-4.100887	arts	-0.1064449
-2.352699	as	-0.1831977
-4.100887	asamera	-0.1050305
-3.799857	ashland	-0.1062382
-3.623766	asia	-0.1041658
-3.623766	asian	-0.09883613
-4.100887	aside	-0.1053414
-4.100887	ask	-0.08505575
-3.799857	asked	-0.08890978
-4.100887	aspirations	-0.09542297
-4.100887	assertion	-0.1041312
-4.100887	asserts	-0.1041312
-3.401917	assets	-0.1071539
-4.100887	assistant	-0.09760766
-4.100887	assisting	-0.08505575
-3.623766	association	-0.203522
-4.100887	association's	-0.1065826
-3.623766	assume	-0.07624787
-4.100887	assumed	-0.0846938
-2.360525	at	-0.2524273
-4.100887	atari	-0.1052378
-3.498827	atlanta	-0.08682493
-4.100887	atlantans	-0.1064793
-3.799857	attempt	-0.07970459
-4.100887	attention	-0.0846938
-3.799857	attractive	-0.2727359
-3.623766	atwood	-0.06616318
-3.623766	auditors	-0.193179
-4.100887	august	-0.08908903
-4.100887	australian	-0.1062382
-4.100887	author	-0.1065826
-4.100887	authorities	-0.09760766
-4.100887	authority	-0.09760766
-4.100887	authorization	-0.0846938
-4.100887	authorize	-0.1036808
-3.623766	authorized	-0.08415034
-3.799857	auto	-0.1062037
-3.498827	automatic	-0.3404532
-4.100887	automobile	-0.1065482
-4.100887	available	-0.08908903
-4.100887	average	-0.1046157
-4.100887	awaits	-0.1065482
-3.799857	award	-0.1018051
-4.100887	awarded	-0.09827498
-3.623766	aware	-0.2014659
-3.623766	b	-0.09781851
-3.799857	b.	-0.1063071
-3.498827	back	-0.09276544
-4.100887	backs	-0.09542297
-3.498827	balance	-0.1561498
-4.100887	balked	-0.1047194
-4.100887	ban	-0.1046157
-4.100887	bancorp	-0.0846938
-4.100887	bancshares	-0.1038888
-3.059494	bank	-0.1760506
-4.100887	bank's	-0.1064449
-3.100887	bankeast	-0.2011937
-3.799857	bankeast's	-0.1052032
-4.100887	banker	-0.1041312
-3.799857	banking	-0.105065
-3.799857	bankruptcy	-0.1062382
-3.401917	banks	-0.1504742
-4.100887	bankshares	-0.1050305
-4.100887	banned	-0.09936154
-4.100887	barbara	-0.1065826
-3.498827	barbecue	-0.07897142
-4.100887	bareuther	-0.0846938
-3.799857	barley	-0.1038888
-4.100887	barr	-0.0846938
-4.100887	base	-0.1065482
-2.556819	based	-0.2926688
-4.100887	basins	-0.08908903
-3.623766	basis	-0.08367877
-4.100887	baton	-0.1065826
-4.100887	battered	-0.1065482
-2.308496	be	-0.1570465
-3.623766	beach	-0.0840053
-3.799857	bear	-0.259822
-4.100887	beauty	-0.1059969
-3.146645	because	-0.352909
-3.799857	become	-0.1048577
-4.100887	becomes	-0.1061003
-4.100887	becoming	-0.1065826
-3.799857	beecham	-0.1034382
-2.870438	been	-0.1073267
-3.401917	before	-0.1274474
-4.100887	befriended	-0.1065137
-2.822134	began	-1.008747
-3.799857	beggs	-0.08298863
-3.498827	begin	-0.1036808
-4.100887	begins	-0.09936154
-4.100887	behalf	-0.09542297
-3.799857	beijing	-0.0846576
-4.100887	beijing's	-0.1065826
-3.623766	being	-0.08440404
-3.498827	believe	-0.10062
-3.799857	believes	-0.1059279
-4.100887	below	-0.08505575
-4.100887	benefit	-0.09542297
-3.401917	benefits	-0.1183474
-4.100887	better	-0.1064104
-4.100887	betty	-0.1065482
-3.322736	between	-0.2859758
-4.100887	bid	-0.0846938
-4.100887	big	-0.1063071
-4.100887	biggest	-0.08908903
-2.653729	billion	-0.4148595
-4.100887	binding	-0.1064793
-4.100887	blackmail	-0.1063415
-3.498827	blair	-0.1038195
-4.100887	blair's	-0.1063071
-4.100887	bloedel	-0.1064449
-4.100887	blues	-0.0846938
-4.100887	blvd.	-0.09936154
-3.146645	board	-0.1461389
-4.100887	body	-0.08908903
-3.799857	boehm	-0.259822
-3.322736	boeing	-0.1862425
-4.100887	boggles	-0.08505575
-3.799857	bolles	-0.08298863
-3.799857	bond	-0.08894563
-2.986944	bonds	-0.1975894
-4.100887	bonn	-0.1058935
-3.799857	books	-0.1030912
-4.100887	borrowing	-0.08908903
-3.623766	boston	-0.09988634
-3.498827	both	-0.08050966
-4.100887	bought	-0.1052723
-4.100887	brand	-0.1059969
-4.100887	breed	-0.1065137
-4.100887	brian	-0.1065137
-4.100887	brik	-0.08908903
-4.100887	bringing	-0.08505575
-4.100887	brings	-0.08505575
-4.100887	brinkmann	-0.1064793
-4.100887	britain's	-0.106376
-4.100887	british	-0.1058935
-4.100887	broad	-0.1014569
-3.498827	broadcasting	-0.08072896
-3.401917	brock	-0.2346877
-3.799857	brokerage	-0.1036808
-3.799857	bronfman	-0.09894127
-3.623766	brothers	-0.4586772
-4.100887	brought	-0.1065826
-4.100887	bud	-0.1065826
-3.322736	budget	-0.0626727
-4.100887	build	-0.09827498
-4.100887	builders	-0.08908903
-4.100887	burnham	-0.1065826
-3.059494	business	-0.2921934
-4.100887	businesses	-0.09897629
-2.720676	but	-0.08447815
-3.498827	buy	-0.0745462
-3.623766	buyback	-0.09269434
-4.100887	buybacks	-0.1038888
-3.623766	buying	-0.1053759
-4.100887	buys	-0.09897629
-2.509823	by	-0.1559467
-4.100887	c.	-0.1065482
-4.100887	c.a.	-0.0846938
-4.100887	c.m.	-0.1065482
-3.322736	cable	-0.3195099
-3.799857	cablesystems	-0.09400765
-3.799857	cairns	-0.1039234
-4.100887	calgary	-0.0846938
-3.799857	calif.	-0.1009689
-3.623766	california	-0.08729309
-4.100887	call	-0.1037848
-4.100887	called	-0.08505575
-4.100887	came	-0.106376
-3.322736	can	-0.1389598
-3.498827	canada	-0.3171366
-3.623766	canada's	-0.1062037
-3.255789	canadian	-0.2175808
-4.100887	canceled	-0.09827498
-3.799857	cannot	-0.1044081
-4.100887	canola	-0.0846938
-3.623766	canrad	-0.08255219
-4.100887	canrad's	-0.1065482
-4.100887	capability	-0.09936154
-3.401917	capital	-0.1498637
-4.100887	capsules	-0.1021531
-3.623766	care	-0.1053759
-4.100887	carefully	-0.1065826
-4.100887	carl	-0.1064793
-4.100887	carpet	-0.1065137
-4.100887	carried	-0.106376
-4.100887	carrier	-0.1065482
-4.100887	carter	-0.1065826
-3.799857	case	-0.07742772
-4.100887	cases	-0.0846938
-3.623766	cash	-0.08454895
-4.100887	catalyst	-0.1064793
-3.799857	catalysts	-0.100934
-4.100887	cause	-0.1064104
-4.100887	cazalot	-0.0846938
-3.255789	cbs	-0.07966796
-3.401917	center	-0.1316646
-3.401917	centers	-0.1136469
-4.100887	central	-0.1065482
-2.870438	cents	-0.358754
-3.322736	certain	-0.09510492
-3.623766	chain	-0.0606491
-3.255789	chairman	-0.3116631
-3.799857	challenge	-0.08635626
-4.100887	challenges	-0.08908903
-4.100887	chancellor	-0.1065826
-4.100887	chances	-0.09542297
-3.498827	change	-0.1561866
-3.799857	changed	-0.09700973
-4.100887	chapter	-0.09999121
-3.322736	charge	-0.2288247
-3.799857	charges	-0.09084188
-4.100887	charleston	-0.0846938
-3.799857	chateau	-0.2810561
-4.100887	chattanooga	-0.0846938
-4.100887	cheek	-0.1065137
-4.100887	chemical	-0.1065826
-3.498827	chemicals	-0.1529711
-4.100887	chess	-0.1065826
-3.498827	chicago	-0.07746454
-3.021706	chief	-0.4788266
-4.100887	child	-0.1014569
-4.100887	children	-0.1064793
-3.799857	children's	-0.2816764
-3.623766	china	-0.1035768
-4.100887	china's	-0.1065826
-4.100887	christopher	-0.1065482
-3.799857	chun	-0.103958
-4.100887	circumstances	-0.0846938
-4.100887	cited	-0.09827498
-3.799857	citicorp	-0.259822
-3.799857	cities	-0.09612892
-4.100887	citing	-0.1065826
-3.498827	city	-0.07820025
-3.799857	claims	-0.1053759
-4.100887	clarence	-0.1065826
-3.498827	class	-0.06721994
-3.799857	classics	-0.2814697
-4.100887	classified	-0.1065826
-4.100887	cleaning	-0.09897629
-4.100887	clear	-0.1065482
-4.100887	cleveland	-0.09897629
-4.100887	clients	-0.08908903
-4.100887	climate	-0.1065826
-3.799857	close	-0.09739673
-3.255789	closed	-0.2748064
-4.100887	closely	-0.1065482
-4.100887	closer	-0.09760766
-4.100887	closing	-0.1065826
-3.799857	closings	-0.08901734
-4.100887	cmu	-0.08908903
-3.322736	co	-0.8285945
-2.569408	co.	-0.5042934
-4.100887	coal	-0.1064793
-4.100887	coast	-0.08908903
-4.100887	coating	-0.1059969
-4.100887	cockburn's	-0.1065482
-4.100887	code	-0.0846938
-4.100887	cold	-0.1065826
-4.100887	collapse	-0.09542297
-4.100887	colonial	-0.1065826
-4.100887	column	-0.1060314
-4.100887	combined	-0.1064793
-4.100887	come	-0.1049268
-3.799857	comment	-0.06623875
-3.322736	commercial	-0.1442808
-3.498827	commission	-0.09492814
-2.758465	common	-0.9533347
-3.498827	communications	-0.1023617
-3.799857	communist	-0.1065482
-4.100887	communities	-0.09936154
-4.100887	community	-0.1065826
-4.100887	companies	-0.1065826
-2.274812	company	-0.3728457
-3.100887	company's	-0.103958
-3.498827	compared	-0.342222
-3.623766	compensation	-0.07643243
-3.799857	compete	-0.2807457
-4.100887	competing	-0.1064104
-4.100887	competitive	-0.1064449
-4.100887	competitiveness	-0.1037848
-3.799857	competitors	-0.07970459
-3.498827	complete	-0.3216603
-3.059494	completed	-0.1103557
-4.100887	completion	-0.09542297
-3.623766	composite	-0.2143839
-4.100887	compressors	-0.1062382
-4.100887	comprises	-0.1064104
-4.100887	compromise	-0.1046157
-3.021706	computer	-0.275859
-2.896767	concern	-0.5387076
-4.100887	concerning	-0.08505575
-4.100887	concerns	-0.08908903
-4.100887	concluded	-0.1041312
-4.100887	conditioners	-0.0846938
-4.100887	conditioning	-0.1065482
-3.401917	conditions	-0.05850065
-4.100887	conduct	-0.08505575
-4.100887	conducted	-0.1046157
-4.100887	confident	-0.1037848
-3.799857	conn.	-0.08418659
-4.100887	conservatively	-0.1046848
-4.100887	consider	-0.1065826
-4.100887	considering	-0.08505575
-3.799857	consolidate	-0.08462139
-4.100887	consolidates	-0.09999121
-4.100887	consolidation	-0.09542297
-4.100887	consortium	-0.09542297
-4.100887	consortium's	-0.09827498
-4.100887	conspiracy	-0.09760766
-4.100887	constitutes	-0.1051341
-3.322736	construction	-0.1037501
-3.623766	consumer	-0.2142804
-3.401917	consumers	-0.2627559
-4.100887	contains	-0.1051341
-4.100887	contest	-0.08505575
-3.322736	continue	-0.2100696
-4.100887	continued	-0.09760766
-3.799857	continues	-0.09563489
-2.822134	contract	-0.1866829
-4.100887	contracting	-0.1058935
-4.100887	contractor	-0.09897629
-3.623766	contracts	-0.2126904
-4.100887	contradicted	-0.1065826
-4.100887	contrast	-0.09760766
-3.623766	control	-0.07235382
-4.100887	controversy	-0.1046157
-3.799857	convention	-0.08418659
-4.100887	convert	-0.1065482
-4.100887	converted	-0.1063415
-3.059494	convertible	-0.5335147
-4.100887	converting	-0.08505575
-4.100887	converts	-0.1063415
-4.100887	convicted	-0.1065482
-3.799857	copper	-0.1031259
-4.100887	core	-0.1065826
-4.100887	cork	-0.08908903
-4.100887	corken	-0.1064793
-2.498827	corp.	-0.5246039
-4.100887	corp.'s	-0.10579
-4.100887	corp.systems	-0.08908903
-3.498827	corporate	-0.1845513
-4.100887	corporation	-0.09897629
-4.100887	correct	-0.1046157
-4.100887	corresponding	-0.1065826
-3.799857	cos.	-0.1005851
-3.623766	cosmetics	-0.09802925
-4.100887	cosmetiques	-0.1052378
-3.255789	cost	-0.1055925
-3.623766	costs	-0.09517562
-3.021706	could	-0.12735
-4.100887	couldn't	-0.1044773
-3.401917	counter	-0.2642314
-3.799857	countries	-0.08865869
-3.623766	country	-0.08617587
-4.100887	country's	-0.1065826
-4.100887	county	-0.09897629
-3.799857	coupon	-0.1064104
-3.100887	court	-0.1557323
-3.799857	cover	-0.07628479
-4.100887	covered	-0.1052723
-4.100887	covering	-0.1062382
-3.799857	covers	-0.09946655
-4.100887	cranston	-0.1061348
-3.799857	create	-0.09813458
-3.799857	created	-0.1052032
-4.100887	creation	-0.09542297
-3.799857	creative	-0.09894127
-3.401917	credit	-0.09939656
-4.100887	creditors	-0.08908903
-4.100887	criticism	-0.09542297
-4.100887	crop	-0.08908903
-3.799857	crude	-0.08433157
-4.100887	crudes	-0.09897629
-4.100887	culminated	-0.09827498
-3.799857	currencies	-0.09869591
-3.197797	current	-0.1403573
-3.322736	currently	-0.1463698
-3.799857	customers	-0.07742772
-4.100887	customized	-0.1065482
-3.799857	d.	-0.0846576
-4.100887	dale	-0.1064793
-3.799857	damages	-0.09510493
-3.401917	data	-0.1629249
-4.100887	date	-0.0846938
-4.100887	dated	-0.1063071
-4.100887	david	-0.1065137
-4.100887	day	-0.08908903
-3.498827	days	-0.1674903
-4.100887	dc	-0.1014569
-3.799857	dealer	-0.1056865
-3.623766	dealers	-0.09354667
-4.100887	death	-0.09542297
-4.100887	debenture	-0.106376
-3.021706	debentures	-0.3718311
-3.197797	debt	-0.08682324
-3.799857	dec.	-0.2751194
-4.100887	decade's	-0.1064449
-3.197797	december	-0.190146
-4.100887	december's	-0.1013175
-4.100887	deception	-0.0846938
-4.100887	decided	-0.09760766
-3.498827	decision	-0.07827376
-3.498827	declared	-0.2718914
-3.623766	decline	-0.2115115
-3.799857	declined	-0.09556426
-4.100887	declines	-0.09936154
-3.623766	decrease	-0.1035422
-4.100887	defend	-0.1037848
-4.100887	defending	-0.1034381
-3.498827	defense	-0.09499887
-4.100887	defenses	-0.09897629
-4.100887	defer	-0.1021531
-4.100887	deferred	-0.1065482
-3.255789	deficit	-0.1234432
-3.799857	definitive	-0.2813319
-4.100887	delayed	-0.1065137
-4.100887	delays	-0.09897629
-4.100887	delegates	-0.09760766
-4.100887	delivered	-0.09936154
-3.799857	delivery	-0.09506958
-3.498827	democracy	-0.05738385
-3.498827	democratic	-0.1837571
-4.100887	democrats	-0.09760766
-4.100887	denied	-0.1041312
-4.100887	denominated	-0.1064104
-4.100887	denton	-0.0846938
-3.100887	department	-0.1659349
-4.100887	department's	-0.1065482
-4.100887	departments	-0.09542297
-4.100887	depositary	-0.1065482
-4.100887	deposited	-0.1065826
-4.100887	des	-0.1065826
-4.100887	desanctis	-0.0846938
-4.100887	described	-0.08505575
-4.100887	deserves	-0.1065826
-4.100887	designed	-0.09760766
-3.799857	designs	-0.0766538
-4.100887	desire	-0.09760766
-4.100887	destabilizing	-0.08908903
-4.100887	destinations	-0.0846938
-3.799857	details	-0.08776075
-4.100887	determination	-0.1041312
-3.799857	determine	-0.08494721
-4.100887	detroit	-0.0846938
-3.799857	deutsche	-0.1061348
-3.799857	develop	-0.1060658
-4.100887	developing	-0.09827498
-3.623766	development	-0.08378763
-4.100887	develops	-0.1065826
-4.100887	diamond	-0.0846938
-4.100887	diane	-0.1065826
-4.100887	difference	-0.08908903
-4.100887	different	-0.1065826
-3.799857	difficulty	-0.2744898
-3.799857	dion	-0.259822
-3.498827	diplomatic	-0.106376
-4.100887	directly	-0.1065826
-3.401917	director	-0.3660201
-4.100887	directorate	-0.1047194
-3.799857	directors	-0.08783266
-3.799857	disadvantage	-0.07999751
-4.100887	disagreement	-0.1061348
-4.100887	disclose	-0.1065482
-3.623766	disclosed	-0.1748326
-3.498827	discontinued	-0.3400396
-3.799857	discount	-0.09725604
-3.799857	discovery	-0.2815731
-4.100887	disposables	-0.1062382
-4.100887	dispute	-0.1061348
-4.100887	dissolved	-0.08908903
-4.100887	distiller's	-0.1065137
-4.100887	distress	-0.105652
-4.100887	distributes	-0.1065826
-4.100887	distributing	-0.1051341
-3.255789	distribution	-0.2720728
-3.623766	district	-0.2036635
-4.100887	disturbing	-0.09760766
-4.100887	diversified	-0.1064793
-4.100887	divesting	-0.1065137
-3.623766	dividend	-0.1882985
-3.623766	division	-0.08538125
-3.623766	divisions	-0.06778502
-3.498827	do	-0.1846547
-4.100887	documents	-0.08908903
-3.799857	does	-0.1059624
-3.498827	doesn't	-0.1851373
-4.100887	dogged	-0.1052723
-4.100887	doing	-0.1062382
-4.100887	dolbeau	-0.0846938
-3.799857	dollar	-0.09953655
-4.100887	dollar's	-0.1065826
-4.100887	domestic	-0.1065482
-4.100887	dominion	-0.1065137
-3.799857	domtar	-0.1045811
-3.799857	don	-0.2816764
-3.623766	don't	-0.1056175
-4.100887	donahue	-0.1065826
-3.799857	donald	-0.1064449
-4.100887	doo	-0.1065826
-4.100887	doors	-0.1021531
-4.100887	doubling	-0.09936154
-3.799857	douglas	-0.1051687
-3.197797	down	-0.1121595
-4.100887	downward	-0.1065482
-4.100887	dramatically	-0.0846938
-4.100887	drexel	-0.1065826
-4.100887	drexler	-0.0846938
-4.100887	drives	-0.09897629
-3.799857	drop	-0.2744898
-4.100887	drug	-0.1065826
-4.100887	dual	-0.1065482
-3.799857	dudley	-0.1023617
-3.059494	due	-0.3557084
-3.498827	during	-0.3216603
-4.100887	dynamics	-0.1052378
-3.498827	e.	-0.1852062
-4.100887	ea	-0.1014569
-2.924796	each	-0.2130724
-2.954759	earlier	-0.1736036
-3.623766	early	-0.2149354
-4.100887	earn	-0.1065826
-3.799857	earned	-0.09287205
-4.100887	earning	-0.09999121
-3.255789	earnings	-0.1206905
-3.322736	east	-0.1930341
-3.498827	eastern	-0.1045811
-3.401917	economic	-0.1606875
-4.100887	economically	-0.08908903
-4.100887	economies	-0.09936154
-4.100887	economy	-0.1065826
-3.401917	edison	-0.276382
-4.100887	edison's	-0.1065482
-4.100887	editorial	-0.1064449
-4.100887	effect	-0.1065826
-3.623766	effective	-0.1058935
-3.623766	efforts	-0.08951896
-3.799857	eight	-0.1065137
-4.100887	elaborate	-0.08908903
-3.799857	elected	-0.2727359
-4.100887	election	-0.1065826
-3.623766	electric	-0.2146253
-3.799857	electrical	-0.09834516
-4.100887	electricity	-0.09760766
-4.100887	electrodes	-0.08908903
-4.100887	electron	-0.1052378
-3.799857	electronic	-0.2812974
-3.623766	electronics	-0.1043389
-4.100887	embezzled	-0.1058935
-3.799857	emerald	-0.08462139
-4.100887	emotions	-0.1061003
-4.100887	employ	-0.1064104
-4.100887	employee	-0.1064449
-3.799857	employees	-0.07291225
-3.623766	employer	-0.1932515
-3.623766	employers	-0.1054449
-3.401917	end	-0.06623875
-4.100887	ended	-0.1063415
-3.799857	ending	-0.1062037
-4.100887	ends	-0.1065137
-3.255789	energy	-0.1152439
-3.799857	enforce	-0.08491102
-4.100887	enforcement	-0.09542297
-4.100887	engaged	-0.09936154
-3.401917	engelhard	-0.1609678
-4.100887	engineer	-0.1061003
-3.623766	engineering	-0.4512087
-4.100887	enjoy	-0.1065826
-4.100887	enshrined	-0.09936154
-3.799857	ensure	-0.1040273
-3.799857	ensured	-0.2814353
-4.100887	entered	-0.09827498
-3.623766	entertainment	-0.1912552
-4.100887	entitle	-0.1064449
-4.100887	entitled	-0.08908903
-4.100887	entry	-0.1063415
-3.799857	environmental	-0.105859
-3.623766	enviropact	-0.07764858
-4.100887	equal	-0.1046157
-4.100887	equally	-0.09760766
-2.986944	equipment	-0.1624995
-4.100887	equity	-0.1064449
-3.799857	equivalent	-0.2705512
-3.623766	era	-0.06578514
-4.100887	erroneously	-0.1065826
-4.100887	eskey	-0.1050305
-4.100887	essential	-0.09760766
-4.100887	established	-0.1062726
-4.100887	establishing	-0.09897629
-3.498827	estate	-0.1844478
-4.100887	estimate	-0.1021531
-3.498827	estimated	-0.1714545
-3.799857	estimates	-0.08429533
-4.100887	eurobond	-0.1064793
-3.799857	eurodollar	-0.2812974
-4.100887	euronotes	-0.08908903
-3.799857	europe	-0.09725604
-3.799857	european	-0.1064449
-4.100887	evaded	-0.08908903
-4.100887	evaluate	-0.1065482
-4.100887	even	-0.1065826
-3.799857	event	-0.2705512
-3.799857	ever	-0.1063415
-4.100887	everyone	-0.1063415
-3.799857	exceed	-0.07948477
-3.059494	exchange	-0.1660727
-3.623766	exchangeable	-0.1060314
-4.100887	execution	-0.09542297
-2.845615	executive	-0.6867204
-4.100887	exercisable	-0.1063071
-3.799857	exercised	-0.259822
-4.100887	exiled	-0.09760766
-3.799857	existing	-0.1061003
-4.100887	expand	-0.1065137
-4.100887	expansion	-0.09542297
-3.498827	expect	-0.3007281
-4.100887	expectations	-0.09542297
-3.100887	expected	-1.096728
-2.986944	expects	-0.3046732
-4.100887	expenses	-0.0846938
-4.100887	expensive	-0.09936154
-4.100887	explaining	-0.08505575
-4.100887	exploited	-0.1062726
-3.401917	exploration	-0.09873097
-4.100887	export	-0.1046157
-4.100887	exportation	-0.08908903
-4.100887	exposure	-0.09760766
-3.799857	expressed	-0.2804696
-4.100887	extend	-0.08505575
-4.100887	extended	-0.1051341
-4.100887	extension	-0.1041312
-4.100887	extra	-0.1063415
-4.100887	extrusion	-0.1065482
-4.100887	f.	-0.1065482
-3.799857	fabrics	-0.09876602
-4.100887	face	-0.1064449
-3.799857	facilities	-0.07999751
-3.623766	facility	-0.08962637
-3.799857	facing	-0.2734032
-3.623766	fact	-0.4369262
-4.100887	failed	-0.09760766
-3.623766	fair	-0.1062037
-4.100887	fairer	-0.09760766
-4.100887	fairly	-0.1065826
-4.100887	fairy	-0.1065826
-4.100887	falcon	-0.1064104
-3.799857	fall	-0.07999751
-3.799857	falling	-0.1044773
-3.623766	fame	-0.08822791
-3.799857	family	-0.1059969
-4.100887	famous	-0.1064449
-3.623766	far	-0.1062382
-3.799857	farm	-0.1064104
-4.100887	farmed	-0.106376
-4.100887	farmers	-0.1054104
-4.100887	father	-0.0846938
-4.100887	favors	-0.1065482
-4.100887	fearful	-0.1041312
-3.197797	feb.	-0.9476167
-3.100887	february	-0.2310666
-3.401917	fedders	-0.07276341
-2.845615	federal	-0.140179
-3.623766	federal's	-0.1054449
-4.100887	federalists	-0.0846938
-4.100887	feed	-0.1065826
-3.623766	fell	-0.08331568
-4.100887	ferreted	-0.106376
-4.100887	few	-0.1059624
-4.100887	ffut	-0.08908903
-4.100887	fgbpz	-0.08908903
-4.100887	fibers	-0.09897629
-4.100887	fight	-0.1063415
-4.100887	figures	-0.1049268
-4.100887	file	-0.09827498
-3.498827	filed	-0.09658717
-3.623766	filing	-0.1994358
-4.100887	filling	-0.09827498
-4.100887	films	-0.08908903
-3.799857	final	-0.1060658
-3.401917	finance	-0.06586078
-3.100887	financial	-0.281487
-4.100887	financing	-0.1021531
-4.100887	finders	-0.09897629
-3.498827	fine	-0.3380615
-4.100887	finest	-0.1065826
-3.799857	firm	-0.06623875
-2.702947	first	-0.3181062
-3.255789	fiscal	-0.562749
-4.100887	fisher	-0.0846938
-3.799857	five	-0.1058245
-4.100887	fixed	-0.1014569
-4.100887	fla.	-0.1014569
-4.100887	flammable	-0.09897629
-3.799857	fleet	-0.09535232
-4.100887	flexibility	-0.08908903
-3.799857	flight	-0.2815731
-3.401917	floating	-1.159721
-4.100887	floor	-0.09897629
-4.100887	florida	-0.0846938
-3.799857	flsa	-0.1061003
-4.100887	fly	-0.09760766
-3.623766	focus	-0.2102598
-3.623766	followed	-0.07621095
-3.401917	following	-0.2609136
-4.100887	food	-0.1065826
-4.100887	foot	-0.1061692
-1.990298	for	-0.279004
-3.498827	force	-0.156113
-3.623766	forced	-0.07550883
-4.100887	forcing	-0.1065826
-3.799857	ford	-0.1065137
-4.100887	forecasts	-0.1041312
-3.322736	foreign	-0.151357
-4.100887	foreigners	-0.08908903
-4.100887	foresman	-0.1059279
-4.100887	forest	-0.1059969
-4.100887	forging	-0.1065826
-4.100887	forgings	-0.1015266
-3.623766	formed	-0.08901734
-3.623766	former	-0.1059279
-2.986944	formerly	-0.2558171
-4.100887	formulation	-0.09897629
-4.100887	fort	-0.1065826
-3.799857	fouchard	-0.07933816
-4.100887	fought	-0.1021531
-4.100887	found	-0.1064793
-4.100887	founder	-0.08908903
-3.401917	four	-0.09644622
-3.799857	fourth	-0.1010038
-4.100887	fragrance	-0.1065826
-4.100887	franc	-0.1064104
-4.100887	franchiser	-0.09542297
-3.799857	francisco	-0.1013524
-3.799857	frank	-0.1064793
-4.100887	frankfurt	-0.10579
-3.799857	fraud	-0.09683371
-4.100887	french	-0.1065137
-4.100887	fresh	-0.1064793
-3.059494	friday	-0.3391829
-4.100887	friends'	-0.1065137
-4.100887	frightened	-0.09760766
-2.410691	from	-0.3443005
-3.623766	front	-0.2098417
-3.799857	frontier	-0.2815731
-4.100887	fueled	-0.1052723
-3.498827	full	-0.1042351
-3.799857	funding	-0.1007596
-4.100887	funds	-0.1021531
-3.623766	furniture	-0.08102119
-4.100887	furstenberg	-0.1065137
-3.799857	further	-0.1064104
-3.623766	g.	-0.1064793
-3.799857	ga.	-0.07926483
-3.799857	gain	-0.1040619
-4.100887	gaining	-0.1046848
-4.100887	gains	-0.08908903
-4.100887	galveston	-0.0846938
-3.799857	garment	-0.1059969
-4.100887	garments	-0.1041312
-3.401917	gas	-0.09845042
-4.100887	gases	-0.08908903
-4.100887	gates	-0.0846938
-4.100887	gave	-0.1036808
-4.100887	gelatin	-0.1065826
-3.322736	general	-0.214832
-4.100887	generally	-0.1065826
-4.100887	generated	-0.09897629
-4.100887	generation	-0.09542297
-4.100887	generic	-0.1064449
-4.100887	genres	-0.1054104
-4.100887	genstar	-0.1065826
-4.100887	geographic	-0.1065137
-4.100887	geopolitical	-0.1065826
-4.100887	gerhard	-0.1065826
-3.799857	germaine	-0.2816764
-3.401917	german	-0.1592481
-4.100887	germany's	-0.1065826
-4.100887	get	-0.1063415
-3.799857	given	-0.07558279
-4.100887	gives	-0.1065482
-4.100887	glenview	-0.0846938
-3.623766	go	-0.07550883
-4.100887	goddard	-0.1064449
-4.100887	going	-0.09760766
-4.100887	gold	-0.1065826
-3.623766	goldsmith	-0.09725604
-4.100887	gone	-0.1054104
-4.100887	good	-0.1065482
-4.100887	goods	-0.09897629
-4.100887	gorbachev	-0.1037848
-4.100887	gorbachev's	-0.1065826
-4.100887	gordon	-0.1054449
-4.100887	got	-0.09760766
-2.778668	government	-0.179781
-3.623766	government's	-0.105514
-3.799857	governmental	-0.08458517
-4.100887	grafton	-0.0846938
-4.100887	grain	-0.0846938
-4.100887	greenbelt	-0.0846938
-4.100887	greensboro	-0.0846938
-4.100887	greenville	-0.0846938
-4.100887	gromer	-0.1065482
-2.896767	group	-0.164157
-3.623766	growing	-0.2145908
-3.799857	growth	-0.09159094
-4.100887	grumman	-0.1052378
-3.799857	guaranty	-0.1064104
-4.100887	guard	-0.1063415
-3.799857	guest	-0.2816075
-4.100887	guilford	-0.1065826
-4.100887	guilty	-0.106376
-4.100887	gypsum	-0.1065826
-3.799857	h.	-0.1064449
-2.799857	had	-0.1361709
-3.799857	hadn't	-0.1064104
-4.100887	hako	-0.1065826
-3.623766	half	-0.2036988
-3.255789	hall	-0.2643452
-4.100887	hallwood	-0.1060658
-4.100887	hammond	-0.0846938
-4.100887	hand	-0.0846938
-4.100887	handling	-0.1065826
-4.100887	happened	-0.0846938
-3.799857	harbison	-0.08422284
-3.799857	hard	-0.08422284
-4.100887	harold's	-0.1064793
-2.653729	has	-0.2114779
-3.401917	hasn't	-0.2820391
-4.100887	hauling	-0.1065137
-2.799857	have	-0.189113
-4.100887	haven	-0.0846938
-3.799857	haven't	-0.1059969
-3.623766	hazardous	-0.1013524
-2.924796	he	-0.2799416
-4.100887	head	-0.1065137
-3.498827	health	-0.181227
-4.100887	hearings	-0.1060314
-3.623766	hearst	-0.2061664
-4.100887	hearth	-0.1065826
-3.799857	heavy	-0.1013872
-3.799857	held	-0.08498339
-4.100887	helmut	-0.1065826
-3.498827	help	-0.1056175
-4.100887	helping	-0.1062037
-4.100887	henderson	-0.1065137
-3.401917	her	-0.1059969
-4.100887	here	-0.1059279
-3.799857	heritage	-0.1038541
-3.799857	high	-0.2765851
-3.799857	higher	-0.09915145
-3.799857	highly	-0.1065482
-4.100887	highway	-0.1065826
-4.100887	him	-0.1064449
-4.100887	hinderliter	-0.1065137
-3.799857	his	-0.1042351
-4.100887	history	-0.09542297
-3.799857	holbrooke	-0.08462139
-4.100887	hold	-0.08505575
-4.100887	holder	-0.09542297
-3.401917	holders	-0.1506894
-3.100887	holding	-0.386106
-4.100887	holdings	-0.1065482
-4.100887	home	-0.0846938
-3.799857	homes	-0.08454895
-3.059494	homework	-0.08306132
-3.255789	homeworkers	-0.08523662
-3.623766	hopes	-0.2034159
-4.100887	hostile	-0.1064104
-4.100887	hot	-0.1065826
-3.498827	hotel	-0.1584637
-3.799857	hotels	-0.09379495
-3.799857	hour	-0.09845041
-4.100887	hourly	-0.09897629
-3.799857	hours	-0.07705936
-3.799857	house	-0.1023965
-4.100887	houses	-0.08505575
-3.623766	houston	-0.1748326
-4.100887	how	-0.1065826
-3.623766	however	-0.4369262
-4.100887	huey	-0.0846938
-4.100887	huge	-0.1064793
-3.799857	huntsville	-0.259822
-4.100887	husband	-0.0846938
-4.100887	hwan	-0.1041312
-4.100887	hydraulic	-0.1065826
-3.623766	hydro	-0.4536892
-3.146645	i	-0.4124033
-4.100887	i<integer>	-0.08908903
-4.100887	identified	-0.1064449
-4.100887	identifying	-0.1063415
-4.100887	idle	-0.1064793
-3.146645	if	-0.09429109
-4.100887	ii	-0.0846938
-3.799857	ilgwu	-0.1056175
-3.799857	ill.	-0.07926483
-4.100887	illegal	-0.1062382
-4.100887	illegality	-0.0846938
-4.100887	illinois	-0.09897629
-4.100887	immediate	-0.1065826
-4.100887	immediately	-0.1065826
-4.100887	immigrants	-0.08908903
-4.100887	immigration	-0.09897629
-3.623766	impact	-0.09294311
-3.799857	impediments	-0.09750222
-4.100887	implies	-0.1041312
-4.100887	import	-0.1014569
-3.799857	important	-0.09563489
-4.100887	imports	-0.1065482
-3.799857	impossible	-0.07970459
-4.100887	improper	-0.0846938
-4.100887	improve	-0.1036808
-4.100887	improved	-0.1065826
-4.100887	improvements	-0.09936154
-1.780741	in	-0.3488015
-4.100887	inability	-0.09760766
-4.100887	inadequate	-0.1058245
-3.401917	inc	-1.147353
-2.438129	inc.	-0.6956344
-3.799857	inc.'s	-0.106376
-3.623766	include	-0.09841534
-3.197797	included	-0.1480465
-3.799857	includes	-0.260184
-3.799857	including	-0.1065137
-3.255789	income	-0.1959075
-4.100887	incoming	-0.1065482
-2.870438	increase	-0.2101476
-4.100887	increased	-0.1036808
-3.799857	increases	-0.08797643
-3.799857	increasing	-0.1062037
-3.799857	incurred	-0.09482203
-4.100887	indebtedness	-0.08908903
-4.100887	indemnity	-0.105859
-3.799857	independent	-0.08458517
-4.100887	index	-0.106376
-4.100887	indianapolis	-0.1014569
-4.100887	indication	-0.09542297
-4.100887	indiscriminately	-0.0846938
-4.100887	inductees	-0.1063415
-3.197797	industrial	-0.247752
-4.100887	industrie	-0.09542297
-3.623766	industries	-0.08740106
-3.100887	industry	-0.1991723
-4.100887	ineligible	-0.1021531
-4.100887	influence	-0.08908903
-4.100887	information	-0.09897629
-4.100887	infractions	-0.1063415
-4.100887	inhumane	-0.1064793
-3.255789	initial	-0.2813786
-4.100887	initiate	-0.09897629
-4.100887	inspectors	-0.1065826
-4.100887	instability	-0.0846938
-4.100887	install	-0.09827498
-4.100887	installation	-0.09936154
-4.100887	installing	-0.08505575
-4.100887	instead	-0.09542297
-3.799857	institute	-0.08444028
-4.100887	institution	-0.1062726
-4.100887	institutional	-0.1064449
-3.799857	institutions	-0.09841534
-3.498827	instruments	-0.3171366
-4.100887	instruments'	-0.1064793
-2.758465	insurance	-0.1225689
-4.100887	intended	-0.1021531
-4.100887	intends	-0.09760766
-3.498827	intent	-0.1757703
-4.100887	interbank	-0.1065826
-4.100887	interchangeably	-0.08908903
-3.498827	interdyne	-0.1785072
-2.924796	interest	-0.1942749
-4.100887	interested	-0.09936154
-3.623766	interests	-0.07889803
-3.799857	interiors	-0.280366
-3.498827	international	-0.1820605
-4.100887	interstate	-0.1065826
-4.100887	intimidated	-0.1056175
-3.197797	into	-0.1698175
-4.100887	invariably	-0.1065826
-3.799857	invest	-0.1007945
-4.100887	investigation	-0.1049959
-4.100887	investigative	-0.1065826
-3.401917	investment	-0.0696633
-3.623766	investor	-0.1015614
-3.401917	investors	-0.0720557
-4.100887	involve	-0.08505575
-4.100887	involved	-0.08908903
-4.100887	involves	-0.1065826
-4.100887	involving	-0.08505575
-4.100887	iowa	-0.1014569
-4.100887	irregular	-0.1065826
-2.220074	is	-0.2154188
-3.799857	isn't	-0.2816419
-4.100887	israel	-0.1063415
-4.100887	israel's	-0.1065137
-3.623766	issue	-0.08164153
-4.100887	issue's	-0.1062382
-3.498827	issued	-0.0893757
-3.322736	issues	-0.1330633
-2.1371	it	-0.260354
-4.100887	italian	-0.1065137
-3.799857	italy	-0.1063071
-4.100887	italy's	-0.1065826
-4.100887	item	-0.1046848
-2.171468	its	-0.1757593
-3.623766	itself	-0.07513884
-4.100887	j	-0.1062037
-3.799857	j.	-0.1065482
-4.100887	jackson	-0.0846938
-3.322736	james	-0.1061692
-3.059494	january	-0.1246674
-3.498827	japanese	-0.1056865
-4.100887	japans	-0.1061003
-3.799857	jartran	-0.09736156
-4.100887	jersey	-0.0846938
-4.100887	jet	-0.1065482
-3.799857	jets	-0.08444028
-4.100887	job	-0.1065826
-4.100887	jobs	-0.106376
-3.059494	john	-0.1781541
-4.100887	johnson	-0.0846938
-3.799857	joint	-0.2816764
-4.100887	jonathan	-0.0846938
-3.623766	joseph	-0.1064104
-4.100887	journalistic	-0.1065826
-3.799857	jr.	-0.08298863
-4.100887	judging	-0.1064793
-3.799857	judgment	-0.09869591
-3.799857	july	-0.2751194
-3.623766	june	-0.4522236
-4.100887	just	-0.1065137
-3.498827	kamali	-0.1048231
-3.799857	kamali's	-0.1063415
-4.100887	kan.	-0.0846938
-4.100887	kansas	-0.1064793
-4.100887	keep	-0.1065482
-3.623766	keeping	-0.1035422
-4.100887	kellam	-0.0846938
-3.623766	key	-0.102327
-4.100887	kids	-0.09936154
-4.100887	kilowatt	-0.1056865
-4.100887	kinnear	-0.0846938
-4.100887	kirkland	-0.1064104
-4.100887	knit	-0.1065482
-3.799857	knowing	-0.1040966
-3.799857	known	-0.1046503
-3.623766	knudsen	-0.07786933
-4.100887	kohl	-0.105652
-3.255789	korea	-0.06335784
-3.799857	korean	-0.09771311
-4.100887	kress	-0.0846938
-3.498827	krieger	-0.1580973
-3.799857	krol	-0.2801241
-4.100887	ky.	-0.0846938
-3.799857	l.	-0.1065137
-3.498827	l.p.	-0.1626559
-4.100887	la	-0.08908903
-4.100887	la.	-0.0846938
-3.498827	labor	-0.1761573
-3.498827	lac	-0.3356034
-4.100887	lac's	-0.09999121
-4.100887	lack	-0.09542297
-3.322736	lake	-0.1930341
-4.100887	lambert	-0.1050305
-3.799857	lamps	-0.2741045
-4.100887	lancaster	-0.1065826
-3.623766	land	-0.09729122
-3.799857	landmark	-0.1064793
-4.100887	lane	-0.0846938
-3.799857	large	-0.1063071
-4.100887	largely	-0.1065482
-3.623766	largest	-0.106376
-4.100887	laser	-0.1065826
-2.870438	last	-0.1821611
-3.498827	late	-0.09918648
-3.401917	later	-0.2661544
-3.623766	latest	-0.1063071
-4.100887	latin	-0.1060314
-4.100887	latter	-0.1064104
-4.100887	law	-0.1065482
-4.100887	lawsuit	-0.1064793
-3.623766	lawsuits	-0.1748326
-4.100887	lbc	-0.08908903
-4.100887	lco	-0.08908903
-3.623766	lead	-0.08606759
-4.100887	leader	-0.0846938
-4.100887	leaders	-0.1065137
-4.100887	leadership	-0.1056865
-4.100887	leading	-0.08505575
-3.799857	lease	-0.100934
-4.100887	leaseback	-0.1063415
-4.100887	least	-0.1046157
-4.100887	leaves	-0.08505575
-3.623766	leaving	-0.1933963
-3.623766	led	-0.4575046
-4.100887	lee	-0.0846938
-4.100887	legal	-0.1065482
-3.799857	lehman	-0.2816419
-4.100887	length	-0.1065826
-3.623766	less	-0.08822791
-4.100887	lessen	-0.08505575
-3.498827	letter	-0.3320275
-3.799857	letters	-0.06623875
-4.100887	lexington	-0.0846938
-4.100887	li	-0.1065826
-4.100887	liabilities	-0.08908903
-4.100887	liberalization	-0.09542297
-3.146645	life	-0.1783258
-3.799857	light	-0.1054104
-4.100887	lighter	-0.1065826
-3.623766	like	-0.1060314
-4.100887	likely	-0.09760766
-4.100887	limit	-0.1065826
-3.623766	limited	-0.1974678
-3.623766	line	-0.105583
-3.799857	linen	-0.09630523
-4.100887	lines	-0.09897629
-4.100887	liquefied	-0.1064449
-4.100887	liquid	-0.1043043
-4.100887	liquids	-0.09897629
-3.401917	little	-0.1679861
-3.623766	loan	-0.2060961
-4.100887	loans	-0.1065482
-4.100887	local	-0.1064104
-4.100887	locating	-0.09897629
-3.799857	london	-0.1014221
-3.322736	long	-0.312979
-4.100887	look	-0.1065482
-4.100887	looking	-0.1047194
-3.623766	los	-0.4587461
-3.799857	lose	-0.08483863
-3.146645	loss	-0.4251462
-3.799857	losses	-0.1030218
-4.100887	louis	-0.1014569
-3.799857	low	-0.09925652
-3.799857	lower	-0.1035768
-4.100887	lowered	-0.1036808
-3.799857	loyalty	-0.09506958
-4.100887	lpg	-0.08908903
-3.401917	ltd.	-0.1382469
-3.401917	lund	-0.2579715
-4.100887	lyman	-0.1065826
-3.322736	lynch	-0.1030565
-4.100887	lynch's	-0.1065482
-4.100887	m.	-0.1065482
-4.100887	m.m.r.	-0.1062726
-3.623766	machinery	-0.06616318
-3.799857	machines	-0.09894127
-4.100887	macmillan	-0.1065826
-3.498827	made	-0.1764737
-4.100887	magma	-0.1065482
-4.100887	main	-0.1065826
-3.623766	mainly	-0.09301417
-4.100887	maintained	-0.1058245
-4.100887	maintenance	-0.08908903
-3.146645	major	-0.1050996
-3.498827	make	-0.08295228
-3.100887	maker	-0.784532
-3.799857	makers	-0.08855103
-3.498827	makes	-0.09041327
-4.100887	management	-0.1065137
-3.623766	manager	-0.4476553
-4.100887	managers	-0.09897629
-3.799857	managing	-0.2815731
-4.100887	mangement	-0.1064449
-4.100887	manuel	-0.0846938
-4.100887	manuel's	-0.1065826
-4.100887	manufacturers	-0.09760766
-3.799857	manufacturers'	-0.1049959
-4.100887	manufactures	-0.09897629
-3.498827	manufacturing	-0.1059624
-3.322736	many	-0.2451986
-4.100887	mar.	-0.09999121
-3.100887	march	-1.082188
-4.100887	marginal	-0.1065826
-4.100887	marie	-0.0846938
-3.799857	marietta	-0.08324302
-3.623766	mark	-0.1010386
-3.322736	market	-0.1111012
-4.100887	market's	-0.1065137
-4.100887	marketer	-0.09542297
-3.799857	marketing	-0.09514028
-3.322736	markets	-0.09767795
-4.100887	markitstar	-0.1050305
-3.799857	marshall	-0.09918648
-4.100887	martin	-0.1065482
-3.799857	mass.	-0.259822
-4.100887	massachusetts	-0.0846938
-4.100887	master	-0.0846938
-4.100887	materials	-0.09897629
-4.100887	mature	-0.0846938
-3.799857	maturing	-0.1062726
-4.100887	maturities	-0.08908903
-3.799857	maturity	-0.2642172
-3.059494	may	-0.6609995
-3.799857	mcdonnell	-0.2816764
-4.100887	mcdonough	-0.1065826
-3.799857	md	-0.08371507
-4.100887	me	-0.1049959
-4.100887	meant	-0.1037848
-4.100887	mechanical	-0.1065482
-4.100887	media	-0.0846938
-4.100887	medium	-0.1014569
-4.100887	meet	-0.1064793
-4.100887	meeting	-0.08908903
-3.623766	membership	-0.2041581
-4.100887	memory	-0.1062726
-4.100887	merchandising	-0.0846938
-4.100887	merchant	-0.1065826
-4.100887	meridian	-0.105859
-4.100887	merit	-0.1037848
-4.100887	meritorious	-0.1065826
-3.255789	merrill	-0.6306914
-4.100887	merryland	-0.1059279
-4.100887	mess	-0.1065826
-3.799857	metal	-0.09852057
-4.100887	metallurgical	-0.1059969
-4.100887	metals	-0.1065137
-4.100887	method	-0.09542297
-4.100887	metric	-0.1065826
-4.100887	mgcpv	-0.08908903
-4.100887	mich	-0.08908903
-3.799857	mich.	-0.07926483
-4.100887	michael	-0.1064793
-4.100887	michigan	-0.1065482
-3.498827	microwave	-0.3351154
-4.100887	mid	-0.1014569
-4.100887	migi	-0.08908903
-4.100887	mike	-0.1037848
-4.100887	mikhail	-0.1065826
-4.100887	miles	-0.1062037
-3.623766	military	-0.08858692
-4.100887	military's	-0.1065826
-3.799857	mill	-0.2744898
-4.100887	millard	-0.1065482
-4.100887	millbury	-0.0846938
-2.055564	million	-0.4937078
-4.100887	mills	-0.1050305
-4.100887	mind	-0.1041312
-3.498827	mine	-0.07209297
-4.100887	minerals	-0.1064449
-3.498827	minimum	-0.3353944
-3.623766	mining	-0.09162658
-4.100887	minister	-0.1065826
-4.100887	ministry	-0.1060658
-4.100887	minor	-0.1065826
-4.100887	minuteman	-0.1050305
-4.100887	misrepresentations	-0.09897629
-3.498827	miss	-0.3405221
-4.100887	missed	-0.08505575
-4.100887	missiles	-0.08908903
-3.799857	mission	-0.1052723
-4.100887	mixed	-0.1065826
-4.100887	mmrh	-0.08908903
-4.100887	modest	-0.1065137
-4.100887	modify	-0.1036808
-4.100887	moines	-0.0846938
-4.100887	monitoring	-0.08908903
-4.100887	monroe	-0.0846938
-3.799857	monteil	-0.09932654
-3.799857	monterey	-0.2816764
-3.255789	month	-0.1090479
-4.100887	monthly	-0.1065826
-3.498827	months	-0.06831175
-2.924796	more	-0.1571412
-3.401917	morgan	-0.1652548
-3.623766	morrison	-0.4587461
-3.799857	mortgage	-0.2812974
-4.100887	morton	-0.1065826
-4.100887	moscow	-0.1064449
-4.100887	moscow's	-0.1050996
-3.401917	most	-0.09478666
-3.799857	motion	-0.1020835
-4.100887	motivated	-0.1052723
-3.799857	motor	-0.1050996
-4.100887	motors	-0.1021531
-3.623766	move	-0.1057555
-4.100887	moves	-0.1063415
-2.509823	mr.	-0.2572859
-3.799857	mrs.	-0.1064449
-3.322736	much	-0.3085711
-4.100887	multi	-0.1014569
-3.498827	multimedia	-0.3390385
-4.100887	municipal	-0.106376
-4.100887	municipalities	-0.1065826
-4.100887	murdered	-0.1046157
-3.498827	music	-0.07713305
-3.322736	must	-0.1036462
-4.100887	mutual	-0.09542297
-3.498827	my	-0.3338931
-4.100887	myron	-0.1065137
-4.100887	myself	-0.08908903
-3.799857	n	-0.2814008
-3.799857	n'	-0.2815386
-4.100887	n.c.	-0.1014569
-4.100887	n.h.	-0.0846938
-3.623766	n.j.	-0.1878587
-4.100887	n.v.	-0.1065482
-2.954759	named	-0.1985901
-4.100887	narrower	-0.1065482
-4.100887	narrowing	-0.09542297
-4.100887	nasa	-0.1065137
-4.100887	nasa.	-0.1063071
-3.799857	nashua	-0.0844765
-4.100887	nation's	-0.1065826
-3.100887	national	-0.1541189
-4.100887	nationwide	-0.1060658
-3.799857	native	-0.0846576
-3.623766	natural	-0.4586772
-4.100887	naturalization	-0.1064104
-3.623766	navy	-0.4581948
-3.799857	near	-0.1061692
-3.799857	nearly	-0.106376
-3.799857	necessary	-0.1059624
-3.799857	needs	-0.09739673
-4.100887	neglected	-0.09760766
-4.100887	negotiating	-0.09827498
-4.100887	neither	-0.1052723
-3.146645	net	-0.3927291
-4.100887	netherlands	-0.08908903
-4.100887	neutral	-0.1065482
-2.457435	new	-0.3164047
-4.100887	newly	-0.1065137
-4.100887	newman	-0.0846938
-4.100887	newmont	-0.1065137
-4.100887	news	-0.09542297
-4.100887	newsprint	-0.1065482
-3.623766	next	-0.1062726
-4.100887	nickel	-0.1014569
-4.100887	nightmares	-0.08908903
-3.623766	niglio	-0.1915825
-4.100887	nine	-0.1064449
-3.401917	no	-0.105859
-4.100887	no.	-0.09999121
-4.100887	nominal	-0.1054449
-3.799857	non	-0.2765851
-3.799857	nonexistent	-0.09852057
-4.100887	nor	-0.1064449
-4.100887	noranda	-0.1050305
-4.100887	norelco	-0.1065826
-4.100887	norma	-0.1065482
-3.799857	north	-0.09838025
-4.100887	northeast	-0.0846938
-4.100887	northern	-0.1062726
-3.100887	not	-0.1029871
-3.498827	note	-0.1613116
-4.100887	noted	-0.08908903
-3.799857	notes	-0.09883613
-4.100887	nothing	-0.105652
-4.100887	noting	-0.1041312
-4.100887	nov.	-0.09999121
-4.100887	novel	-0.1065826
-4.100887	november	-0.09999121
-3.401917	now	-0.08244302
-3.799857	nrc	-0.1062382
-3.623766	nuclear	-0.1056865
-3.623766	number	-0.4476553
-4.100887	nutritional	-0.1065826
-4.100887	nycor	-0.1050305
-4.100887	o'brien	-0.0846938
-4.100887	obviously	-0.0846938
-4.100887	oct.	-0.09999121
-1.594382	of	-0.3006802
-3.401917	off	-0.08404157
-3.401917	offer	-0.06755909
-4.100887	offered	-0.1059624
-3.255789	offering	-0.07698565
-4.100887	offerings	-0.1038888
-4.100887	offers	-0.1049268
-3.100887	officer	-0.51912
-4.100887	officers	-0.09897629
-4.100887	offices	-0.1063071
-3.498827	official	-0.1770005
-3.401917	officials	-0.1570623
-3.799857	offset	-0.2804005
-4.100887	offshore	-0.1064449
-3.623766	often	-0.1060658
-3.100887	ohio	-0.4181359
-3.100887	oil	-0.1034069
-4.100887	oilseed	-0.1065826
-3.322736	okc	-0.06627651
-4.100887	okla.	-0.0846938
-4.100887	oklahoma	-0.1064793
-3.255789	old	-0.5474517
-4.100887	olympics	-0.1063415
-4.100887	omaha	-0.105859
-4.100887	omissions	-0.09936154
-2.337459	on	-0.2782782
-4.100887	once	-0.1064449
-2.986944	one	-0.1210818
-4.100887	ones	-0.1054104
-3.255789	only	-0.1249043
-3.799857	ontario	-0.06623875
-3.799857	open	-0.106376
-3.623766	operate	-0.09802925
-4.100887	operated	-0.1064104
-3.197797	operating	-0.2061875
-4.100887	operation	-0.09897629
-2.845615	operations	-0.4732171
-3.799857	operator	-0.08758094
-3.799857	opinions	-0.2814353
-3.799857	opotowsky	-0.08298863
-4.100887	opportunities	-0.1021531
-4.100887	opportunity	-0.1021531
-4.100887	opposition	-0.1059279
-3.498827	option	-0.06988814
-3.623766	options	-0.1005502
-2.739159	or	-0.2133513
-3.799857	ordained	-0.08171445
-3.799857	order	-0.09304968
-4.100887	ordered	-0.1064104
-3.799857	orders	-0.1020487
-4.100887	ore	-0.1065826
-3.401917	organization	-0.1401251
-4.100887	organizers	-0.1059279
-3.799857	orleans	-0.1065137
-4.100887	orthodoxy	-0.09897629
-4.100887	ostrow	-0.0846938
-2.986944	other	-0.1031221
-3.799857	ounces	-0.06623875
-3.401917	our	-0.1039927
-3.255789	out	-0.04983816
-3.799857	outcome	-0.2705512
-4.100887	outlays	-0.1065482
-4.100887	outlets	-0.1015266
-4.100887	output	-0.09542297
-4.100887	outrage	-0.1065826
-3.799857	outside	-0.08494721
-3.197797	outstanding	-0.157759
-2.954759	over	-0.1920143
-4.100887	overall	-0.106376
-3.799857	overhead	-0.08444028
-4.100887	overnight	-0.08908903
-4.100887	overruns	-0.08908903
-3.799857	overseas	-0.1052378
-4.100887	oversee	-0.1063415
-4.100887	overturn	-0.08505575
-3.799857	own	-0.08901734
-3.322736	owned	-0.1400364
-3.799857	ownership	-0.09669285
-3.799857	owns	-0.1051341
-4.100887	p.	-0.1065826
-4.100887	pa.	-0.0846938
-4.100887	pacific	-0.1065826
-3.401917	page	-0.218112
-4.100887	pages	-0.1061348
-3.401917	paid	-0.09262325
-4.100887	painewebber	-0.1064449
-3.799857	pains	-0.08291592
-3.799857	palisades	-0.08458517
-3.799857	paper	-0.1059969
-4.100887	papers	-0.09542297
-3.623766	par	-0.1852477
-4.100887	parcels	-0.09542297
-4.100887	parent	-0.1015266
-4.100887	paris	-0.0846938
-3.401917	part	-0.2679819
-4.100887	partial	-0.1065482
-4.100887	participation	-0.08908903
-3.799857	particularly	-0.1062726
-4.100887	partner	-0.09936154
-3.799857	partners	-0.2816075
-3.322736	partnership	-0.1893228
-4.100887	parts	-0.1021531
-4.100887	pasadena	-0.0846938
-4.100887	passes	-0.1046157
-4.100887	past	-0.1065137
-3.799857	patten	-0.08324302
-4.100887	patten's	-0.1054449
-4.100887	pattern	-0.09542297
-3.197797	pay	-0.05753806
-3.401917	payable	-0.2806923
-4.100887	payment	-0.08908903
-4.100887	peaceful	-0.1065826
-4.100887	peapack	-0.0846938
-4.100887	pending	-0.1065137
-4.100887	peng	-0.0846938
-3.799857	people	-0.2642172
-4.100887	perform	-0.1051341
-3.623766	performance	-0.206307
-4.100887	performed	-0.1064793
-4.100887	performers	-0.1049268
-4.100887	performing	-0.1065482
-4.100887	period	-0.09827498
-4.100887	peripherals	-0.1015266
-3.322736	perkins	-0.1059279
-3.799857	perkins's	-0.1064449
-4.100887	permanent	-0.1063071
-4.100887	permit	-0.09827498
-4.100887	permitting	-0.08505575
-3.623766	perpetual	-0.4586772
-3.623766	perry	-0.08851514
-4.100887	personal	-0.1065137
-4.100887	peter	-0.1064449
-3.799857	petrolane	-0.1049614
-3.401917	petroleum	-0.1003756
-3.799857	pharmaceutical	-0.09841534
-4.100887	pharmaceuticals	-0.0846938
-3.623766	phase	-0.07022519
-4.100887	phil	-0.1065826
-3.498827	philippines	-0.09883613
-4.100887	philippines'	-0.1065137
-3.799857	philips	-0.09272989
-3.799857	phillips	-0.08487482
-4.100887	phoenix	-0.0846938
-4.100887	physically	-0.1065826
-3.799857	picture	-0.09538765
-3.623766	piece	-0.4586083
-4.100887	pipeline	-0.09897629
-4.100887	place	-0.08908903
-4.100887	placed	-0.1063071
-3.799857	placement	-0.07291225
-3.322736	plan	-0.1232281
-4.100887	planes	-0.0846938
-3.623766	planned	-0.2053572
-3.799857	planning	-0.259822
-2.954759	plans	-0.6058637
-2.986944	plant	-0.1387643
-3.799857	plant's	-0.1060314
-4.100887	plasma	-0.1065826
-4.100887	plc	-0.08908903
-4.100887	pleaded	-0.1065826
-4.100887	pleased	-0.08908903
-3.623766	plus	-0.2146253
-3.322736	point	-0.1327718
-4.100887	points	-0.1065826
-3.799857	policies	-0.08980533
-3.799857	policy	-0.1062037
-3.322736	political	-0.1062726
-3.623766	pollard	-0.105859
-3.799857	poor	-0.2816419
-3.799857	portion	-0.2705512
-3.799857	position	-0.1045119
-4.100887	positions	-0.1052723
-4.100887	positive	-0.1065826
-4.100887	possession	-0.09542297
-3.799857	possible	-0.1065137
-4.100887	possibly	-0.09936154
-3.799857	post	-0.08686095
-3.623766	posted	-0.4505073
-4.100887	postpone	-0.08505575
-4.100887	poulenc	-0.1065826
-4.100887	poverty	-0.1065137
-4.100887	powder	-0.1065482
-3.100887	power	-0.2067975
-4.100887	powers	-0.09936154
-4.100887	practices	-0.1063071
-4.100887	precisely	-0.08505575
-4.100887	preference	-0.1054449
-3.146645	preferred	-0.2303479
-3.799857	preliminary	-0.1061003
-3.799857	premier	-0.1046503
-3.799857	prepared	-0.09894127
-4.100887	presence	-0.1063415
-3.799857	present	-0.1065482
-4.100887	presented	-0.09827498
-4.100887	presidency	-0.1065826
-2.544585	president	-0.7176502
-4.100887	presidential	-0.1064449
-4.100887	presidents	-0.09542297
-4.100887	press	-0.09936154
-4.100887	pressing	-0.08505575
-3.799857	pressure	-0.08295228
-4.100887	prevent	-0.1036808
-3.255789	previous	-0.1038888
-3.322736	previously	-0.1570463
-3.146645	price	-0.07706282
-3.322736	priced	-0.7252765
-3.498827	prices	-0.08862281
-3.623766	primarily	-0.08295228
-4.100887	primary	-0.1058935
-4.100887	priming	-0.0846938
-4.100887	principle	-0.09760766
-4.100887	printing	-0.09897629
-4.100887	private	-0.1065137
-3.799857	problem	-0.103958
-3.623766	problems	-0.0946805
-4.100887	proceed	-0.1065482
-3.255789	proceeds	-0.2121792
-3.799857	process	-0.2642172
-4.100887	processes	-0.09897629
-4.100887	processing	-0.1050305
-4.100887	proclivity	-0.1021531
-3.623766	produce	-0.1064449
-4.100887	produces	-0.1065826
-3.197797	production	-0.1022244
-2.845615	products	-0.1102547
-3.498827	profit	-0.1503292
-4.100887	profitable	-0.0846938
-3.799857	profits	-0.08291592
-3.498827	program	-0.08003411
-4.100887	programs	-0.0846938
-4.100887	prohibition	-0.08908903
-3.623766	project	-0.09436192
-4.100887	projection	-0.1061692
-3.498827	projects	-0.08415034
-4.100887	prolonged	-0.1065826
-4.100887	properly	-0.1041312
-4.100887	property	-0.09897629
-4.100887	proposal	-0.1049268
-3.322736	proposed	-0.1398572
-4.100887	prospects	-0.0846938
-3.623766	prospectus	-0.2091091
-4.100887	protect	-0.1064449
-3.799857	protection	-0.08617587
-4.100887	protectionism	-0.1041312
-4.100887	protectionist	-0.1065826
-4.100887	prove	-0.08908903
-3.799857	provide	-0.1061003
-3.623766	provident	-0.2121707
-3.623766	provides	-0.0992215
-4.100887	provincially	-0.1064104
-4.100887	provisional	-0.1065826
-4.100887	prudent	-0.1065826
-3.498827	pubco	-0.08193316
-3.197797	public	-0.1877162
-4.100887	publishing	-0.09897629
-3.799857	pulp	-0.09834516
-4.100887	pump	-0.1065826
-4.100887	pumps	-0.0846938
-3.401917	purchase	-0.06536892
-3.623766	purposes	-0.1748326
-4.100887	pursue	-0.1061692
-3.623766	put	-0.1934687
-4.100887	q.	-0.1065826
-4.100887	qualifications	-0.1021531
-3.623766	qualified	-0.08182382
-3.623766	quality	-0.4587461
-2.986944	quarter	-0.3504455
-3.623766	quarterly	-0.2148665
-4.100887	quarters	-0.08908903
-3.322736	quebec	-0.1155227
-3.498827	questar	-0.08021708
-4.100887	questioned	-0.1065137
-4.100887	quick	-0.09827498
-3.799857	quickly	-0.07970459
-4.100887	quiet	-0.1064793
-4.100887	quietly	-0.1065826
-4.100887	quifoven	-0.1014569
-4.100887	quite	-0.09827498
-3.799857	quote	-0.1056865
-4.100887	quoted	-0.1047194
-3.623766	quotron	-0.08389648
-4.100887	r.p.	-0.1065826
-4.100887	racked	-0.1062726
-4.100887	radio	-0.1064793
-4.100887	raise	-0.1053414
-4.100887	raising	-0.08505575
-4.100887	rally	-0.1034381
-4.100887	range	-0.1065826
-3.799857	rapeseed	-0.08458517
-4.100887	rare	-0.1065482
-2.822134	rate	-0.1557013
-3.255789	rates	-0.09852057
-3.498827	reached	-0.07406409
-3.799857	reactor	-0.1055485
-4.100887	reactors	-0.1061003
-4.100887	reagan	-0.1065826
-3.623766	real	-0.2150043
-4.100887	realigned	-0.1036808
-3.623766	reason	-0.1014917
-3.799857	receipts	-0.1056175
-3.401917	receive	-0.1445127
-3.255789	received	-0.2156468
-3.021706	recent	-0.09704494
-3.498827	recently	-0.08657263
-4.100887	recipes	-0.1061348
-4.100887	recognize	-0.08505575
-2.986944	record	-0.1704942
-4.100887	recorded	-0.1064793
-4.100887	records	-0.1054104
-3.799857	recover	-0.260184
-3.799857	redeem	-0.1010038
-4.100887	redeemed	-0.1063071
-3.799857	redemption	-0.09510493
-4.100887	redone	-0.1021531
-4.100887	reduce	-0.1036808
-3.799857	reduced	-0.1058245
-4.100887	refined	-0.0846938
-4.100887	refines	-0.09897629
-4.100887	refining	-0.1064104
-4.100887	reflects	-0.09827498
-4.100887	reform	-0.08908903
-4.100887	refused	-0.09760766
-4.100887	regained	-0.1046157
-4.100887	regard	-0.09760766
-4.100887	regards	-0.1062726
-3.623766	region	-0.08819199
-4.100887	regional	-0.1065137
-4.100887	regulations	-0.0846938
-4.100887	regulators	-0.08908903
-3.498827	regulatory	-0.1061692
-3.799857	rehearing	-0.09813458
-3.799857	reinsurance	-0.1063071
-4.100887	reiterated	-0.1041312
-3.623766	related	-0.1061348
-3.799857	relatively	-0.1064104
-4.100887	release	-0.1060314
-4.100887	reliance	-0.1064449
-4.100887	relocate	-0.1049268
-3.623766	remain	-0.08707708
-4.100887	remaining	-0.1046157
-3.799857	remains	-0.08480243
-4.100887	remedying	-0.1064449
-4.100887	remote	-0.08908903
-4.100887	renewal	-0.1065137
-3.799857	rent	-0.07926483
-3.623766	rental	-0.08367877
-4.100887	reorganization	-0.09542297
-4.100887	reorganized	-0.1064104
-4.100887	repackaging	-0.1065137
-4.100887	repairs	-0.09897629
-3.623766	repay	-0.2145563
-4.100887	repealing	-0.08505575
-4.100887	replace	-0.1065482
-4.100887	replaced	-0.1065826
-3.799857	report	-0.0971505
-3.255789	reported	-0.1084045
-4.100887	reporter	-0.1021531
-4.100887	representation	-0.1065826
-4.100887	representatives	-0.09760766
-3.799857	represents	-0.1048923
-4.100887	republic	-0.0846938
-3.799857	requires	-0.07628479
-4.100887	resale	-0.09760766
-3.322736	research	-0.07306103
-4.100887	reserves	-0.09760766
-3.623766	residential	-0.08378763
-4.100887	resigned	-0.09760766
-4.100887	resilient	-0.1065826
-3.623766	resources	-0.0859954
-4.100887	responsibilities	-0.08908903
-4.100887	responsibility	-0.1021531
-3.799857	rest	-0.2804005
-3.623766	restart	-0.06635208
-3.623766	restaurant	-0.4587461
-3.799857	restaurants	-0.08797643
-3.799857	restructured	-0.08487482
-4.100887	restructuring	-0.1065137
-3.799857	results	-0.2814697
-4.100887	resurgence	-0.09542297
-4.100887	retail	-0.1065826
-3.623766	retailer	-0.07926483
-3.623766	retains	-0.2053572
-3.498827	retire	-0.09704493
-3.799857	retired	-0.2642172
-3.799857	retirement	-0.09528165
-4.100887	return	-0.1036808
-4.100887	returned	-0.1065137
-3.197797	revenue	-0.2378111
-3.799857	revised	-0.105859
-3.799857	revlon	-0.1034382
-4.100887	rewrite	-0.1036808
-4.100887	rhone	-0.1014569
-4.100887	rhpoy	-0.08908903
-3.498827	richard	-0.106376
-3.799857	right	-0.09686892
-3.255789	rights	-0.1928935
-3.623766	rise	-0.09722087
-4.100887	rising	-0.1065826
-3.799857	risk	-0.1057555
-4.100887	risks	-0.0846938
-2.986944	rock	-0.266552
-4.100887	rocket	-0.1065826
-3.623766	rogers	-0.09932654
-3.322736	roll	-0.1516013
-3.255789	rose	-0.5507544
-4.100887	roseland	-0.0846938
-3.623766	rosenfield	-0.08462139
-4.100887	ross	-0.1059279
-4.100887	rouge	-0.0846938
-4.100887	rubicam	-0.1050305
-3.799857	ruled	-0.1038541
-3.799857	ruling	-0.09757252
-4.100887	rumors	-0.1061348
-4.100887	run	-0.08505575
-4.100887	rural	-0.1064793
-3.799857	s.	-0.1065482
-4.100887	s.a.	-0.0846938
-4.100887	s.c	-0.08908903
-4.100887	s.c.	-0.0846938
-4.100887	sacks	-0.0846938
-3.799857	safety	-0.1011084
-1.93357	said	-0.7363143
-4.100887	sake	-0.09542297
-4.100887	salaried	-0.1065482
-2.954759	sale	-0.1594555
-3.146645	sales	-0.08279368
-4.100887	salomon	-0.1065137
-3.799857	salt	-0.2815386
-3.401917	same	-0.1041312
-4.100887	samuel	-0.1065482
-3.401917	san	-0.2404428
-3.401917	sas	-0.082261
-3.799857	sas's	-0.1059624
-4.100887	satellite	-0.1064104
-4.100887	satisfactorily	-0.1062382
-4.100887	sault	-0.1065826
-3.799857	savage	-0.2801241
-3.799857	savings	-0.2810561
-3.255789	says	-0.1081392
-4.100887	scandal	-0.1062037
-4.100887	scandinavia	-0.08908903
-4.100887	scandinavian	-0.1065826
-4.100887	scenario	-0.1041312
-4.100887	schcp	-0.08908903
-4.100887	scherer	-0.1052378
-4.100887	schwartz	-0.08908903
-3.623766	sciences	-0.09736156
-4.100887	scientific	-0.1064793
-4.100887	scored	-0.08505575
-4.100887	scott	-0.0846938
-4.100887	scovill	-0.1064449
-4.100887	seaboard	-0.08908903
-3.146645	seagram	-0.195959
-3.799857	seasonally	-0.2816419
-4.100887	seat	-0.1046157
-4.100887	seats	-0.1064104
-3.401917	second	-0.09785365
-4.100887	sector	-0.08908903
-3.197797	securities	-0.113935
-4.100887	security	-0.0846938
-4.100887	see	-0.1062037
-4.100887	seed	-0.1057555
-3.498827	seeking	-0.09109171
-4.100887	seeks	-0.1064793
-4.100887	seldom	-0.1065137
-3.146645	sell	-0.2028399
-4.100887	seller	-0.09542297
-4.100887	selling	-0.1065826
-3.498827	sells	-0.1062726
-4.100887	semi	-0.1014569
-4.100887	sen.	-0.1065826
-4.100887	send	-0.1065482
-3.623766	senior	-0.2144528
-4.100887	separate	-0.1065826
-3.498827	separately	-0.3212984
-3.799857	sept.	-0.2751194
-4.100887	september	-0.08908903
-3.623766	series	-0.08036339
-4.100887	seriously	-0.0846938
-4.100887	serve	-0.08908903
-4.100887	serves	-0.1065482
-3.322736	service	-0.1324801
-2.778668	services	-0.1423481
-3.799857	set	-0.1063071
-4.100887	settings	-0.1063415
-3.623766	seven	-0.2149698
-3.623766	several	-0.1059969
-4.100887	sew	-0.08908903
-4.100887	sewing	-0.1065482
-2.778668	share	-0.3175965
-3.623766	shareholder	-0.08865869
-3.401917	shareholders	-0.2422366
-2.569408	shares	-0.3090273
-4.100887	sharply	-0.1065482
-3.799857	shearson	-0.2816764
-3.623766	shelf	-0.4587461
-4.100887	shift	-0.09760766
-3.623766	shipments	-0.08422284
-4.100887	shopko	-0.1065482
-3.799857	shore	-0.08454895
-3.100887	should	-0.3702356
-4.100887	show	-0.08908903
-4.100887	shunned	-0.08505575
-3.623766	shutdown	-0.07698565
-4.100887	sidney	-0.1065482
-3.498827	signed	-0.3348795
-4.100887	significant	-0.1065826
-4.100887	similar	-0.1064449
-3.799857	simon	-0.08182382
-4.100887	simple	-0.0846938
-3.498827	since	-0.1778071
-4.100887	singer	-0.1054449
-3.799857	single	-0.1014221
-4.100887	sir	-0.1064104
-4.100887	site	-0.09542297
-3.623766	six	-0.1006549
-4.100887	size	-0.09542297
-4.100887	skeptical	-0.1053414
-3.799857	slow	-0.1064104
-4.100887	slump	-0.08908903
-3.498827	small	-0.1061003
-4.100887	smelling	-0.1046848
-4.100887	smith	-0.1059279
-4.100887	snow	-0.0846938
-4.100887	snowstorms	-0.09936154
-3.498827	so	-0.07963133
-4.100887	social	-0.1065826
-4.100887	soft	-0.1065826
-3.799857	software	-0.1020139
-3.100887	sold	-0.1252092
-3.322736	some	-0.09514026
-4.100887	sophisticated	-0.1065137
-4.100887	sort	-0.106376
-3.799857	sought	-0.105652
-4.100887	soul	-0.0846938
-4.100887	source	-0.09542297
-3.623766	sources	-0.2100159
-3.021706	south	-0.3449287
-4.100887	southeast	-0.1064793
-4.100887	southern	-0.1065482
-4.100887	southwest	-0.08908903
-4.100887	soviet	-0.1014569
-4.100887	soviets	-0.09897629
-3.401917	space	-0.2185469
-3.799857	speak	-0.1060314
-4.100887	specialize	-0.09936154
-3.799857	specialty	-0.1064449
-4.100887	specifications	-0.1021531
-4.100887	speculative	-0.1062726
-3.799857	spend	-0.2764457
-3.799857	spending	-0.1013872
-3.799857	spent	-0.2744898
-3.623766	spinoff	-0.2110251
-4.100887	spite	-0.09542297
-3.401917	split	-0.1360267
-4.100887	spoken	-0.1047194
-3.255789	spokesman	-0.1941381
-4.100887	sports	-0.1064449
-4.100887	spots	-0.1046848
-4.100887	sprayberry's	-0.1064793
-4.100887	spun	-0.1064449
-4.100887	spying	-0.1021531
-4.100887	square	-0.1014569
-4.100887	st.	-0.1065826
-3.623766	stability	-0.09894127
-3.498827	staff	-0.07239108
-4.100887	staged	-0.1064449
-3.021706	stake	-0.6111362
-4.100887	stakes	-0.09760766
-4.100887	standard	-0.1065826
-3.498827	standards	-0.08548969
-4.100887	stands	-0.08908903
-3.498827	stanley	-0.1795553
-4.100887	stanton	-0.0846938
-4.100887	star	-0.0846938
-4.100887	start	-0.08908903
-3.322736	state	-0.2486129
-4.100887	state's	-0.1065826
-4.100887	stated	-0.1041312
-4.100887	statement	-0.1021531
-3.623766	statements	-0.1973602
-3.799857	states	-0.08898149
-3.799857	station	-0.1049268
-3.498827	stations	-0.05815436
-3.623766	statistics	-0.4587117
-4.100887	status	-0.1046157
-4.100887	statutory	-0.1064449
-4.100887	ste.	-0.1065826
-3.799857	stearns	-0.2810561
-4.100887	steel	-0.1052378
-4.100887	stem	-0.1049268
-4.100887	stemming	-0.1049268
-4.100887	step	-0.1065826
-3.799857	stephen	-0.1065482
-4.100887	stepped	-0.1063415
-3.623766	still	-0.105859
-2.720676	stock	-0.2552562
-4.100887	stoltenberg	-0.1015266
-3.799857	stores	-0.09736156
-4.100887	story	-0.08908903
-4.100887	strain	-0.1046157
-3.799857	strains	-0.06623875
-3.799857	stress	-0.09506958
-3.799857	strong	-0.1061348
-4.100887	strongest	-0.09936154
-4.100887	structured	-0.1046848
-4.100887	stuart	-0.1065482
-4.100887	study	-0.1061003
-3.799857	subcommittee	-0.1045811
-3.799857	subcontractors	-0.08342464
-3.322736	subject	-0.8371131
-4.100887	submarine	-0.1065137
-3.799857	subscribers	-0.07705936
-4.100887	subsequent	-0.1065137
-4.100887	subsequently	-0.1065826
-4.100887	subsidiaries	-0.09542297
-3.322736	subsidiary	-0.1950496
-3.623766	substantially	-0.0989763
-4.100887	succeeded	-0.1052723
-3.623766	succeeding	-0.1064793
-3.623766	succeeds	-0.08469382
-4.100887	success	-0.1034381
-4.100887	successes	-0.1038888
-4.100887	succession	-0.1065826
-3.799857	successor	-0.09304968
-4.100887	succumbed	-0.09760766
-4.100887	suceeds	-0.1065482
-3.498827	such	-0.1040273
-4.100887	suddenly	-0.1059279
-4.100887	suffer	-0.08908903
-4.100887	suffering	-0.1049268
-4.100887	suggested	-0.1041312
-4.100887	suisse	-0.1057555
-3.401917	suit	-0.2531337
-4.100887	suitor	-0.1065826
-4.100887	summer	-0.1065826
-3.799857	super	-0.2816764
-4.100887	superintendent	-0.09542297
-4.100887	superpowers	-0.0846938
-4.100887	supervision	-0.09897629
-4.100887	supplements	-0.1062726
-4.100887	supplier	-0.09542297
-3.498827	supply	-0.09069906
-4.100887	support	-0.1059969
-3.799857	surf	-0.09852057
-3.799857	surface	-0.1014221
-4.100887	surplus	-0.1046157
-4.100887	surviving	-0.1043043
-4.100887	suspend	-0.1065482
-3.799857	suspension	-0.09482203
-4.100887	swapped	-0.1021531
-3.623766	sweatshop	-0.2143839
-4.100887	sweet	-0.1046848
-3.799857	swiss	-0.1060658
-4.100887	switch	-0.1036808
-2.924796	symbol	-0.1061003
-4.100887	syndicate	-0.08908903
-4.100887	synthetic	-0.1065826
-3.322736	system	-0.1282656
-3.100887	systems	-0.1147002
-3.799857	t.	-0.106376
-3.799857	table	-0.1011781
-3.799857	tactics	-0.07742772
-3.498827	taiwan	-0.1592688
-4.100887	taiwanese	-0.1065482
-3.401917	take	-0.1060314
-4.100887	taken	-0.1064104
-3.322736	takeover	-0.1346992
-4.100887	takes	-0.1061348
-4.100887	taking	-0.1052723
-4.100887	tale	-0.1053414
-3.799857	talks	-0.1035768
-4.100887	tambrands	-0.1050305
-4.100887	tampa	-0.0846938
-4.100887	tape	-0.1065826
-4.100887	tavern	-0.1061348
-3.623766	tax	-0.0844765
-4.100887	taxi	-0.1065482
-3.623766	technology	-0.0859954
-4.100887	telecommunications	-0.1062726
-3.322736	television	-0.1468288
-4.100887	tell	-0.09827498
-4.100887	ten	-0.1050996
-4.100887	tend	-0.09760766
-4.100887	tender	-0.1064449
-4.100887	tenn.	-0.1014569
-4.100887	tensions	-0.1054104
-3.401917	term	-0.1460742
-3.322736	terms	-0.1783321
-4.100887	terrific	-0.08908903
-4.100887	test	-0.1061692
-4.100887	tested	-0.09827498
-4.100887	tests	-0.08908903
-3.623766	texaco	-0.0996765
-3.197797	texas	-0.190195
-3.322736	than	-0.1130888
-2.243555	that	-0.2121247
-1.314846	the	-0.2356
-3.322736	their	-0.1060314
-3.799857	them	-0.09746706
-4.100887	themselves	-0.1021531
-3.799857	then	-0.1040619
-3.197797	there	-0.2336251
-4.100887	thermo	-0.1065826
-3.623766	these	-0.1058935
-3.146645	they	-0.1036462
-4.100887	thiokol	-0.1050305
-3.623766	third	-0.2147287
-2.758465	this	-0.3386038
-4.100887	thomson	-0.0846938
-3.623766	those	-0.0948574
-4.100887	though	-0.1064793
-3.799857	threat	-0.2705512
-4.100887	threatening	-0.1065482
-3.498827	three	-0.1024313
-4.100887	thrift	-0.0846938
-4.100887	thriving	-0.1065826
-3.146645	through	-0.1052506
-3.799857	thursday	-0.08700505
-4.100887	thus	-0.1065137
-3.498827	time	-0.08346095
-4.100887	titanium	-0.1065482
-3.799857	title	-0.2705512
-4.100887	titles	-0.09542297
-1.687587	to	-0.2129433
-4.100887	tobacco	-0.0846938
-3.799857	today	-0.08804829
-4.100887	ton	-0.1065826
-4.100887	tongue	-0.1014569
-4.100887	tons	-0.09827498
-3.799857	too	-0.1065137
-4.100887	took	-0.1013175
-4.100887	top	-0.1064104
-3.799857	topics	-0.2642172
-4.100887	toronto	-0.0846938
-3.059494	total	-0.1782271
-3.799857	totaled	-0.2764457
-4.100887	totaling	-0.1013175
-4.100887	touche	-0.1065826
-4.100887	toward	-0.1065482
-3.322736	trade	-0.09443272
-3.799857	traded	-0.1041312
-4.100887	traders	-0.1015266
-2.739159	trading	-0.3775993
-4.100887	tradition	-0.1061348
-4.100887	trained	-0.1065826
-3.197797	transaction	-0.2160126
-4.100887	transactions	-0.1065826
-3.498827	transamerica	-0.1786122
-4.100887	transfers	-0.08908903
-4.100887	transition	-0.09542297
-4.100887	transitional	-0.1065137
-4.100887	transportation	-0.1060658
-4.100887	travel	-0.1064104
-4.100887	trding	-0.1046157
-4.100887	treasurer	-0.08908903
-3.799857	treasury	-0.2766548
-3.799857	treatment	-0.08758094
-3.799857	trend	-0.0846576
-4.100887	triggered	-0.1051341
-4.100887	trivial	-0.09897629
-4.100887	trophy	-0.1065482
-4.100887	troy	-0.0846938
-4.100887	truck	-0.1014569
-4.100887	trucking	-0.1054449
-4.100887	true	-0.1061692
-4.100887	trust	-0.0846938
-4.100887	trying	-0.09760766
-4.100887	tulsa	-0.0846938
-4.100887	turbine	-0.1065137
-4.100887	turmoil	-0.09936154
-4.100887	turn	-0.1064793
-4.100887	turnover	-0.08908903
-3.623766	tv	-0.09876602
-2.924796	two	-0.139287
-4.100887	typically	-0.1065826
-3.498827	u.s	-0.3256936
-2.720676	u.s.	-0.09695221
-4.100887	u.s.and	-0.1064449
-4.100887	ulf	-0.1065137
-3.799857	ultraviolet	-0.2816764
-4.100887	unadjusted	-0.1063415
-4.100887	unauthorized	-0.1065826
-4.100887	uncertainties	-0.1061348
-4.100887	uncertainty	-0.1061348
-4.100887	unchanged	-0.09760766
-2.669523	under	-0.7042599
-3.799857	underground	-0.1058245
-4.100887	underlying	-0.1065482
-4.100887	underpayment	-0.08908903
-4.100887	underprice	-0.1065482
-4.100887	understand	-0.1041312
-3.623766	underwriter	-0.1976471
-4.100887	underwriters	-0.1065137
-4.100887	underwriting	-0.1065826
-4.100887	undeveloped	-0.1065137
-4.100887	undisclosed	-0.1065137
-4.100887	undocumented	-0.1063415
-3.799857	unemployment	-0.2816419
-4.100887	unexpected	-0.1064793
-4.100887	unfairly	-0.1065826
-4.100887	unheard	-0.09542297
-4.100887	uniform	-0.1059624
-4.100887	unilateral	-0.1065826
-3.623766	union	-0.09531699
-4.100887	unisys	-0.0846938
-2.669523	unit	-0.406532
-3.799857	unit's	-0.1063415
-3.021706	units	-0.2829885
-3.401917	universal	-0.06981321
-4.100887	unless	-0.1034381
-4.100887	unlimited	-0.1065137
-4.100887	unofficial	-0.106376
-4.100887	unprofitable	-0.1065482
-4.100887	unprotected	-0.09897629
-4.100887	unreported	-0.1064104
-4.100887	unscrupulous	-0.1065137
-4.100887	unwinding	-0.09542297
-3.100887	up	-0.1254753
-4.100887	upgrading	-0.1062037
-4.100887	upheld	-0.09827498
-4.100887	upon	-0.1065826
-4.100887	upturn	-0.1037848
-3.799857	us	-0.09809947
-3.799857	usa	-0.2801587
-3.401917	use	-0.1356185
-3.059494	used	-0.4171018
-4.100887	utilites	-0.0846938
-4.100887	utilities	-0.1064793
-3.255789	utility	-0.04968119
-4.100887	va.	-0.1061348
-4.100887	vacancy	-0.1065482
-3.623766	valero	-0.2148665
-3.799857	valu	-0.1014569
-3.401917	value	-0.2392788
-3.623766	valued	-0.1916552
-3.799857	valves	-0.09894127
-3.799857	valvoline	-0.08433157
-3.401917	veba	-0.0957055
-4.100887	veba's	-0.1064104
-4.100887	vehicle	-0.1063071
-4.100887	venezuela	-0.08908903
-3.799857	venezuelan	-0.1037502
-3.799857	venture	-0.2807457
-4.100887	versa	-0.08908903
-3.322736	very	-0.1063071
-4.100887	veteran	-0.09542297
-3.322736	via	-0.1062381
-2.870438	vice	-0.8585654
-4.100887	victoria	-0.1065482
-3.799857	viewpoint	-0.1061692
-4.100887	vigorously	-0.1065826
-3.799857	vintners	-0.08396903
-3.401917	violations	-0.2477193
-3.401917	virginia	-0.2824527
-4.100887	vlp	-0.08908903
-4.100887	volkswagen	-0.1065137
-4.100887	von	-0.1065826
-3.799857	vote	-0.1027093
-4.100887	voted	-0.09999121
-4.100887	voting	-0.1058935
-4.100887	vulnerable	-0.1062726
-3.799857	w.	-0.1065482
-3.401917	wage	-0.08124024
-3.623766	wages	-0.08926822
-4.100887	wallboard	-0.1062382
-3.799857	wants	-0.2727359
-4.100887	war	-0.0846938
-4.100887	warranted	-0.08908903
-4.100887	wary	-0.09542297
-2.428789	was	-0.2430859
-3.623766	washington	-0.1044773
-3.799857	waste	-0.08901734
-3.799857	way	-0.07742772
-4.100887	ways	-0.08908903
-3.197797	we	-0.1417791
-4.100887	we're	-0.1065826
-4.100887	we've	-0.1065826
-4.100887	weapons	-0.09897629
-4.100887	wednesday	-0.08908903
-3.623766	week	-0.09283651
-4.100887	weinblatt	-0.0846938
-3.498827	well	-0.3336132
-3.059494	were	-0.1049959
-3.623766	weren't	-0.1064104
-3.623766	west	-0.2148665
-4.100887	westbury	-0.0846938
-4.100887	western	-0.1065826
-3.799857	westpac	-0.1064449
-4.100887	weyerhaeuser	-0.1054449
-3.799857	what	-0.08483863
-4.100887	wheat	-0.105859
-3.322736	when	-0.1269748
-3.799857	where	-0.08171446
-3.623766	whether	-0.07550883
-2.720676	which	-0.09944166
-3.401917	while	-0.141556
-2.924796	who	-0.219569
-4.100887	wholesaler	-0.09897629
-4.100887	whom	-0.1065482
-4.100887	whose	-0.1065482
-4.100887	wichita	-0.0846938
-4.100887	widened	-0.09760766
-4.100887	widespread	-0.1065137
-2.20326	will	-0.3520815
-3.799857	williams	-0.1059624
-4.100887	willing	-0.09760766
-3.799857	willms	-0.0846576
-4.100887	windsor	-0.0846938
-3.197797	wine	-0.23097
-3.498827	wines	-0.3175726
-4.100887	winning	-0.09827498
-2.638489	with	-0.117902
-4.100887	without	-0.1065826
-4.100887	wolf	-0.0846938
-4.100887	won	-0.09827498
-4.100887	won't	-0.1065826
-4.100887	wonder	-0.1047194
-4.100887	wonderful	-0.1065137
-4.100887	woolcott	-0.1059279
-3.100887	work	-0.1784342
-4.100887	worker	-0.1063415
-3.197797	workers	-0.07317261
-4.100887	workers'	-0.1065137
-4.100887	working	-0.1064449
-4.100887	works	-0.106376
-4.100887	world	-0.0846938
-4.100887	worldwide	-0.106376
-4.100887	worry	-0.1053414
-2.896767	would	-0.2749071
-3.799857	wouldn't	-0.1065137
-4.100887	wounded	-0.1046157
-4.100887	wounds	-0.09999121
-4.100887	write	-0.1014569
-4.100887	wsj	-0.1062726
-4.100887	wyman	-0.1014569
-3.799857	yale	-0.2816075
-3.623766	yankee	-0.08389648
-2.488103	year	-0.4396312
-3.623766	year's	-0.2145908
-2.822134	years	-0.297216
-4.100887	yen	-0.105652
-4.100887	yet	-0.1060314
-4.100887	yield	-0.1065826
-4.100887	yielded	-0.1013175
-2.924796	york	-0.1754794
-3.322736	you	-0.1010386
-4.100887	young	-0.1059279
-3.623766	your	-0.1064449
-4.100887	zenith	-0.1065137
-4.100887	zenith's	-0.1062037
-3.799857	zero	-0.2765851

\2-grams:
-2.57599	" --	0
-0.6350603	" </s>	0
-1.622216	" a	0
-2.57599	" an	0
-1.622216	" and	0
-2.57599	" as	0
-2.57599	" at	0
-2.57599	" attractive	0
-2.57599	" claims	0
-2.57599	" competitiveness	0
-2.57599	" confident	0
-2.57599	" culminated	0
-2.57599	" department	0
-2.57599	" for	0
-2.57599	" frontier	0
-1.933995	" he	0
-2.57599	" houses	0
-1.933995	" if	0
-2.57599	" in	0
-1.933995	" is	0
-2.57599	" itself	0
-2.57599	" meritorious	0
-2.57599	" mike	0
-2.57599	" nothing	0
-2.57599	" obviously	0
-1.933995	" ordained	0
-2.57599	" raising	0
-2.57599	" remote	0
-1.622216	" rock	-0.1176335
-2.57599	" said	0
-1.574331	" says	0
-2.57599	" some	0
-2.57599	" state	0
-2.57599	" that	0
-1.245619	" the	0
-2.57599	" unofficial	0
-1.933995	" very	0
-2.57599	" viewpoint	0
-1.622216	" we	-0.09557141
-2.57599	" we're	0
-2.57599	" we've	0
-2.57599	" weinblatt	0
-2.57599	" were	0
-2.57599	" with	0
-1.963206	& accident	0
-1.009433	& co	0.5304668
-0.5923362	& co.	0.06938392
-1.963206	& communications	0
-1.321211	& estate	-0.1333403
-1.963206	& investment	0
-1.963206	& life	0
-1.963206	& light	0
-1.321211	& loan	-0.08541335
-1.963206	& rubicam	0
-1.662176	' "	0
-1.662176	' dual	0
-1.020181	' n	0.02999005
-1.020181	' n'	0.02999005
-0.6605169	' roll	-0.03262983
-0.3212111	'n '	-0.1446753
-1.808304	( arts	0
-0.8066449	( canadian	-0.2383085
-1.808304	( d.	0
-1.808304	( editorial	0
-1.808304	( flsa	0
-1.808304	( in	0
-1.808304	( mar.	0
-1.808304	( monroe	0
-1.808304	( page	0
-1.808304	( see	0
-1.808304	( virginia	0
-0.4347531	) ,	-0.06820075
-1.166309	) --	0
-1.166309	) .	1.146185
-0.8545306	) in	0
-1.808304	) was	0
-1.751699	, "	-0.09569925
-3.455268	, -based	0
-2.124897	, <dollar_value>	0.08600855
-2.813273	, <double>	0.2430948
-1.450669	, <integer>	-0.5297366
-3.455268	, <percentage_value>	0
-1.261613	, a	-0.148463
-2.453609	, according	-0.05760303
-3.455268	, accounted	0
-3.455268	, acid	0
-3.455268	, adjusted	0
-3.455268	, adjusts	0
-3.455268	, after	0
-3.455268	, agriculture	0
-3.455268	, ala	0
-3.455268	, ala.	0
-3.455268	, alberta	0
-3.455268	, alleges	0
-3.455268	, already	0
-2.813273	, also	0
-3.455268	, american	0
-2.084398	, an	-0.03810655
-1.450669	, and	-0.02148936
-3.455268	, apart	0
-3.455268	, apparatus	0
-2.813273	, are	0
-2.813273	, ariz.	0.02999005
-2.081717	, as	-0.06140191
-2.813273	, at	0
-3.455268	, atlantans	0
-2.813273	, automatic	0.04004279
-2.813273	, bankeast	0
-3.455268	, bankeast's	0
-1.793092	, based	-0.8775359
-3.455268	, be	0
-1.751699	, began	-0.2397603
-3.455268	, blues	0
-3.455268	, boeing	0
-3.455268	, both	0
-3.455268	, bringing	0
-2.813273	, brock	0
-1.71391	, but	-0.01544385
-2.813273	, calif.	0
-2.813273	, canrad	0
-3.455268	, chairman	0
-3.455268	, charleston	0
-3.455268	, chemicals	0
-2.813273	, chief	0
-3.455268	, china's	0
-3.455268	, citing	0
-3.455268	, commercial	0
-3.455268	, company	0
-2.453609	, compared	-0.05760303
-3.455268	, computer	0
-2.813273	, conn.	0
-3.455268	, continues	0
-3.455268	, converting	0
-3.455268	, converts	0
-3.455268	, corporate	0
-3.455268	, could	0
-3.455268	, currently	0
-3.455268	, director	0
-2.501494	, down	-0.09557141
-3.455268	, each	0
-3.455268	, effective	0
-3.455268	, employers	0
-3.455268	, ending	0
-3.455268	, entitle	0
-3.455268	, eskey	0
-3.455268	, established	0
-3.455268	, executive	0
-3.455268	, expand	0
-3.455268	, expected	0
-3.455268	, explaining	0
-3.455268	, facility	0
-2.813273	, falling	0
-3.455268	, far	0
-3.455268	, farm	0
-3.455268	, fearful	0
-2.501494	, feb.	0.6385868
-3.455268	, fedders	0
-3.455268	, filed	0
-3.455268	, filling	0
-3.455268	, finance	0
-3.455268	, financial	0
-3.455268	, first	0
-3.455268	, fla.	0
-3.455268	, florida	0
-3.455268	, following	0
-1.679148	, for	-0.02732118
-3.455268	, foreign	0
-3.455268	, foresman	0
-2.084398	, formerly	-0.1091593
-3.455268	, four	0
-3.455268	, from	0
-3.455268	, fueled	0
-2.813273	, ga.	0
-3.455268	, greenville	0
-3.455268	, had	0
-3.455268	, hall	0
-3.455268	, hard	0
-3.455268	, has	0
-3.455268	, have	0
-2.453609	, he	0
-3.455268	, head	0
-3.455268	, heavy	0
-3.455268	, hotels	0
-2.813273	, houston	0
-3.455268	, however	0
-3.455268	, huntsville	0
-3.455268	, i	0
-2.813273	, if	0
-2.813273	, ill.	0
-3.455268	, illinois	0
-2.081717	, in	0
-2.813273	, including	0
-3.455268	, increase	0
-2.813273	, increasing	0
-3.455268	, industrial	0
-3.455268	, industry	0
-3.455268	, instead	0
-3.455268	, interdyne	0
-3.455268	, iowa	0
-2.081717	, is	0
-2.081717	, it	-0.02415913
-3.455268	, jonathan	0
-3.455268	, just	0
-3.455268	, kan.	0
-3.455268	, knowing	0
-3.455268	, ky.	0
-3.455268	, la	0
-3.455268	, la.	0
-3.455268	, lac	0
-3.455268	, landmark	0
-3.455268	, lane	0
-3.455268	, less	0
-3.455268	, long	0
-3.455268	, machinery	0
-2.501494	, mainly	0
-3.455268	, makes	0
-3.455268	, manufactures	0
-3.455268	, march	0
-2.813273	, mass.	0.02999005
-3.455268	, md	0
-3.455268	, merchandising	0
-3.455268	, method	0
-3.455268	, mich	0
-2.813273	, mich.	0
-3.455268	, morgan	0
-2.501494	, mr.	0
-3.455268	, mrs.	0
-3.455268	, n.c.	0
-3.455268	, n.h.	0
-2.501494	, n.j.	0.01558642
-2.501494	, new	-0.134601
-3.455268	, no	0
-2.501494	, not	0
-3.455268	, notes	0
-3.455268	, noting	0
-3.455268	, now	0
-3.455268	, nycor	0
-2.084398	, of	-0.1120612
-3.455268	, okla.	0
-2.124897	, on	0
-3.455268	, one	0
-2.813273	, ontario	0
-1.679148	, or	-0.09426944
-3.455268	, our	0
-3.455268	, pa.	0
-3.455268	, particularly	0
-3.455268	, patten's	0
-2.453609	, payable	0.002836108
-3.455268	, permitting	0
-3.455268	, pharmaceuticals	0
-3.455268	, plant	0
-2.501494	, plus	0.01558642
-3.455268	, political	0
-3.455268	, possibly	0
-3.455268	, posted	0
-2.124897	, president	0.09175864
-2.813273	, priced	0.3986276
-2.813273	, primarily	0
-3.455268	, production	0
-3.455268	, projects	0
-3.455268	, proposed	0
-3.455268	, purchase	0
-2.813273	, qualified	0
-2.813273	, quebec	0
-3.455268	, questar	0
-3.455268	, recently	0
-3.455268	, reiterated	0
-3.455268	, remains	0
-3.455268	, repairs	0
-3.455268	, represents	0
-3.455268	, resigned	0
-3.455268	, risk	0
-3.455268	, roseland	0
-3.455268	, s.c	0
-3.455268	, s.c.	0
-1.492062	, said	0.2537468
-3.455268	, san	0
-3.455268	, sas's	0
-3.455268	, sault	0
-3.455268	, seagram	0
-3.455268	, seeking	0
-3.455268	, series	0
-2.501494	, shelf	0.1431937
-3.455268	, sidney	0
-3.455268	, since	0
-3.455268	, smith	0
-3.455268	, sold	0
-3.455268	, south	0
-3.455268	, southern	0
-3.455268	, space	0
-2.501494	, statistics	0.1431937
-2.813273	, stearns	0.02999005
-3.455268	, subject	0
-2.813273	, succeeding	0
-2.501494	, succeeds	0
-3.455268	, such	0
-3.455268	, surf	0
-3.455268	, synthetic	0
-3.455268	, takes	0
-3.455268	, tax	0
-3.455268	, tenn.	0
-3.455268	, texaco	0
-2.501494	, texas	-0.09557141
-3.455268	, that	0
-1.330694	, the	-0.06676131
-3.455268	, then	0
-3.455268	, there	0
-3.455268	, through	0
-2.084398	, to	-0.03420255
-3.455268	, tobacco	0
-3.455268	, toronto	0
-3.455268	, traders	0
-3.455268	, transamerica	0
-3.455268	, tulsa	0
-3.455268	, two	0
-2.501494	, under	-0.1351228
-3.455268	, union	0
-3.455268	, universal	0
-2.081717	, up	-0.05874743
-3.455268	, va.	0
-3.455268	, valued	0
-3.455268	, valves	0
-2.081717	, via	0
-3.455268	, vice	0
-1.838849	, was	-0.0456039
-3.455268	, washington	0
-3.455268	, when	0
-1.537819	, which	-0.00867907
-1.838849	, who	-0.04292262
-3.455268	, whose	0
-1.838849	, will	0.0766561
-2.813273	, with	0
-3.455268	, workers'	0
-3.455268	, would	0
-3.455268	, yankee	0
-2.813273	, you	0
-1.464493	- <integer>	-0.1213795
-2.835362	- <integer>b	0
-2.193367	- <integer>s	0
-2.835362	- a	0
-2.835362	- action	0
-2.193367	- ago	0
-2.835362	- americanism	0
-2.835362	- annually	0
-2.835362	- base	0
-0.8114584	- based	-0.01586739
-2.835362	- battered	0
-2.835362	- binding	0
-2.835362	- brokerage	0
-2.835362	- care	0
-2.835362	- catalyst	0
-2.835362	- center	0
-2.835362	- cheek	0
-2.835362	- cost	0
-1.881589	- counter	-0.09998341
-2.193367	- coupon	0
-2.835362	- denominated	0
-2.835362	- down	0
-1.881589	- earlier	0
-2.835362	- end	0
-2.835362	- engelhard	0
-2.835362	- equipment	0
-2.835362	- exchange	0
-2.193367	- exploration	0
-2.835362	- family	0
-2.835362	- foot	0
-1.881589	- for	-0.3090166
-2.835362	- french	0
-2.835362	- front	0
-2.835362	- gordon	0
-2.835362	- in	0
-2.835362	- insurance	0
-2.835362	- interest	0
-2.835362	- issued	0
-1.881589	- keeping	0
-2.835362	- kilowatt	0
-2.835362	- leaseback	0
-2.835362	- life	0
-1.881589	- line	0
-2.835362	- makers	0
-2.835362	- metal	0
-2.193367	- month	0
-2.835362	- national	0
-2.835362	- option	0
-1.881589	- owned	-0.07550023
-2.193367	- page	-0.1597472
-2.835362	- paper	0
-2.835362	- point	0
-2.835362	- policy	0
-2.835362	- poulenc	0
-2.835362	- priced	0
-2.835362	- purchase	0
-1.833703	- quarter	-0.1419787
-1.881589	- quebec	0
-1.461811	- rate	-0.04648191
-1.881589	- related	0
-2.835362	- rental	0
-2.835362	- right	0
-2.835362	- satellite	0
-2.835362	- service	0
-2.835362	- services	0
-2.835362	- square	0
-2.835362	- takeover	0
-2.835362	- taking	0
-1.881589	- term	-0.05874746
-1.881589	- the	-0.3142624
-2.835362	- time	0
-2.835362	- ton	0
-2.835362	- trained	0
-2.835362	- vehicle	0
-2.835362	- voting	0
-2.835362	- wage	0
-2.835362	- waste	0
-1.833703	- wine	-0.09099665
-1.461811	- year	-0.0586377
-1.838267	-- about	0
-1.838267	-- an	0
-1.838267	-- are	0
-1.838267	-- betty	0
-1.838267	-- but	0
-1.838267	-- it	0
-1.838267	-- my	0
-1.838267	-- richard	0
-1.838267	-- taiwan	0
-1.838267	-- the	0
-1.838267	-- they	0
-1.838267	-- to	0
-1.838267	-- ultraviolet	0
-1.838267	-- were	0
-1.838267	-- wsj	0
-0.6621763	-based maker	0
-1.420216	. "	-1.186557
-0.01772877	. </s>	0
-1.099362	: "	0
-1.741357	: .	0
-1.741357	: <dollar_value>	0
-1.741357	: a	0
-1.741357	: arrogance	0
-1.741357	: difficulty	0
-1.741357	: harold's	0
-1.741357	: helping	0
-1.741357	: israel's	0
-1.741357	: surf	0
-1.741357	: that	0
-1.565266	; and	0
-1.565266	; benefits	0
-1.565266	; difficulty	0
-1.565266	; inadequate	0
-1.565266	; it	0
-1.565266	; letters	0
-1.565266	; piece	0
-1.565266	; records	0
-1.184691	<dollar_value> ,	-0.2200629
-1.893094	<dollar_value> .	1.082284
-1.893094	<dollar_value> a	-0.3009324
-2.204873	<dollar_value> an	-0.2420053
-2.204873	<dollar_value> and	0
-2.846868	<dollar_value> asked	0
-2.846868	<dollar_value> bid	0
-0.7375334	<dollar_value> billion	-0.1172819
-2.846868	<dollar_value> convertible	0
-1.516497	<dollar_value> each	-0.1952338
-2.204873	<dollar_value> for	0
-2.846868	<dollar_value> from	0
-0.2402088	<dollar_value> million	-0.1489631
-1.845208	<dollar_value> of	-0.1065916
-2.846868	<dollar_value> series	0
-2.846868	<dollar_value> write	0
-2.060116	<double> ,	0
-2.060116	<double> bankeast	0
-1.058457	<double> cents	-0.04813306
-2.060116	<double> common	0
-0.1674911	<double> million	-0.1609271
-2.060116	<double> to	0
-1.612839	<integer> )	0.03782351
-0.7495545	<integer> ,	-0.1275039
-1.201852	<integer> -	-0.1739256
-2.94321	<integer> --	0
-0.6789734	<integer> .	-0.2148438
-2.94321	<integer> ;	0
-2.301214	<integer> <integer>/<integer>	0
-1.989436	<integer> <integer>/<percentage_value>	0
-2.94321	<integer> acreage	0
-2.94321	<integer> aircraft	0
-1.569658	<integer> and	-0.2138346
-2.94321	<integer> annual	0
-2.94321	<integer> basis	0
-2.94321	<integer> budget	0
-1.16709	<integer> cents	0.04785338
-1.989436	<integer> common	0.07252446
-2.94321	<integer> construction	0
-2.94321	<integer> court	0
-2.301214	<integer> days	0
-2.94321	<integer> deficit	0
-2.94321	<integer> democratic	0
-2.94321	<integer> employees	0
-2.94321	<integer> existing	0
-2.94321	<integer> financial	0
-2.94321	<integer> foreign	0
-2.94321	<integer> german	0
-2.94321	<integer> gold	0
-2.94321	<integer> hourly	0
-2.301214	<integer> in	0
-2.301214	<integer> jets	0
-2.94321	<integer> lawsuit	0
-2.94321	<integer> local	0
-2.94321	<integer> marketer	0
-2.94321	<integer> maturities	0
-2.94321	<integer> mcdonnell	0
-2.94321	<integer> mcdonough	0
-2.94321	<integer> metric	0
-2.94321	<integer> miles	0
-1.989436	<integer> million	0
-2.301214	<integer> new	0
-2.94321	<integer> of	0
-2.301214	<integer> ounces	0
-2.94321	<integer> people	0
-2.94321	<integer> preferred	0
-2.94321	<integer> restaurants	0
-2.94321	<integer> revenue	0
-2.94321	<integer> shares	0
-2.94321	<integer> split	0
-2.301214	<integer> stock	-0.214814
-2.301214	<integer> subscribers	0
-2.94321	<integer> that	0
-2.94321	<integer> the	0
-1.569658	<integer> to	-0.06726523
-2.94321	<integer> under	0
-2.301214	<integer> units	0
-2.94321	<integer> was	0
-2.94321	<integer> when	0
-1.281033	<integer> years	-0.3867269
-1.440328	<integer>/<integer> friday	0
-0.4865538	<integer>/<integer> point	-0.07550023
-1.440328	<integer>/<integer> to	0
-1.440328	<integer>/<integer> years	0
-1.139297	<integer>/<percentage_value> bonds	0
-1.139297	<integer>/<percentage_value> convertible	0
-1.139297	<integer>/<percentage_value> debentures	0
-0.6621763	<integer>b aircraft	0
-0.4386681	<integer>s ,	0
-1.440328	<integer>s .	0
-1.440328	<integer>s to	0
-1.47183	<percentage_value> ,	0
-1.47183	<percentage_value> -	-0.3099137
-1.783609	<percentage_value> .	1.146185
-2.425604	<percentage_value> and	0
-2.425604	<percentage_value> bonds	0
-2.425604	<percentage_value> convertible	0
-2.425604	<percentage_value> debentures	0
-1.783609	<percentage_value> decline	-0.08541335
-2.425604	<percentage_value> decrease	0
-2.425604	<percentage_value> effective	0
-1.095233	<percentage_value> from	0
-1.052053	<percentage_value> in	-0.1905105
-1.783609	<percentage_value> increase	0
-2.425604	<percentage_value> interest	0
-0.8091855	<percentage_value> of	-0.1507201
-2.425604	<percentage_value> over	0
-2.425604	<percentage_value> rate	0
-2.425604	<percentage_value> series	0
-1.054734	<percentage_value> stake	0.2724381
-2.425604	<percentage_value> stock	0
-0.860338	<percentage_value> to	-0.2393269
-1.79588	<s> "	-0.07135621
-3.361146	<s> (	0
-99	<s> <s>	0.01951966
-1.69897	<s> a	-0.06957068
-3.361146	<s> abdallah	0
-2.719151	<s> about	-0.1307115
-3.361146	<s> after	0
-3.361146	<s> alexander	0
-2.719151	<s> all	0
-3.361146	<s> allied	0
-3.361146	<s> amax	0
-3.361146	<s> america	0
-2.030775	<s> american	0
-3.361146	<s> analysts	0
-3.361146	<s> arnold	0
-2.359487	<s> as	0
-3.361146	<s> asamera	0
-3.361146	<s> ashland	0
-3.361146	<s> at	0
-3.361146	<s> atari	0
-3.361146	<s> automatic	0
-2.359487	<s> bankeast	-0.01330147
-3.361146	<s> barbara	0
-3.361146	<s> barley	0
-2.719151	<s> boeing	-0.1765
-2.719151	<s> both	0
-3.361146	<s> brinkmann	0
-3.361146	<s> british	0
-2.719151	<s> brock	0
-3.361146	<s> bud	0
-1.987595	<s> but	0
-3.361146	<s> canada's	0
-2.719151	<s> canadian	0
-3.361146	<s> canrad	0
-3.361146	<s> chicago	0
-3.361146	<s> children's	0
-3.361146	<s> china	0
-3.361146	<s> christopher	0
-3.361146	<s> clarence	0
-3.361146	<s> colonial	0
-3.361146	<s> combined	0
-2.719151	<s> commercial	0
-2.719151	<s> computer	-0.1744361
-3.361146	<s> corken	0
-2.719151	<s> dealers	0
-3.361146	<s> departments	0
-3.361146	<s> details	0
-3.361146	<s> deutsche	0
-2.719151	<s> domtar	0
-2.719151	<s> don	0.02999005
-3.361146	<s> during	0
-3.361146	<s> each	0
-3.361146	<s> earnings	0
-3.361146	<s> emerald	0
-2.407372	<s> engelhard	-0.05874746
-2.407372	<s> enviropact	0
-3.361146	<s> eurodollar	0
-3.361146	<s> falcon	0
-3.361146	<s> family	0
-3.361146	<s> fedders	0
-2.359487	<s> first	-0.0183397
-3.361146	<s> fixed	0
-2.407372	<s> for	-0.2262553
-3.361146	<s> frank	0
-3.361146	<s> frontier	0
-3.361146	<s> general	0
-3.361146	<s> glenview	0
-3.361146	<s> gone	0
-3.361146	<s> grumman	0
-2.719151	<s> guest	0.02999005
-3.361146	<s> guilford	0
-3.361146	<s> hako	0
-1.987595	<s> he	0.03172521
-3.361146	<s> hearst	0
-3.361146	<s> heritage	0
-3.361146	<s> holders	0
-2.719151	<s> however	0.2070942
-2.719151	<s> hydro	0.2070942
-2.719151	<s> i	0
-3.361146	<s> if	0
-1.318759	<s> in	-0.02431056
-3.361146	<s> industrial	0
-3.361146	<s> industry	0
-3.361146	<s> inspectors	0
-2.719151	<s> interdyne	0
-3.361146	<s> investors	0
-1.744727	<s> it	-0.06091833
-3.361146	<s> italy's	0
-2.719151	<s> james	0
-1.990276	<s> john	-0.01249737
-2.719151	<s> joseph	0
-3.361146	<s> kansas	0
-3.361146	<s> knowing	0
-2.407372	<s> lac	0.1410426
-3.361146	<s> lake	0
-3.361146	<s> landmark	0
-3.361146	<s> last	0
-3.361146	<s> latest	0
-3.361146	<s> lyman	0
-3.361146	<s> m.m.r.	0
-3.361146	<s> macmillan	0
-3.361146	<s> magma	0
-3.361146	<s> manufacturers'	0
-3.361146	<s> markitstar	0
-3.361146	<s> meridian	0
-2.719151	<s> merrill	0.3249701
-3.361146	<s> merryland	0
-3.361146	<s> microwave	0
-3.361146	<s> millard	0
-2.719151	<s> miss	0
-3.361146	<s> monterey	0
-2.407372	<s> morrison	0.1431937
-3.361146	<s> morton	0
-3.361146	<s> moscow	0
-3.361146	<s> most	0
-1.318759	<s> mr.	0.01406638
-3.361146	<s> mrs.	0
-2.719151	<s> my	0.04004279
-3.361146	<s> neither	0
-3.361146	<s> north	0
-3.361146	<s> now	0
-2.719151	<s> of	-0.1517903
-1.79588	<s> ohio	0.09084371
-2.719151	<s> okc	0
-2.359487	<s> on	-0.06860156
-3.361146	<s> one	0
-2.719151	<s> or	0
-3.361146	<s> outlays	0
-3.361146	<s> particularly	0
-2.719151	<s> patten	0
-3.361146	<s> peapack	0
-3.361146	<s> peter	0
-3.361146	<s> petrolane	0
-3.361146	<s> phoenix	0
-2.407372	<s> proceeds	-0.1531396
-2.359487	<s> pubco	0
-3.361146	<s> questar	0
-3.361146	<s> quotron	0
-3.361146	<s> r.p.	0
-2.719151	<s> rapeseed	0
-3.361146	<s> record	0
-3.361146	<s> rent	0
-2.719151	<s> revenue	-0.1965712
-2.719151	<s> revlon	0
-3.361146	<s> rhone	0
-2.719151	<s> rogers	0
-2.407372	<s> sales	-0.1020608
-3.361146	<s> samuel	0
-2.719151	<s> sas	0
-3.361146	<s> scandinavian	0
-2.030775	<s> seagram	-0.03536278
-3.361146	<s> seats	0
-2.359487	<s> separately	-0.05760303
-2.719151	<s> south	-0.01059067
-2.407372	<s> stanley	-0.03234055
-3.361146	<s> stephen	0
-3.361146	<s> stuart	0
-3.361146	<s> substantially	0
-2.719151	<s> super	0.02999005
-3.361146	<s> swiss	0
-3.361146	<s> ten	0
-2.719151	<s> terms	0
-2.719151	<s> texaco	0
-2.407372	<s> texas	-0.09557141
-3.361146	<s> that	0
-0.60206	<s> the	-0.05753984
-3.361146	<s> there	0
-3.361146	<s> thermo	0
-2.719151	<s> they	0
-3.361146	<s> this	0
-3.361146	<s> though	0
-3.361146	<s> three	0
-3.361146	<s> through	0
-3.361146	<s> trade	0
-2.719151	<s> transamerica	0
-3.361146	<s> true	0
-2.719151	<s> u.s.	0
-3.361146	<s> ulf	0
-2.407372	<s> under	0.4355103
-3.361146	<s> underwriters	0
-3.361146	<s> union	0
-3.361146	<s> universal	0
-3.361146	<s> upon	0
-2.719151	<s> valero	0
-3.361146	<s> valvoline	0
-3.361146	<s> veba	0
-2.719151	<s> virginia	0
-3.361146	<s> washington	0
-3.361146	<s> we	0
-3.361146	<s> weyerhaeuser	0
-2.407372	<s> while	0
-3.361146	<s> with	0
-3.361146	<s> wyman	0
-3.361146	<s> yale	0
-2.719151	<s> yankee	0
-3.361146	<s> year	0
-0.6621763	? </s>	0
-2.400392	a "	0
-2.400392	a -	0
-1.425969	a <dollar_value>	-0.5824645
-1.338819	a <integer>	-0.7121823
-1.338819	a <percentage_value>	-0.1760037
-3.042387	a bank	0
-3.042387	a boston	0
-3.042387	a broad	0
-3.042387	a cable	0
-3.042387	a cash	0
-3.042387	a cbs	0
-3.042387	a change	0
-2.400392	a charge	0
-3.042387	a clear	0
-3.042387	a cleveland	0
-3.042387	a company	0
-3.042387	a competing	0
-3.042387	a consortium	0
-2.040728	a contract	0
-3.042387	a corporate	0
-3.042387	a corresponding	0
-3.042387	a cosmetics	0
-3.042387	a creative	0
-3.042387	a customized	0
-3.042387	a decision	0
-3.042387	a defense	0
-2.400392	a deficit	-0.1880826
-2.400392	a definitive	0.02999005
-3.042387	a des	0
-3.042387	a desire	0
-3.042387	a difference	0
-3.042387	a director	0
-3.042387	a disagreement	0
-3.042387	a dispute	0
-3.042387	a doubling	0
-3.042387	a drop	0
-1.712016	a federal	-0.1111222
-2.400392	a final	0
-3.042387	a financial	0
-2.088614	a former	0
-3.042387	a front	0
-3.042387	a full	0
-3.042387	a generic	0
-2.400392	a group	-0.1950942
-3.042387	a growing	0
-3.042387	a hall	0
-3.042387	a hazardous	0
-3.042387	a history	0
-3.042387	a holding	0
-3.042387	a hostile	0
-3.042387	a joint	0
-3.042387	a lack	0
-3.042387	a large	0
-2.400392	a letter	0.0914664
-2.400392	a little	0
-2.040728	a loss	-0.03262037
-3.042387	a major	0
-2.400392	a maker	0.4472148
-2.400392	a managing	0.02999005
-3.042387	a marginal	0
-3.042387	a merrill	0
-3.042387	a month	0
-3.042387	a more	0
-3.042387	a motion	0
-3.042387	a narrower	0
-3.042387	a nationwide	0
-2.040728	a new	0.07316968
-3.042387	a non	0
-3.042387	a note	0
-3.042387	a novel	0
-2.400392	a number	0.2070942
-3.042387	a permanent	0
-3.042387	a petroleum	0
-3.042387	a pharmaceutical	0
-3.042387	a plan	0
-3.042387	a plasma	0
-3.042387	a portion	0
-3.042387	a positive	0
-3.042387	a possible	0
-2.400392	a preferred	0
-2.400392	a preliminary	0
-3.042387	a previous	0
-3.042387	a previously	0
-3.042387	a primary	0
-3.042387	a private	0
-3.042387	a profit	0
-3.042387	a prolonged	0
-3.042387	a proposal	0
-3.042387	a proposed	0
-3.042387	a prudent	0
-2.040728	a rate	-0.1597753
-3.042387	a recent	0
-3.042387	a record	0
-2.400392	a rehearing	0
-3.042387	a reinsurance	0
-3.042387	a relatively	0
-3.042387	a reorganization	0
-3.042387	a restart	0
-3.042387	a resurgence	0
-3.042387	a rights	0
-3.042387	a sale	0
-3.042387	a salt	0
-3.042387	a san	0
-3.042387	a seasonally	0
-3.042387	a seat	0
-3.042387	a securities	0
-2.088614	a senior	0.01558642
-1.477121	a share	-0.2575258
-2.400392	a shareholder	0
-3.042387	a shift	0
-3.042387	a simple	0
-3.042387	a single	0
-3.042387	a small	0
-3.042387	a soviet	0
-2.400392	a spinoff	-0.08541335
-2.088614	a spokesman	-0.1732441
-3.042387	a state	0
-2.400392	a subsidiary	0
-3.042387	a succession	0
-2.400392	a successor	0
-3.042387	a suitor	0
-3.042387	a surplus	0
-3.042387	a surviving	0
-3.042387	a system	0
-3.042387	a takeover	0
-3.042387	a tax	0
-3.042387	a tender	0
-3.042387	a thomson	0
-3.042387	a time	0
-3.042387	a top	0
-3.042387	a total	0
-3.042387	a transitional	0
-3.042387	a uniform	0
-1.380211	a unit	-0.7727562
-3.042387	a vacancy	0
-3.042387	a venezuelan	0
-3.042387	a very	0
-3.042387	a virginia	0
-3.042387	a vulnerable	0
-3.042387	a well	0
-3.042387	a west	0
-3.042387	a when	0
-1.266268	a year	-0.4042495
-0.9632062	a. krol	0
-0.9632062	a. niglio	0
-0.6621763	abdallah h.	0
-0.6621763	abdication of	0
-0.6621763	abga .	0
-0.6621763	ability to	0
-0.6621763	able to	0
-0.4220737	about <dollar_value>	-0.4733199
-1.228719	about <integer>	0
-2.230378	about <integer>/<integer>	0
-0.6139592	about <percentage_value>	-0.1355131
-2.230378	about arthur	0
-2.230378	about mikhail	0
-2.230378	about other	0
-0.9000068	about the	0
-2.230378	about two	0
-0.6621763	above the	0
-1.139297	abrahamsson ,	0
-1.139297	abrahamsson denied	0
-1.139297	abrahamsson said	0
-0.6621763	abroad but	0
-0.6621763	abusive takeover	0
-0.6621763	accept only	0
-0.6621763	accident co	0
-0.6621763	accompanied by	0
-0.2625768	according to	-0.1062814
-0.9632062	account comprises	0
-0.9632062	account of	0
-0.3212111	accounted for	0
-0.9632062	accounting change	0
-0.9632062	accounting for	0
-0.3212111	accrued interest	0
-0.6621763	accurately stated	0
-0.6621763	accuses our	0
-0.6621763	achieve the	0
-0.6621763	acid rock	0
-1.440328	acquire a	0
-1.440328	acquire and	0
-1.440328	acquire as	0
-1.440328	acquire closely	0
-1.440328	acquire first	0
-1.440328	acquire the	0
-0.6621763	acquired last	0
-0.6621763	acquires or	0
-1.061574	acquisition ,	0
-1.703569	acquisition at	0
-1.061574	acquisition by	0
-1.703569	acquisition costs	0
-0.7019095	acquisition of	-0.007920153
-1.703569	acquisition provides	0
-0.6621763	acquisitions .	0
-0.1855238	acreage is	-0.1380855
-1.264236	acres ,	0
-0.6222411	acres from	-0.243211
-1.264236	acres of	0
-0.6621763	act (	0
-1.139297	action .	0
-1.139297	action status	0
-1.139297	action will	0
-0.6621763	actions .	0
-0.6621763	adams was	0
-0.6621763	add about	0
-0.3212111	added that	-0.2006027
-0.9632062	addison ,	0
-0.9632062	addison plant	0
-0.9632062	addition ,	0
-0.9632062	addition to	0
-1.361146	additional <dollar_value>	0
-1.361146	additional share	0
-1.361146	additional title	0
-1.361146	additional titles	0
-1.361146	additional years	0
-0.6621763	additions to	0
-0.6621763	adjust their	0
-1.139297	adjusted basis	0
-1.139297	adjusted consumer	0
-1.139297	adjusted for	0
-0.6621763	adjusting and	0
-0.6621763	adjustments ,	0
-0.6621763	adjusts semi	0
-0.9632062	administration marshall	0
-0.9632062	administration will	0
-0.6621763	administration's most	0
-0.6621763	adr ,	0
-0.6621763	advanced <integer>	0
-0.6621763	advantage of	0
-0.6621763	advantageous homework	0
-1.139297	advertising .	0
-1.139297	advertising concern	0
-1.139297	advertising representation	0
-0.6621763	advise consumers	0
-0.3212111	aeronautics and	-0.2498666
-0.6621763	aerospace &	0
-0.6621763	affairs .	0
-0.9632062	affect <integer>	0
-0.9632062	affect its	0
-0.8652791	after a	0
-1.507274	after gaining	0
-1.507274	after hearings	0
-0.8652791	after the	0
-1.507274	after two	0
-0.4973024	ag ,	0
-1.139297	ag later	0
-1.565266	against abusive	0
-1.565266	against asian	0
-1.565266	against homework	0
-1.565266	against okc	0
-0.5636068	against the	0
-0.4865538	agency ,	-0.3014386
-1.440328	agency .	0
-0.7983323	agency said	0
-1.139297	ago ,	0
-1.139297	ago profit	0
-1.139297	ago third	0
-1.440328	agreed in	0
-0.4386681	agreed to	-0.09425896
-1.440328	agreed with	0
-1.741357	agreement "	0
-1.741357	agreement ,	0
-1.741357	agreement .	0
-1.741357	agreement and	0
-1.741357	agreement covers	0
-1.741357	agreement for	0
-1.741357	agreement is	0
-1.741357	agreement through	0
-0.7875838	agreement to	0
-1.741357	agreement with	0
-0.6621763	agreements between	0
-0.3212111	agriculture products	-0.22809
-0.9632062	ahead ,	0
-0.9632062	ahead of	0
-0.6621763	aid .	0
-1.264236	air conditioners	0
-1.264236	air conditioning	0
-1.264236	air force	0
-1.264236	air travel	0
-0.9632062	airbus industrie	0
-0.9632062	airbus that	0
-1.264236	aircraft ,	0
-0.6222411	aircraft .	1.146185
-1.264236	aircraft builders	0
-0.6621763	airlines systems	0
-0.6621763	airplanes to	0
-0.6621763	ala .	0
-0.6621763	ala. ,	0
-0.6621763	alan cranston	0
-0.6621763	albany corp.	0
-0.6621763	alberta -	0
-0.6621763	alexander cockburn's	0
-0.6621763	algoma steel	0
-1.616419	all fine	0
-1.616419	all holders	0
-1.616419	all inductees	0
-1.616419	all necessary	0
-0.9744236	all of	0
-1.616419	all options	0
-0.9744236	all the	0
-0.9632062	alleged foreign	0
-0.9632062	alleged fraud	0
-0.6621763	alleges misrepresentations	0
-0.6621763	allied bankshares	0
-0.6621763	allocated to	0
-1.440328	allow any	0
-1.440328	allow consumers	0
-1.440328	allow it	0
-0.4865538	allow the	0
-0.6621763	allowed the	0
-0.9632062	alloy electrodes	0
-0.9632062	alloy powder	0
-0.9632062	along the	0
-0.9632062	along with	0
-1.139297	already has	0
-1.139297	already own	0
-1.139297	already set	0
-1.77612	also an	0
-1.77612	also are	0
-1.77612	also declared	0
-1.77612	also expects	0
-1.77612	also has	0
-1.77612	also hold	0
-1.77612	also known	0
-1.77612	also leaving	0
-1.134124	also plans	0.2923129
-1.77612	also present	0
-1.77612	also requires	0
-1.77612	also wants	0
-0.6621763	amax inc.	0
-1.264236	america .	0
-1.264236	america and	0
-1.264236	america cannot	0
-1.264236	america inc.	0
-1.892625	american cable	0
-1.25063	american cablesystems	0
-1.892625	american countries	0
-1.892625	american depositary	0
-1.892625	american destinations	0
-1.892625	american electric	0
-0.9388515	american health	-0.03234055
-1.25063	american national	0
-1.892625	american officials	0
-1.892625	american philips	0
-1.25063	american stock	-0.1477021
-1.892625	american workers	0
-0.6621763	americanism in	0
-1.139297	aminoil had	0
-1.139297	aminoil its	0
-1.139297	aminoil usa	0
-0.9632062	among homeworkers	0
-0.9632062	among several	0
-0.6621763	amortizing deferred	0
-2.295645	an "	0
-1.65365	an <dollar_value>	0.1200229
-1.65365	an <percentage_value>	0
