
\data\
ngram 1=95
ngram 2=5287
ngram 3=31107

\1-grams:
-2.589533	"	0.217034
-2.52453	's	-0.933541
-2.109955	(	-1.885687
-2.105817	)	-1.368627
-1.349021	,	-2.160329
-1.364844	.	-4.479632
-2.505	2009	-1.948954
-2.221507	:	-1.876887
-1.327364	</s>
-99	<s>	-2.913909
-4.54498	_#	-0.4400738
-3.491079	_$	-2.005691
-3.785312	_''	0.03796369
-2.980145	_,	-0.04911482
-2.684642	_-lrb-	-1.226275
-2.759142	_-rrb-	-0.749366
-2.704113	_.	-0.8956362
-2.17976	_:	-0.6577947
-3.495208	_``	-0.5469247
-2.463864	_cc	0.01259995
-1.772475	_cd	-1.518766
-1.795078	_dt	-0.7179365
-3.31362	_ex	-1.640521
-3.099487	_fw	-0.6931207
-1.5779	_in	-0.8622434
-1.165908	_jj	-0.3199246
-2.357963	_jjr	-0.6553695
-2.876528	_jjs	-0.9163274
-3.512131	_ls	-0.5266875
-2.22217	_md	-1.346214
-0.8525423	_nn	0.5067506
-1.412915	_nnp	-1.041989
-3.1006	_nnps	-0.3617235
-1.26524	_nns	-1.344874
-3.42629	_pdt	-1.62148
-3.175234	_pos	-0.7820927
-2.127508	_prp	-1.083152
-2.43319	_prp$	-1.170295
-1.522139	_rb	-1.242131
-3.19765	_rbr	-1.121109
-3.24009	_rbs	-2.233596
-2.702772	_rp	-1.088986
-3.580518	_sym	-0.9345607
-3.058145	_to	-0.507019
-4.992138	_uh	-0.8935739
-1.519879	_vb	-0.4671385
-2.150716	_vbd	-0.7540306
-1.78829	_vbg	-1.029161
-1.63878	_vbn	-0.5090773
-2.16548	_vbp	-1.182422
-2.09068	_vbz	-0.3630614
-3.871564	_wdt	-0.6288832
-2.826597	_wp	-1.126228
-4.486988	_wp$	-0.7529209
-2.600497	_wrb	-1.233634
-1.900401	a	-2.266835
-2.605104	also	-1.402404
-2.560292	an	-2.256246
-1.701547	and	-2.484442
-2.167817	are	-1.411001
-2.184738	as	-1.881488
-2.038813	be	-1.567595
-2.431037	by	-1.419947
-2.31144	can	-1.787709
-2.547625	elderly	-0.8959399
-2.649321	energy	-0.8438586
-2.114594	for	-1.779949
-2.324032	from	-1.543465
-2.647746	government	-1.596265
-2.51982	has	-1.578776
-2.367444	have	-1.411748
-2.486988	http	-3.499729
-1.87242	in	-1.523175
-1.887412	is	-1.954123
-2.264678	it	-1.378145
-2.432471	more	-1.469816
-2.278144	not	-1.342155
-2.462195	nuclear	-1.65901
-1.582594	of	-2.146826
-2.256779	on	-1.366902
-2.607426	or	-1.297532
-2.527648	people	-1.050542
-2.513572	should	-1.947566
-2.625715	such	-2.301132
-2.632303	technology	-1.007699
-2.05648	that	-1.936037
-1.284261	the	-2.461891
-2.375557	their	-2.321291
-2.720761	there	-2.365641
-2.540659	they	-2.137336
-2.551072	this	-1.277169
-1.569827	to	-1.972317
-2.494794	which	-1.496335
-2.315627	will	-1.840263
-2.395761	with	-1.732183

\2-grams:
-3.101575	" "
-0.976094	" (	0.1825472
-2.288662	" )	0.25999
-1.253386	" ,	0.1674855
-1.147333	" .	2.06141
-2.448363	" 2009	-0.6087321
-3.622713	" :
-1.769137	" </s>
-1.884091	" _''	0.0009904504
-3.529413	" _,
-1.925484	" _-lrb-	-0.1860067
-3.529413	" _-rrb-
-3.500102	" _.	0.05682535
-2.226514	" _:	-0.08884843
-3.529413	" _``	-0.1568861
-2.557507	" _cc	-0.04743861
-1.712409	" _cd	0.007074028
-1.365179	" _dt	-0.1576518
-3.500102	" _ex	0.1490086
-3.622713	" _fw
-1.510511	" _in	0.06901318
-1.190418	" _jj	-0.2401683
-2.288662	" _jjr	0.06421743
-2.800545	" _jjs	-0.04467069
-2.557507	" _md	0.1243178
-0.9648547	" _nn	0.1184543
-0.8827773	" _nnp	-0.03450125
-2.402605	" _nnps	-0.1888723
-1.557507	" _nns	0.2083596
-1.834404	" _prp	-0.08342659
-3.500102	" _prp$	0.20699
-1.654417	" _rb	-0.03924981
-3.622713	" _rbr
-2.256477	" _to	0.03105223
-1.789821	" _vb	-0.05125752
-1.987632	" _vbd	-0.09755336
-1.678329	" _vbg	0.1216908
-1.971241	" _vbn	-0.1927532
-2.448363	" _vbp	-0.07218661
-1.897455	" _vbz	0.004898816
-2.557507	" _wp	-0.1309182
-2.256477	" _wrb	-0.05454171
-2.123852	" a	0.4658194
-3.622713	" also
-2.800545	" an	0.001894295
-1.940207	" and	-0.2426428
-2.800545	" are	-0.1301284
-2.448363	" as	-0.285252
-3.101575	" be
-2.557507	" by	0.01586103
-2.703635	" can	0.2752137
-3.101575	" elderly
-3.529413	" energy
-2.800545	" for	-0.1027874
-2.800545	" from
-3.101575	" government
-2.557507	" has	0.004941285
-3.101575	" have
-1.800545	" http	1.768569
-2.448363	" in	0.0471136
-2.123852	" is	-0.2242565
-3.500102	" it	0.02000627
-3.529413	" more	-0.1430337
-3.529413	" not
-3.500102	" nuclear	0.3173636
-2.323424	" of	-0.02738591
-3.500102	" on	0.1545597
-2.448363	" or	-0.5276371
-3.101575	" people
-3.101575	" should
-3.529413	" such	0.0845353
-3.529413	" technology
-3.529413	" that
-1.678329	" the	0.005213499
-3.622713	" their
-2.800545	" there	-0.2624712
-2.004665	" to	0.2366807
-2.323424	" which	0.06650031
-3.529413	" will	-0.07501018
-2.703635	" with
-3.565105	's "	-0.1171634
-2.467608	's (	0.4390792
-2.513366	's ,	-0.08450966
-2.513366	's .	3.36244
-3.687716	's :
-3.594416	's _$	0.9599985
-3.166578	's _,
-3.594416	's _-lrb-
-3.594416	's _-rrb-	-0.1718649
-3.687716	's _.
-3.594416	's _:	-0.01838765
-3.594416	's _``
-3.166578	's _cc
-2.388427	's _cd	-0.1254904
-2.513366	's _dt	-0.146193
-2.513366	's _in	-0.08838409
-0.7549584	's _jj	-0.3958458
-3.565105	's _jjr	0.1176092
-2.291517	's _jjs	-0.3751432
-3.687716	's _md
-0.2643032	's _nn	-0.05446661
-1.214755	's _nnp	-0.1768714
-1.022004	's _nns	0.2061213
-1.824155	's _pos	0.06730318
-3.687716	's _prp
-3.166578	's _prp$
-2.145389	's _rb	-0.2165068
-2.768638	's _rbs	0.1296828
-2.62251	's _vb	-0.0457681
-3.687716	's _vbd
-1.844359	's _vbg	-0.4259326
-2.426215	's _vbn	-0.006108411
-3.687716	's _vbp
-3.687716	's _wp
-2.768638	's _wrb
-2.513366	's a	0.4814292
-3.687716	's also
-3.687716	's an
-3.565105	's and	-0.05330731
-3.166578	's can
-3.565105	's elderly	-0.07146544
-2.052635	's energy	-0.3931053
-3.687716	's for
-2.125185	's government	-0.1862202
-3.166578	's in
-3.687716	's is
-2.513366	's more	-0.5575743
-3.594416	's not
-3.565105	's nuclear	0.2040025
-3.166578	's of
-3.687716	's on
-3.166578	's or
-3.687716	's such
-3.565105	's technology	-0.1435862
-3.166578	's the
-3.687716	's their
-2.865548	's to	0.2404423
-3.687716	's which
-3.687716	's will
-2.133995	( "	-0.4226791
-4.008991	( )
-1.109128	( 2009	-1.175239
-4.008991	( _$	0.9599985
-3.97968	( _''	-0.1216517
-2.651734	( _,	-0.4384934
-1.541739	( _-lrb-	-0.2372308
-2.484243	( _-rrb-	-0.4354559
-2.248714	( _.	-0.5453517
-2.377033	( _:	-0.4484623
-2.803002	( _cc	-0.4157323
-0.6438858	( _cd	-1.439655
-2.01886	( _dt	-0.3132953
-2.076003	( _fw	-0.6030902
-2.419785	( _in	-0.1832756
-1.729895	( _jj	-0.191766
-4.102291	( _jjr
-3.581153	( _jjs
-2.377033	( _ls	-1.180853
-3.280123	( _md	-0.2097886
-0.7783791	( _nn	-0.9223967
-0.4091341	( _nnp	-1.094044
-4.008991	( _nnps	-0.1678901
-1.979093	( _nns	-0.6168775
-4.102291	( _pos
-3.581153	( _prp
-4.102291	( _prp$
-2.390821	( _rb	-0.2698826
-4.102291	( _rbr
-3.581153	( _sym	-0.2902456
-3.581153	( _to
-2.84079	( _vb	-0.1625734
-4.102291	( _vbd
-2.603429	( _vbg	0.01777343
-2.678063	( _vbn	-0.3274421
-3.280123	( _vbz
-2.736055	( _wp	-0.1655055
-2.92794	( _wrb	-0.09629746
-3.97968	( a	-0.1304585
-4.102291	( an
-3.581153	( and
-2.419785	( as	-1.042596
-4.102291	( by
-4.008991	( for
-4.008991	( from	-0.1543801
-2.501972	( http	1.990418
-3.183213	( in
-4.008991	( or	-0.09408642
-3.280123	( such	-0.04040343
-2.84079	( the	0.3019381
-3.581153	( to
-4.008991	( which	-0.08631168
-4.102291	( will
-2.543899	) "	-0.2205806
-3.284261	) 's	0.2186956
-2.233109	) (	0.1119365
-2.80714	) )	0.2820638
-1.01709	) ,	0.04576296
-0.2316637	) .	1.035502
-2.423923	) :	-0.5753058
-1.737102	) </s>
-4.10643	) _$
-2.886322	) _,	-0.02393672
-2.39496	) _-lrb-	0.004729867
-1.869288	) _-rrb-	-0.1479065
-1.946802	) _.	0.1784249
-2.524594	) _:	0.1154671
-4.01313	) _``
-3.187351	) _cc	-0.06742126
-2.162046	) _cd	-0.1154301
-1.967243	) _dt	-0.2233873
-3.585291	) _ex
-3.983818	) _fw	-0.1965753
-1.789411	) _in	0.233262
-2.170318	) _jj	0.04773968
-4.10643	) _jjr
-4.10643	) _ls
-2.80714	) _md	-0.001000941
-1.645772	) _nn	0.3207821
-1.555908	) _nnp	0.006714404
-4.01313	) _nnps
-2.041224	) _nns	0.1591474
-4.01313	) _pdt	-0.1579753
-2.932079	) _prp	-0.07504772
-4.10643	) _prp$
-1.833243	) _rb	-0.3460575
-3.585291	) _rbr	-0.07432513
-3.585291	) _rbs
-4.10643	) _sym
-3.284261	) _to	0.2421628
-3.187351	) _vb
-1.658435	) _vbd	-0.2779438
-2.585291	) _vbg	0.05712903
-2.31812	) _vbn	-0.1994774
-2.772378	) _vbp	0.02603243
-2.01126	) _vbz	-0.1319994
-3.041224	) _wp	-0.1553214
-2.71023	) _wrb	-0.09994988
-3.585291	) a	-0.03814885
-2.543899	) also	-0.6656318
-1.796416	) and	0.07203579
-2.454958	) are	-0.02803144
-2.607568	) as	-0.04509948
-3.041224	) by	-0.07961701
-2.71023	) can	0.282315
-2.740193	) for	-0.03376457
-2.844929	) from	-0.1818039
-2.187351	) has	-0.3061217
-2.740193	) have	-0.03932458
-2.844929	) http	2.329237
-2.178751	) in	0.0901714
-1.936931	) is	-0.06438237
-3.585291	) nuclear
-2.772378	) of	-0.04590888
-2.983232	) on	-0.1308527
-2.932079	) or	-0.01654989
-2.740193	) should	-0.2766625
-3.585291	) such	0.1015218
-2.932079	) technology	-0.02664407
-2.488381	) that	0.01450315
-3.041224	) the	0.1037119
-4.10643	) their
-4.10643	) they
-4.10643	) this
-2.178751	) to	-0.1572539
-2.306538	) which	-0.02429563
-2.886322	) will	0.2123002
-3.041224	) with	0.06998536
-2.300694	, "	-0.2593497
-2.729303	, (	0.1522795
-4.041057	, )	-0.05192924
-4.863225	, ,
-1.342087	, 2009	-0.3093165
-4.863225	, :
-4.342087	, </s>
-4.769925	, _$	0.9599985
-3.944147	, _''	-0.08412074
-1.941549	, _,	0.1066007
-3.030333	, _-lrb-	0.235321
-2.902754	, _-rrb-	-0.2925673
-2.971019	, _.	-0.1712217
-3.030333	, _:	-0.001644522
-4.740614	, _``	-0.1126222
-1.867871	, _cc	-0.0323258
-1.217583	, _cd	-0.4610827
-1.7555	, _dt	-0.08461571
-4.863225	, _ex
-2.751022	, _fw	-0.2000528
-1.554272	, _in	0.3469406
-1.234199	, _jj	-0.03336608
-2.436291	, _jjr	-0.1078375
-2.656345	, _jjs	-0.6005503
-3.944147	, _ls	-0.300963
-2.823573	, _md	0.4247421
-1.086935	, _nn	0.0713973
-1.031925	, _nnp	-0.09129167
-3.300694	, _nnps	-0.08786321
-1.431196	, _nns	-0.01876831
-3.151755	, _pdt	-0.002042651
-3.944147	, _pos	-0.09372088
-1.589654	, _prp	-1.076259
-2.412668	, _prp$	-0.1777124
-1.470806	, _rb	0.1604325
-4.740614	, _rbr	-0.1300097
-3.195959	, _rbs	0.9248664
-4.863225	, _sym
-4.863225	, _to
-2.461273	, _vb	0.1273534
-2.407588	, _vbd	0.0818556
-1.489607	, _vbg	0.1178247
-2.226476	, _vbn	-0.193936
-2.529174	, _vbp	-0.07972997
-2.467026	, _vbz	0.07227725
-4.041057	, _wdt	-0.09530422
-2.617811	, _wp	0.2893338
-3.688874	, _wp$	0.4791963
-2.248665	, _wrb	0.4299079
-1.832884	, a	0.3423007
-3.211753	, also	-0.1656901
-2.423009	, an	-0.1225218
-1.601724	, and	0.4963946
-2.872265	, are	0.1229078
-1.998678	, as	0.1417078
-3.320898	, be	-0.08152094
-2.563936	, by	-0.3043506
-2.980359	, can	0.2723543
-3.030333	, elderly	-0.170787
-3.563936	, energy	-0.03491828
-2.310678	, for	-0.2774092
-1.576418	, from	-0.3913702
-2.817042	, government	-0.1763424
-2.791859	, has	0.2973807
-3.086814	, have	0.07256749
-3.281389	, http	2.008902
-1.877448	, in	-0.119707
-2.449992	, is	0.3229822
-1.349754	, it	-1.024111
-2.368959	, more	0.01138163
-2.593899	, not	-0.3196495
-2.243443	, nuclear	0.03042793
-3.320898	, of	-0.2490437
-2.961876	, on	-0.2623084
-2.503238	, or	0.08827108
-2.279505	, people	-0.4738098
-2.999664	, should	0.5180176
-2.164551	, such	-0.03159475
-2.935547	, technology	-0.08280066
-2.952921	, that	-0.099801
-0.896016	, the	0.4135072
-2.674634	, their	0.06326759
-1.652778	, there	-0.05008829
-1.797399	, they	0.3063866
-1.974731	, this	-0.06930757
-2.281389	, to	-0.168166
-1.635369	, which	0.123865
-2.779794	, will	0.4236041
-2.120673	, with	0.209914
-4.847402	. ,
-4.847402	. .
-3.073454e-05	. </s>
-4.847402	. _dt
-3.186108	2009 "
-3.707247	2009 's
-2.532896	2009 (	0.05939084
-0.4713596	2009 )	0.07307351
-0.3580933	2009 ,	-1.208729
-1.518655	2009 .	2.348199
-2.407957	2009 :	-0.3466508
-2.106927	2009 </s>
-3.707247	2009 _,
-2.283018	2009 _-lrb-	-0.1916204
-2.487138	2009 _-rrb-	0.002525464
-3.707247	2009 _.
-2.584048	2009 _:	-0.3541812
-3.186108	2009 _cc
-2.532896	2009 _cd	-0.07041254
-3.613947	2009 _in
-3.707247	2009 _jj
-2.445746	2009 _nn	-0.02296721
-1.474301	2009 _nnp	-0.7914007
-3.707247	2009 _sym
-3.186108	2009 _vbn
-3.707247	2009 _vbz
-3.707247	2009 _wrb
-3.707247	2009 and
-3.707247	2009 for
-0.9344702	2009 from	-0.662002
-3.707247	2009 government
-3.707247	2009 have
-3.613947	2009 http	2.893508
-3.707247	2009 in
-3.707247	2009 is
-2.885078	2009 on	-0.1158566
-3.707247	2009 that
-3.707247	2009 there
-3.613947	2009 to
-3.707247	2009 will
-2.323473	: "	-0.119293
-3.071661	: (	-0.1463248
-3.469601	: 2009	-0.1146243
-3.897439	: :	-0.1443101
-1.314265	: </s>
-3.168571	: _#
-3.469601	: _''
-2.469601	: _,	-0.2663696
-1.621412	: _-lrb-	-0.704675
-2.063061	: _-rrb-	-0.4440398
-1.971291	: _.	-0.1901602
-0.4186417	: _:	-0.914692
-3.990739	: _``
-2.469601	: _cc	-0.3556199
-1.684271	: _cd	0.09385425
-1.841212	: _dt	-0.392822
-2.214329	: _fw	-0.2856195
-2.265481	: _in	-0.2437105
-1.680726	: _jj	-0.1286308
-3.990739	: _jjr
-3.469601	: _ls
-3.168571	: _md	-0.1217921
-0.8422353	: _nn	-0.6739827
-1.203605	: _nnp	0.01832682
-3.469601	: _nnps
-1.99248	: _nns	-0.1667582
-3.897439	: _prp
-2.925533	: _prp$	0.5313971
-3.868128	: _rb	-0.07633421
-3.469601	: _sym	0.2429331
-3.469601	: _to
-2.729239	: _vb	-0.03257152
-3.990739	: _vbd
-2.372691	: _vbg	-0.1384376
-2.69145	: _vbn	-0.1633491
-3.469601	: _vbp
-2.867541	: _vbz	-0.158417
-3.469601	: _wdt	-0.2375094
-3.897439	: _wp
-2.566511	: _wrb	0.06097952
-2.624503	: a	0.4791276
-3.469601	: an
-3.990739	: energy
-3.990739	: from
-3.990739	: government
-0.7013331	: http	0.3013313
-3.990739	: in
-3.897439	: is	-0.1373892
-3.990739	: it
-3.469601	: nuclear
-2.252117	: the	0.280332
-3.469601	: they
-3.897439	: to	0.05228698
-3.990739	: with
-1.992676	<s> "	-0.3641245
-1.457409	<s> (	-0.007944345
-3.217616	<s> )	-0.1823552
-4.062714	<s> ,	-0.09531058
-3.819675	<s> .	3.471584
-3.409501	<s> 2009	-0.05179575
-3.710531	<s> :	-0.03288713
-4.791582	<s> _$	0.9599985
-3.623381	<s> _''	-0.04582149
-2.199391	<s> _-lrb-	-0.1735241
-4.363744	<s> _-rrb-
-4.884881	<s> _.
-3.585592	<s> _:	-0.3302371
-3.710531	<s> _``	-0.1856688
-2.08271	<s> _cc	-0.1183516
-1.719798	<s> _cd	-0.2396404
-0.7770438	<s> _dt	-0.4192417
-2.015439	<s> _ex	0.08693492
-2.924411	<s> _fw	-0.4161604
-0.7157741	<s> _in	-0.3534218
-1.322943	<s> _jj	-0.4643079
-2.69629	<s> _jjr	-0.1441396
-2.715384	<s> _jjs	-0.3933518
-2.592891	<s> _ls	-0.7386365
-3.08499	<s> _md	-0.2651035
-1.267181	<s> _nn	0.3245798
-1.032721	<s> _nnp	0.08605111
-2.983532	<s> _nnps	-0.2005777
-1.434069	<s> _nns	-0.09819889
-3.23341	<s> _pdt	-0.03170818
-4.884881	<s> _pos
-1.374739	<s> _prp	-1.22111
-2.651936	<s> _prp$	-0.09003073
-0.7509597	<s> _rb	-0.5821393
-3.05199	<s> _rbr	-0.2220546
-3.409501	<s> _rbs	-0.5701432
-2.316469	<s> _sym	-0.07251126
-2.048824	<s> _to	-0.6825919
-3.761683	<s> _uh	0.01200503
-2.554184	<s> _vb	0.02876413
-4.062714	<s> _vbd
-1.67222	<s> _vbg	-0.06662881
-1.461741	<s> _vbn	-1.17427
-3.284562	<s> _vbp	-0.406469
-3.187652	<s> _vbz	-0.1632581
-3.623381	<s> _wdt	-0.1040316
-2.63539	<s> _wp	-0.2171136
-4.884881	<s> _wp$
-2.238262	<s> _wrb	0.5594224
-4.363744	<s> a	-0.2935991
-4.363744	<s> an	-0.02702361
-3.965804	<s> and	-0.5080777
-3.623381	<s> from	-0.2417974
-4.884881	<s> government
-2.651936	<s> http	1.357792
-4.884881	<s> in
-4.884881	<s> is
-4.884881	<s> it
-4.363744	<s> nuclear
-4.363744	<s> on	-0.06137544
-4.884881	<s> people
-4.884881	<s> should
-4.884881	<s> technology
-3.518646	<s> the	0.2612594
-4.884881	<s> there
-4.884881	<s> they
-4.791582	<s> this	0.03984389
-4.884881	<s> to
-0.845098	_# :	-0.3392293
-1.573966	_# </s>
-1.146128	_# _-rrb-	-0.1269551
-0.60206	_# _cd	-0.05681396
-0.845098	_# _jj	-0.1221842
-1.573966	_# _ls	-0.1712227
-1.573966	_# _nn	-0.1699764
-1.146128	_# _nns
-2.721167	_$ (
-1.898999	_$ )	-0.1174055
-2.721167	_$ .
-2.200029	_$ _:	-0.2904697
-0.02393801	_$ _cd	-0.09406775
-2.721167	_$ _in
-2.200029	_$ _jj
-2.200029	_$ _nn
-2.200029	_$ for
-2.721167	_$ in
-2.721167	_$ of
-1.604766	_'' "	-0.2041349
-1.905796	_'' (
-2.333634	_'' )	0.07300949
-0.976377	_'' ,	-0.1057801
-1.303736	_'' .	3.413592
-2.426934	_'' :
-1.604766	_'' _,
-1.905796	_'' _-lrb-
-2.426934	_'' _.
-1.905796	_'' _:
-2.426934	_'' _cc
-2.333634	_'' _cd	-0.1609632
-1.252583	_'' _dt	0.03412591
-1.604766	_'' _in
-1.361728	_'' _jj	0.1650743
-2.426934	_'' _md
-0.9280723	_'' _nn	-0.06801242
-1.060698	_'' _nnp	-0.07015517
-2.426934	_'' _nns
-2.426934	_'' _pdt
-2.426934	_'' _prp
-2.333634	_'' _rb
-2.333634	_'' _to
-2.333634	_'' _vbd
-2.426934	_'' _vbg
-2.426934	_'' _vbn
-2.426934	_'' _vbp
-2.333634	_'' _vbz
-1.905796	_'' a	-0.2865358
-2.304323	_'' and	-0.121249
-2.426934	_'' are
-1.905796	_'' by
-2.426934	_'' can
-2.426934	_'' for
-2.426934	_'' from
-2.426934	_'' have
-1.604766	_'' in	-0.266172
-1.604766	_'' is	-0.1184455
-2.426934	_'' it
-1.604766	_'' of	-0.1165988
-2.426934	_'' should
-1.905796	_'' that
-2.333634	_'' the	-0.1670821
-2.426934	_'' this
-2.304323	_'' to	-0.12332
-3.232101	_, "
-2.710963	_, 's
-1.399209	_, (	-0.1227081
-0.9785694	_, )	-0.3612953
-1.007672	_, ,	-0.3410024
-1.27163	_, .	2.576319
-2.313023	_, 2009	0.4332834
-1.710963	_, :	-0.317388
-1.9706	_, </s>
-2.011993	_, _-lrb-	-0.2096063
-2.409933	_, _``
-1.66957	_, _cc	-0.1563795
-1.358781	_, _cd	-0.02117822
-1.432209	_, _dt	0.08924219
-3.232101	_, _ex
-3.232101	_, _fw
-1.443791	_, _in	-0.1823596
-1.432209	_, _jj	0.05719641
-3.232101	_, _jjr
-2.710963	_, _jjs
-2.710963	_, _md
-1.399209	_, _nn	0.02014226
-0.9550883	_, _nnp	0.08351046
-1.9706	_, _nns	-0.09733977
-2.108903	_, _prp	-0.07888147
-3.138801	_, _prp$
-1.932812	_, _rb	-0.02397838
-3.232101	_, _rbr
-3.138801	_, _to
-2.710963	_, _vb
-3.10949	_, _vbd	-0.1205352
-1.89805	_, _vbg	-0.1199979
-3.10949	_, _vbn	-0.1449202
-2.409933	_, _vbz
-3.10949	_, _wdt	-0.06432622
-3.232101	_, _wp
-3.138801	_, _wrb
-2.710963	_, a	-0.2865358
-2.710963	_, also	-0.2752503
-2.409933	_, an
-1.287717	_, and	-0.3528047
-2.166895	_, are	-0.2840738
-2.710963	_, by
-2.166895	_, can	-0.09874023
-1.835902	_, for	-0.2233776
-2.313023	_, from	-0.08504757
-3.138801	_, has	-0.1651409
-1.89805	_, http	2.256686
-1.932812	_, in	-0.09947023
-1.89805	_, is	-0.260589
-2.313023	_, it	-0.09251796
-2.710963	_, more
-2.710963	_, not
-2.710963	_, nuclear
-1.564835	_, of	0.04846951
-2.313023	_, on	0.1372029
-3.10949	_, or	-0.1492828
-3.232101	_, people
-2.710963	_, should
-3.232101	_, such
-3.232101	_, technology
-3.10949	_, that
-1.781544	_, the	-0.2489332
-2.710963	_, their
-3.232101	_, there
-3.138801	_, they
-3.232101	_, this
-1.807873	_, to	-0.26134
-2.710963	_, which
-3.10949	_, will	0.06415994
-2.710963	_, with	-0.2888692
-3.527604	_-lrb- "
-3.527604	_-lrb- 's
-2.028743	_-lrb- (	-0.142466
-1.254418	_-lrb- )	-0.1699843
-1.462398	_-lrb- ,	-0.7352529
-1.945768	_-lrb- .	2.954954
-2.228315	_-lrb- 2009	0.002848238
-1.965073	_-lrb- :	-0.2615671
-1.909556	_-lrb- </s>
-3.006466	_-lrb- _''	-0.2541168
-2.705436	_-lrb- _-lrb-	-0.01695861
-3.527604	_-lrb- _-rrb-
-1.131405	_-lrb- _cd	-0.5509044
-3.434304	_-lrb- _dt
-3.006466	_-lrb- _fw
-3.006466	_-lrb- _in
-1.426682	_-lrb- _jj	-0.3489524
-1.399011	_-lrb- _ls	-1.602413
-0.7175465	_-lrb- _nn	-0.7513656
-1.131405	_-lrb- _nnp	-0.3696077
-2.077047	_-lrb- _nns	-0.534121
-3.527604	_-lrb- _prp$
-3.527604	_-lrb- _rb
-3.527604	_-lrb- _to
-1.559308	_-lrb- _vbd	-1.340708
-3.434304	_-lrb- _vbg	-0.1650601
-1.945768	_-lrb- _vbn	-0.6680049
-3.527604	_-lrb- _wp
-3.006466	_-lrb- a
-2.307496	_-lrb- and	-0.2280789
-3.527604	_-lrb- are
-3.006466	_-lrb- as
-3.527604	_-lrb- by
-2.608526	_-lrb- for	-0.1585217
-3.434304	_-lrb- from
-3.527604	_-lrb- has
-0.4453647	_-lrb- http	0.508498
-3.527604	_-lrb- is
-3.527604	_-lrb- not
-3.527604	_-lrb- nuclear
-2.266103	_-lrb- of	-0.09354098
-3.527604	_-lrb- on
-3.527604	_-lrb- technology
-3.006466	_-lrb- that
-3.404993	_-lrb- the	-0.2357514
-3.434304	_-lrb- to
-3.527604	_-lrb- with
-2.329906	_-rrb- "	-0.05364866
-3.359804	_-rrb- 's	-0.1450443
-1.931966	_-rrb- (	0.6759332
-1.954242	_-rrb- )	0.2328639
-1.259868	_-rrb- ,	-0.1118425
-0.9850228	_-rrb- .	2.068709
-3.453104	_-rrb- 2009
-0.4965996	_-rrb- :	-1.852617
-1.910777	_-rrb- </s>
-2.931966	_-rrb- _''
-1.835056	_-rrb- _,	-0.1066877
-0.7544296	_-rrb- _-lrb-	-0.3878325
-2.630936	_-rrb- _-rrb-
-1.630936	_-rrb- _.	0.05200559
-2.387898	_-rrb- _:
-2.931966	_-rrb- _cc
-1.954242	_-rrb- _cd	-0.03861845
-1.653213	_-rrb- _dt	0.05493921
-3.359804	_-rrb- _ex	-0.03167388
-1.755875	_-rrb- _in	0.06863411
-1.785838	_-rrb- _jj	0.189871
-3.453104	_-rrb- _jjr
-3.359804	_-rrb- _ls
-1.818023	_-rrb- _nn	0.139772
-1.269208	_-rrb- _nnp	-0.132045
-2.931966	_-rrb- _nnps
-2.278754	_-rrb- _nns	-0.1364431
-2.931966	_-rrb- _pos	-0.2922992
-2.931966	_-rrb- _prp
-3.453104	_-rrb- _prp$
-2.086868	_-rrb- _rb	-0.08253813
-2.534026	_-rrb- _sym	0.3240061
-3.453104	_-rrb- _to
-2.278754	_-rrb- _vbd	-0.01572373
-2.630936	_-rrb- _vbg	-0.09260963
-2.931966	_-rrb- _vbn
-2.931966	_-rrb- _vbp	-0.2788775
-2.329906	_-rrb- _vbz	-0.0410554
-3.453104	_-rrb- _wdt
-3.453104	_-rrb- _wp
-2.329906	_-rrb- a
-2.931966	_-rrb- an
-2.119053	_-rrb- and	-0.06078599
-2.931966	_-rrb- are
-3.453104	_-rrb- as
-2.931966	_-rrb- by
-3.453104	_-rrb- can
-3.453104	_-rrb- energy
-3.359804	_-rrb- for
-3.359804	_-rrb- from	-0.1623737
-3.453104	_-rrb- government
-2.329906	_-rrb- has	-0.1952567
-2.931966	_-rrb- have
-2.086868	_-rrb- http	2.224501
-2.278754	_-rrb- in	-0.1360738
-3.330493	_-rrb- is
-3.453104	_-rrb- more
-2.002547	_-rrb- of	-0.1239667
-3.359804	_-rrb- on
-3.453104	_-rrb- or
-3.453104	_-rrb- people
-2.931966	_-rrb- technology
-2.534026	_-rrb- that	-0.09494623
-2.232996	_-rrb- the	0.1089735
-2.931966	_-rrb- their
-3.453104	_-rrb- this
-2.153815	_-rrb- to	-0.01845177
-3.359804	_-rrb- will
-2.630936	_-rrb- with	-0.07451461
-2.384936	_. "	-0.2209558
-3.508134	_. 's
-1.873052	_. (	-0.08972913
-1.589056	_. )	-0.1338911
-1.379541	_. ,	-0.1627429
-1.384935	_. .	2.413592
-2.589056	_. 2009	-0.08168743
-1.160921	_. :	-0.759274
-0.574535	_. </s>
-2.057577	_. _-lrb-	-0.06555584
-3.508134	_. _.
-3.508134	_. _:
-2.141897	_. _cc	-0.6896801
-2.333783	_. _cd	-0.245336
-1.654557	_. _dt	0.004350722
-3.508134	_. _ex
-1.644573	_. _fw	-0.2734382
-2.083905	_. _in	-0.1875628
-1.756547	_. _jj	-0.1070946
-3.508134	_. _jjr
-0.5476629	_. _nn	-0.5551783
-1.481846	_. _nnp	-0.02372947
-1.719824	_. _nns	-0.3430618
-2.986995	_. _prp
-2.288026	_. _rb
-3.414834	_. _sym	-0.1689934
-3.385522	_. _vb	-0.1277138
-2.589056	_. _vbg
-1.731723	_. _vbn	-0.3750596
-3.508134	_. _wrb
-3.414834	_. a	-0.1722325
-3.508134	_. an
-2.141897	_. and	-0.179702
-2.589056	_. are	-0.1542054
-3.508134	_. be
-3.414834	_. can	-0.01124062
-2.986995	_. energy
-2.384936	_. for	-0.09739234
-2.589056	_. from	-0.2068226
-2.986995	_. has
-3.414834	_. have
-2.141897	_. http	2.450208
-2.589056	_. in
-2.111934	_. is	-0.1028012
-3.508134	_. not
-2.442928	_. nuclear	0.000645116
-1.907814	_. of	0.1137386
-2.685966	_. on
-2.986995	_. people	-0.2907844
-3.508134	_. should
-3.508134	_. such
-3.508134	_. that
-2.246633	_. the	-0.1874277
-3.508134	_. there
-3.508134	_. this
-2.589056	_. to	-0.09112041
-3.508134	_. which
-3.508134	_. will
-2.986995	_. with	-0.2888692
-2.293864	_: "	-0.3502324
-3.113409	_: 's	-0.09493645
-2.113409	_: (	-0.4607543
-1.862988	_: )	-0.09669888
-1.726019	_: ,	-0.5082978
-1.549927	_: .	2.054231
-3.210319	_: 2009
-1.872859	_: :	-0.652959
-0.7048294	_: </s>
-3.113409	_: _$	0.9638567
-2.698435	_: _-lrb-	-0.002443805
-3.939187	_: _-rrb-	-0.08828803
-2.469956	_: _.	0.01032901
-0.5250247	_: _:	-0.59523
-3.511348	_: _``
-3.210319	_: _cc
-1.920284	_: _cd	-0.2306308
-2.256076	_: _dt	0.1856105
-2.397405	_: _fw	-0.4104367
-2.397405	_: _in	-0.02287272
-1.608258	_: _jj	0.1947235
-3.113409	_: _jjr	-0.06103525
-3.939187	_: _jjs
-4.032486	_: _md
-0.6380279	_: _nn	-0.6775295
-1.691805	_: _nnp	-0.1842988
-2.013038	_: _nns	-0.1991289
-2.58193	_: _prp	-0.1230673
-3.113409	_: _prp$
-1.778955	_: _rb	-0.2714114
-4.032486	_: _rbr
-2.66625	_: _vb	-0.01557491
-2.432167	_: _vbg	0.01755233
-2.414438	_: _vbn	-0.1418585
-3.511348	_: _vbp
-3.939187	_: _vbz
-3.511348	_: _wp
-2.96728	_: _wrb	-0.013724
-2.636287	_: a	0.5298796
-3.939187	_: an	-0.0440101
-2.140281	_: and	-0.079411
-3.210319	_: are
-2.636287	_: as	-0.07927154
-3.511348	_: be
-3.909875	_: by
-3.939187	_: can	-0.3084322
-3.511348	_: elderly
-3.939187	_: energy	-0.06000476
-2.608258	_: for	-0.1340421
-3.113409	_: from
-4.032486	_: has
-4.032486	_: have
-2.58193	_: http	2.140181
-2.58193	_: in	0.1646369
-2.858136	_: is	-0.04424353
-2.268311	_: it	0.1019127
-3.210319	_: more
-3.511348	_: not
-3.113409	_: nuclear	0.2370647
-2.450651	_: of	-0.1460764
-2.66625	_: on	0.1186857
-3.113409	_: or
-3.113409	_: people
-3.939187	_: such	-0.1495557
-3.210319	_: technology	-0.1054383
-2.812378	_: that
-1.973529	_: the	0.4232352
-3.939187	_: their	0.009478837
-3.909875	_: there	0.3492674
-2.636287	_: they	0.08033183
-2.511348	_: this	0.2574776
-2.698435	_: to	0.1894453
-2.733197	_: which	-0.04141495
-3.939187	_: will
-3.511348	_: with
-2.717038	_`` "
-2.717038	_`` (
-2.717038	_`` )
-2.717038	_`` ,
-1.455537	_`` .	3.27529
-2.623738	_`` _cd	-0.2517473
-1.455537	_`` _dt	-0.1610243
-2.1959	_`` _in
-0.6518316	_`` _jj	0.09777635
-2.717038	_`` _jjr
-2.717038	_`` _md
-0.6218684	_`` _nn	-0.2113032
-0.8634612	_`` _nnp	-0.2556717
-1.49693	_`` _nns	-0.06831682
-2.623738	_`` _rb	-0.1228419
-2.717038	_`` _to
-1.455537	_`` _vb	-0.2800465
-1.59384	_`` _vbg	-0.04492
-1.218176	_`` _vbn	-0.02131253
-2.717038	_`` _vbp
-2.717038	_`` _vbz
-2.717038	_`` _wp
-2.717038	_`` _wrb
-2.1959	_`` and	-0.2867651
-2.717038	_`` are
-2.717038	_`` be
-2.717038	_`` by
-2.717038	_`` for
-2.717038	_`` from
-1.89487	_`` in	-0.4281026
-2.623738	_`` is
-2.717038	_`` it
-1.49693	_`` of	-0.601926
-2.1959	_`` on
-2.717038	_`` or
-2.717038	_`` should
-2.1959	_`` that
-2.1959	_`` the	-0.2883343
-2.717038	_`` their
-2.623738	_`` to
-3.655082	_cc "
-3.227244	_cc 's
-2.206054	_cc (	0.09763891
-2.41433	_cc )	0.1996694
-1.641783	_cc ,	-0.08841354
-1.61446	_cc .	2.402868
-3.227244	_cc 2009
-2.324154	_cc :	-0.6288016
-2.081116	_cc </s>
-3.748382	_cc _$
-3.748382	_cc _''
-3.227244	_cc _,
-2.829304	_cc _-lrb-	-0.002659515
-3.748382	_cc _-rrb-
-3.748382	_cc _:
-2.926214	_cc _``
-2.185851	_cc _cc	-0.305196
-1.683176	_cc _cd	-0.5798084
-1.838078	_cc _dt	0.1404061
-3.748382	_cc _ex
-2.185851	_cc _fw	-0.583414
-1.482951	_cc _in	-0.1197962
-1.21021	_cc _jj	0.06147248
-2.574031	_cc _jjr	-0.05014469
-2.926214	_cc _jjs	-0.04467069
-2.41433	_cc _md	0.004717231
-0.8617558	_cc _nn	-0.1793566
-0.8799137	_cc _nnp	-0.3494597
-2.926214	_cc _nnps	-0.11966
-1.664951	_cc _nns	-0.06449066
-3.655082	_cc _pdt	-0.1048359
-3.748382	_cc _pos
-1.856176	_cc _prp	-0.2402054
-2.273001	_cc _prp$	-0.07280856
-1.385259	_cc _rb	0.2900912
-3.748382	_cc _rbr
-3.655082	_cc _rbs	-0.2388989
-3.748382	_cc _sym
-3.655082	_cc _to	-0.1713608
-1.865516	_cc _vb	0.09637037
-2.297825	_cc _vbd	-0.0294181
-1.960072	_cc _vbg	0.2642379
-2.227244	_cc _vbn	-0.07597663
-2.227244	_cc _vbp	-0.1156682
-2.130334	_cc _vbz	0.04784727
-3.748382	_cc _wdt
-2.528274	_cc _wp	-0.1272853
-2.382146	_cc _wrb	-0.07168587
-2.00976	_cc a	0.2677498
-1.135577	_cc also	0.05104452
-3.625771	_cc an	0.1889115
-2.574031	_cc and	-0.140604
-2.297825	_cc are	0.1729742
-2.185851	_cc as	0.04107808
-2.926214	_cc be
-2.24952	_cc by	-0.2418033
-2.486881	_cc can	0.04300512
-3.748382	_cc energy
-2.206054	_cc for	0.04811157
-2.829304	_cc from	-0.08060261
-3.227244	_cc government	-0.2798497
-3.655082	_cc has
-3.625771	_cc have
-3.748382	_cc http
-1.772399	_cc in	-0.06352693
-2.352183	_cc is	-0.1329644
-1.49485	_cc it	-0.09660971
-2.528274	_cc more	0.04684745
-1.578884	_cc not	-0.3212623
-3.625771	_cc nuclear	0.2537215
-1.971971	_cc of	-0.1042911
-2.273001	_cc on	0.1108792
-2.829304	_cc people	-0.08019007
-2.574031	_cc should	-0.0696636
-3.655082	_cc such
-2.926214	_cc technology
-2.449093	_cc that	-0.07420602
-1.164662	_cc the	0.1804645
-2.829304	_cc their	0.08680502
-2.081116	_cc there	-0.04036623
-1.875061	_cc they	0.1853429
-2.166546	_cc this	0.1400993
-1.750123	_cc to	0.1831874
-3.227244	_cc which	-0.2883425
-2.382146	_cc will	0.04291324
-2.081116	_cc with	-0.08628258
-2.688184	_cd "	-0.1139191
-2.788299	_cd 's	-0.2520227
-1.693324	_cd (	0.02738762
-0.6472563	_cd )	0.08890319
-0.7862133	_cd ,	-0.3501754
-1.246073	_cd .	1.568799
-2.80469	_cd 2009	0.5268623
-2.538422	_cd :	-0.2633954
-2.170445	_cd </s>
-4.346471	_cd _#	-0.160633
-3.374565	_cd _$	-0.06295517
-4.439771	_cd _''
-2.228437	_cd _,	-0.2059653
-2.757265	_cd _-lrb-	0.2150733
-1.718604	_cd _-rrb-	0.09523952
-2.374565	_cd _.	0.1103625
-2.255875	_cd _:	-0.3598245
-2.095811	_cd _cc	-0.5739652
-1.550346	_cd _cd	0.1533461
-2.757265	_cd _dt	-0.09841135
-3.918633	_cd _fw	-0.1042657
-2.010148	_cd _in	-0.2492483
-1.533027	_cd _jj	-0.2637972
-3.520693	_cd _jjr	0.08673583
-3.617603	_cd _jjs	-0.02062407
-2.742542	_cd _md	0.3459714
-0.8970304	_cd _nn	0.1461697
-1.586195	_cd _nnp	-0.356836
-4.31716	_cd _nnps
-1.010685	_cd _nns	0.7568464
-4.439771	_cd _pos
-3.617603	_cd _prp
-4.439771	_cd _prp$
-2.556905	_cd _rb	-0.0005975366
-3.043572	_cd _rbs	0.5498914
-3.617603	_cd _sym	0.1010079
-4.439771	_cd _to
-4.439771	_cd _vb
-2.441512	_cd _vbd	0.02210754
-2.728302	_cd _vbg	-0.1077164
-2.772505	_cd _vbn	0.05600691
-3.520693	_cd _vbp
-2.651461	_cd _vbz	0.00717479
-4.439771	_cd _wdt
-3.617603	_cd _wp	-0.1155794
-4.439771	_cd _wp$
-3.10572	_cd _wrb	-0.06718769
-3.316573	_cd a	0.002428502
-4.439771	_cd also
-4.439771	_cd an
-1.881207	_cd and	0.05272323
-3.10572	_cd are	0.2452579
-2.87724	_cd as	-0.1600321
-2.606879	_cd by	-0.3995912
-3.316573	_cd can	0.03788507
-2.989214	_cd elderly	-0.06000303
-4.439771	_cd energy
-2.586195	_cd for	0.1573638
-2.520693	_cd from	-0.1797192
-2.772505	_cd has	-0.03094554
-3.316573	_cd have	-0.06371996
-2.487269	_cd http	1.638236
-1.961985	_cd in	-0.4447868
-2.311178	_cd is	0.2390291
-3.10572	_cd more	0.3078907
-4.439771	_cd not
-2.092558	_cd nuclear	0.0008751154
-1.37209	_cd of	-0.5666591
-3.140482	_cd on	-0.02330953
-2.596414	_cd or	-0.4470425
-2.246535	_cd people	-0.08979413
-4.346471	_cd should	-0.05477853
-2.566451	_cd such	-0.8906153
-3.140482	_cd technology	-0.1780535
-2.675595	_cd that	-0.1248406
-2.940909	_cd the	0.2701032
-3.918633	_cd there
-3.617603	_cd this	-0.196101
-1.739656	_cd to	-0.2767406
-2.857935	_cd which	-0.002275854
-2.701149	_cd will	0.04712051
-3.10572	_cd with	0.1171941
-2.87484	_dt "	-0.07361169
-2.705698	_dt 's	-0.5296509
-2.966611	_dt (	-0.04206285
-4.294557	_dt )	0.3262027
-1.764091	_dt ,	0.06801254
-1.893864	_dt .	2.013486
-4.417168	_dt 2009
-3.49809	_dt :	-0.09268386
-3.242817	_dt </s>
-4.417168	_dt _$
-4.417168	_dt _''
-4.417168	_dt _,
-4.323868	_dt _-lrb-
-4.417168	_dt _-rrb-
-4.417168	_dt _.
-2.966611	_dt _``	0.1623574
-3.595	_dt _cc
-1.751456	_dt _cd	-0.7000917
-2.39088	_dt _dt	-0.1711773
-4.323868	_dt _fw	0.0169865
-2.233272	_dt _in	-0.2752635
-0.7707114	_dt _jj	0.1980863
-2.41173	_dt _jjr	-0.08246624
-2.584276	_dt _jjs	-0.1591219
-3.49809	_dt _ls
-1.733167	_dt _md	0.09773052
-0.5382856	_dt _nn	0.3038709
-1.311699	_dt _nnp	0.06415641
-3.595	_dt _nnps
-0.8323213	_dt _nns	0.2740091
-3.595	_dt _prp	-0.09377083
-3.19706	_dt _prp$	-0.331004
-2.023874	_dt _rb	-0.197952
-2.941787	_dt _rbr	0.05916762
-2.456697	_dt _rbs	0.1367303
-4.323868	_dt _rp
-4.417168	_dt _to
-3.351962	_dt _vb	-0.01272093
-2.184223	_dt _vbd	-0.02383119
-1.936988	_dt _vbg	-0.198078
-2.262562	_dt _vbn	-0.2451
-2.121513	_dt _vbp	-0.1085708
-1.661766	_dt _vbz	0.105988
-1.979576	_dt _wp	-0.5595554
-3.89603	_dt _wrb
-3.29397	_dt a	0.09015685
-2.99294	_dt also	-0.2591439
-4.417168	_dt an
-2.339727	_dt and	-0.07079786
-2.242817	_dt are	0.1777954
-3.19706	_dt as	-0.08689066
-3.351962	_dt be	0.05272666
-3.155667	_dt by	-0.05930841
-2.288575	_dt can	0.6695362
-2.009539	_dt elderly	-0.2086357
-2.89603	_dt energy	-0.2224012
-2.734662	_dt for	-0.1251402
-3.29397	_dt from	-0.01398914
-1.878997	_dt government	-0.1414127
-2.481056	_dt has	-0.3095707
-2.652992	_dt have	0.05725753
-4.417168	_dt http
-2.18846	_dt in	-0.1892303
-1.441948	_dt is	-0.3850337
-3.89603	_dt it
-2.584276	_dt more	0.2213512
-3.29397	_dt not	-0.1851592
-2.321999	_dt nuclear	-0.2065903
-1.50864	_dt of	0.01565099
-3.242817	_dt on	0.1511691
-3.155667	_dt or	-0.1489432
-1.883193	_dt people	-0.09015226
-4.294557	_dt should	0.1064277
-3.351962	_dt such	0.4075874
-2.433632	_dt technology	-0.039805
-2.678546	_dt that	0.01924701
-2.835332	_dt the	0.6026683
-2.854637	_dt their	0.497494
-3.89603	_dt there
-3.351962	_dt they	-0.02020431
-4.294557	_dt this	-0.1143666
-2.534302	_dt to	0.1878687
-3.19706	_dt which	-0.2229139
-1.922902	_dt will	0.4077287
-2.705698	_dt with	0.1314201
-2.076458	_ex 's
-2.898627	_ex (
-2.898627	_ex ,
-2.377488	_ex .	3.856547
-2.898627	_ex _in
-1.53239	_ex _md	-0.3073082
-2.898627	_ex _rb
-1.201397	_ex _vbd	-0.02702421
-1.979548	_ex _vbp
-2.776015	_ex _vbz	-0.04493507
-2.377488	_ex a	-0.2865358
-2.898627	_ex also
-0.3263358	_ex are	-0.696979
-2.898627	_ex can
-1.775428	_ex has	-0.4265286
-2.076458	_ex have	-0.2462225
-0.5579445	_ex is	-0.5463679
-2.898627	_ex nuclear
-1.53239	_ex should	-0.3716037
-2.377488	_ex to
-1.336096	_ex will	-0.3573949
-3.112759	_fw "
-3.112759	_fw 's
-1.688531	_fw (	0.5239227
-0.9788372	_fw )	-0.06303406
-1.129223	_fw ,	-0.4568523
-1.229893	_fw .	2.653924
-2.591621	_fw 2009
-1.530923	_fw :	-0.0347141
-1.550228	_fw </s>
-3.112759	_fw _-lrb-
-2.591621	_fw _-rrb-
-1.892651	_fw _.	0.06285097
-1.401289	_fw _:	-0.1797179
-3.019459	_fw _cc	-0.2463802
-2.047553	_fw _cd	-0.0620432
-3.112759	_fw _dt
-0.451742	_fw _fw	0.3428795
-3.112759	_fw _in
-1.401289	_fw _jj	-0.2547563
-3.112759	_fw _md
-0.9103798	_fw _nn	-0.2193054
-2.193681	_fw _nnp	0.05318259
-3.112759	_fw _nns
-2.591621	_fw _vb
-3.019459	_fw _vbp
-3.112759	_fw _vbz
-3.019459	_fw a
-2.990148	_fw and
-3.112759	_fw are
-3.112759	_fw can
-3.019459	_fw for
-2.591621	_fw from	-0.2058738
-2.290591	_fw has	0.1002083
-2.990148	_fw http	2.592478
-2.990148	_fw in	0.01049782
-2.591621	_fw nuclear	0.03848636
-1.81347	_fw of	-0.0001895428
-3.112759	_fw on
-3.112759	_fw that
-3.112759	_fw the
-3.112759	_fw their
-2.591621	_fw to	0.06927347
-2.591621	_fw which	-0.2075639
-2.591621	_fw will
-2.591621	_fw with
-2.999264	_in "	-0.0446766
-3.335057	_in 's	-0.03026107
-2.909088	_in (	-0.07574815
-3.372845	_in )	-0.007729381
-1.833313	_in ,	0.2129869
-2.089955	_in .	1.9924
-3.511148	_in 2009	0.02330497
-3.26811	_in :	-0.04224021
-2.982874	_in </s>
-2.812178	_in _$	0.0607667
-4.634346	_in _''
-2.74214	_in _-lrb-	-0.4347756
-4.541046	_in _-rrb-
-4.541046	_in _.	-0.1760963
-4.541046	_in _:
-3.56914	_in _``	0.04383594
-2.658363	_in _cc	-0.3066506
-1.473224	_in _cd	-0.09986222
-1.470249	_in _dt	0.1778497
-4.634346	_in _ex
-3.56914	_in _fw	-0.115751
-2.459995	_in _in	0.0861901
-1.140542	_in _jj	0.2030102
-2.361159	_in _jjr	0.1164901
-2.265019	_in _jjs	0.3709383
-3.511148	_in _md	0.04773629
-0.7509139	_in _nn	0.3305209
-1.381619	_in _nnp	0.1424927
-4.511734	_in _nnps
-1.491512	_in _nns	0.3701646
-2.594694	_in _pdt	0.2539137
-4.634346	_in _pos
-1.731191	_in _prp	0.1843259
-1.834454	_in _prp$	0.07010794
-1.962451	_in _rb	0.06401408
-4.113208	_in _rbr	-0.07432513
-3.812178	_in _rbs	0.2265928
-3.113208	_in _vb	-0.09723436
-4.541046	_in _vbd	-0.159611
-1.360391	_in _vbg	0.5531669
-2.163818	_in _vbn	-0.07746542
-3.812178	_in _vbp	-0.1218086
-3.26811	_in _vbz	-0.28686
-4.113208	_in _wdt
-2.823173	_in _wp	-0.1088071
-2.681844	_in _wrb	0.1173711
-1.356192	_in a	0.0885278
-4.634346	_in also
-2.087902	_in an	0.1969295
-2.405638	_in and	0.1424638
-3.372845	_in are	0.04177247
-3.05251	_in as	0.03217113
-4.634346	_in be
-3.016298	_in by	0.3717272
-3.56914	_in can	-0.1386672
-3.238147	_in elderly	-0.06722391
-3.113208	_in energy	0.02635677
-2.505753	_in for	-0.03561997
-3.715268	_in from	-0.1747215
-3.158965	_in government	-0.1825446
-3.459995	_in has	0.2081472
-3.459995	_in have	-0.2634109
-3.113208	_in http	2.069599
-2.49516	_in in	0.0921793
-2.812178	_in is	0.1547583
-1.66605	_in it	-0.2772112
-2.608058	_in more	0.04764336
-2.562979	_in not	-0.1537589
-2.265019	_in nuclear	0.0494746
-1.722273	_in of	0.03247499
-3.158965	_in on	0.2388625
-2.857935	_in or	-0.2814034
-2.445755	_in people	-0.0701153
-3.812178	_in should
-2.130937	_in such	0.3051068
-2.87017	_in technology	-0.07058551
-1.636086	_in that	-0.4374424
-0.6526106	_in the	0.2576525
-1.917308	_in their	0.5009373
-2.034027	_in there	0.0822674
-1.717008	_in they	-0.04892719
-1.679438	_in this	-0.2881017
-1.959393	_in to	-0.08565199
-2.834454	_in which	-0.1905099
-3.812178	_in will	-0.1197037
-2.614897	_in with	0.1974277
-2.830595	_jj "	-0.05638617
-3.173018	_jj 's	0.1192319
-2.590702	_jj (	0.3768744
-3.213446	_jj )	0.06325901
-1.595781	_jj ,	0.5931957
-1.470204	_jj .	0.9606564
-3.747049	_jj 2009	0.1158119
-3.078042	_jj :	-0.05467591
-3.192762	_jj </s>
-4.22417	_jj _$	0.8350598
-3.595781	_jj _''	-0.04866903
-3.82623	_jj _,	-0.05479345
-3.784838	_jj _-lrb-	-0.09550022
-3.202981	_jj _-rrb-	-0.06225628
-2.962908	_jj _.	-0.3372131
-2.743445	_jj _:	0.2563567
-3.62211	_jj _``	-0.2532511
-2.508167	_jj _cc	-0.2491963
-2.067318	_jj _cd	0.1403207
-3.394866	_jj _dt	-0.06527263
-3.871988	_jj _fw	-0.5983734
-1.895791	_jj _in	0.1736481
-1.275269	_jj _jj	-0.197019
-3.235166	_jj _jjr	0.1100615
-3.570958	_jj _jjs	-0.3100838
-4.5252	_jj _ls
-2.769325	_jj _md	0.4301122
-0.3848809	_jj _nn	0.6193066
-2.219849	_jj _nnp	0.183726
-3.5252	_jj _nnps	0.04194358
-0.6569381	_jj _nns	0.5216205
-4.5252	_jj _pdt	0.3277398
-5.046339	_jj _pos
-3.570958	_jj _prp	0.0002180859
-4.953039	_jj _prp$	-0.03383216
-2.323803	_jj _rb	0.07072151
-4.5252	_jj _rbr	-0.07432513
-4.5252	_jj _rbs	0.368518
-4.5252	_jj _rp	-0.2756363
-5.046339	_jj _sym
-3.712287	_jj _to	-0.01155373
-5.046339	_jj _uh
-3.136034	_jj _vb	-0.08712572
-3.202981	_jj _vbd	-0.03134638
-2.438841	_jj _vbg	-0.1066895
-2.722427	_jj _vbn	-0.340669
-3.062802	_jj _vbp	-0.09398988
-2.962908	_jj _vbz	-0.01286581
-5.046339	_jj _wdt
-3.282162	_jj _wp	-0.09397268
-4.5252	_jj _wp$	-0.01892427
-2.987381	_jj _wrb	0.1638891
-3.363832	_jj a	0.3892336
-4.923727	_jj also	-0.112494
-4.923727	_jj an
-1.475595	_jj and	0.4434334
-2.796847	_jj are	0.3813924
-2.155057	_jj as	0.5176729
-4.12726	_jj be	0.244119
-2.891732	_jj by	0.201398
-2.962908	_jj can	0.4438525
-2.809197	_jj elderly	0.05024812
-2.002756	_jj energy	0.3163451
-1.966492	_jj for	0.2550703
-2.658913	_jj from	0.0128687
-2.93974	_jj government	0.103682
-3.32108	_jj has	0.1438807
-3.154132	_jj have	-0.01664403
-3.981132	_jj http	2.525531
-1.977426	_jj in	0.1309251
-2.474048	_jj is	0.1469415
-3.411257	_jj it	0.1434287
-3.110227	_jj more	-0.1812889
-3.464503	_jj not	-0.3843989
-2.390068	_jj nuclear	-0.1226941
-2.129874	_jj of	0.3393949
-2.627573	_jj on	0.1280422
-2.458874	_jj or	0.08430618
-2.143183	_jj people	0.2106737
-2.42829	_jj should	0.1675407
-3.363832	_jj such	-0.2659253
-2.245305	_jj technology	0.1400191
-2.136921	_jj that	0.06499565
-2.769325	_jj the	0.1195451
-4.22417	_jj their	-0.1135255
-4.953039	_jj there
-3.784838	_jj they	-0.1014082
-4.22417	_jj this
-1.229853	_jj to	0.247929
-3.282162	_jj which	-0.08601525
-2.821909	_jj will	0.7169197
-2.680102	_jj with	0.2328337
-3.731672	_jjr "	-0.1581039
-2.488047	_jjr 's	0.005744845
-2.488047	_jjr (	-0.3825798
-1.388662	_jjr ,	-0.02051264
-1.42466	_jjr .	2.107167
-3.333145	_jjr :
-3.760983	_jjr </s>
-3.333145	_jjr _.
-2.935205	_jjr _:	-0.08420936
-2.679932	_jjr _cc
-2.731085	_jjr _cd	-0.1399488
-3.333145	_jjr _dt	-0.1451626
-1.115661	_jjr _in	0.03475845
-1.44105	_jjr _jj	-0.1736109
-2.592782	_jjr _jjr	0.0711095
-3.333145	_jjr _md
-0.3644285	_jjr _nn	-0.0621022
-2.592782	_jjr _nnp	0.1301846
-3.760983	_jjr _nnps
-0.8003905	_jjr _nns	0.3386134
-3.854283	_jjr _pos
-3.760983	_jjr _prp	-0.1146014
-3.333145	_jjr _prp$	-0.01684567
-2.634175	_jjr _rb	0.004602794
-3.731672	_jjr _rp
-3.333145	_jjr _vb
-2.789077	_jjr _vbd	-0.1193604
-2.378902	_jjr _vbg	-0.2376924
-2.219202	_jjr _vbn	-0.4664959
-3.854283	_jjr _vbp
-3.760983	_jjr _vbz
-3.333145	_jjr _wp
-2.554994	_jjr _wrb	-0.11187
-3.032115	_jjr a	0.04563281
-1.287822	_jjr and	-0.3258344
-3.032115	_jjr are	-0.04274122
-2.236235	_jjr as	0.03464735
-3.760983	_jjr by	-0.067182
-3.731672	_jjr can	0.013319
-3.032115	_jjr elderly
-2.129025	_jjr energy	0.1103509
-1.926605	_jjr for	-0.1581651
-3.333145	_jjr from	-0.2891258
-3.032115	_jjr government	-0.1703726
-3.854283	_jjr have
-2.021391	_jjr in	-0.1389239
-2.731085	_jjr is	0.01865949
-3.854283	_jjr it
-3.854283	_jjr more
-2.430055	_jjr nuclear	0.2591041
-2.378902	_jjr of	-0.05041716
-2.731085	_jjr on	0.1491983
-3.760983	_jjr or
-1.562293	_jjr people	0.2186372
-3.854283	_jjr should
-3.854283	_jjr such
-2.458084	_jjr technology	-0.08984438
-3.731672	_jjr that	-0.07455629
-2.219202	_jjr the	0.2166866
-3.731672	_jjr their	0.2222718
-3.333145	_jjr they	-0.173978
-3.854283	_jjr this
-1.612986	_jjr to	-0.2213314
-3.731672	_jjr which
-2.935205	_jjr will	0.07661904
-2.679932	_jjr with	0.06993964
-3.335719	_jjs "
-2.81458	_jjs (	-0.07908215
-3.335719	_jjs )
-1.344759	_jjs ,	-0.2352767
-1.773188	_jjs .	2.974259
-3.335719	_jjs _:
-1.571543	_jjs _cd	-0.2474016
-2.513551	_jjs _dt	-0.06138092
-3.335719	_jjs _fw
-1.860338	_jjs _in	-0.1584441
-1.098577	_jjs _jj	-0.3273735
-3.242419	_jjs _md	-0.04278739
-0.5256609	_jjs _nn	-0.0005722046
-2.270513	_jjs _nnp	-0.1568811
-2.81458	_jjs _nnps
-0.7731878	_jjs _nns	-0.03453511
-3.335719	_jjs _prp
-2.416641	_jjs _rb
-3.335719	_jjs _to
-2.270513	_jjs _vb	-0.01272093
-2.513551	_jjs _vbd	-0.1721518
-2.074218	_jjs _vbg	-0.1499474
-2.161368	_jjs _vbn	-0.07382629
-2.416641	_jjs _vbp
-3.335719	_jjs _wrb
-2.416641	_jjs a	-0.006545648
-3.335719	_jjs an
-2.513551	_jjs and	-0.1218109
-3.242419	_jjs are
-2.513551	_jjs as	-0.2243717
-3.242419	_jjs be	0.02855417
-3.335719	_jjs by
-3.335719	_jjs can
-3.242419	_jjs elderly
-3.242419	_jjs energy
-2.270513	_jjs for	-0.02849311
-3.242419	_jjs from
-1.885162	_jjs in	-0.09458342
-2.81458	_jjs is
-2.81458	_jjs it	-0.1349536
-1.939519	_jjs nuclear	0.1086395
-0.7851967	_jjs of	-0.4887244
-2.81458	_jjs on
-1.337459	_jjs people	-0.03601944
-3.213107	_jjs technology	-0.05250947
-2.513551	_jjs that	-0.09806225
-2.270513	_jjs the	0.2668084
-1.735399	_jjs to	-0.477325
-3.335719	_jjs will
-2.178977	_ls (
-0.5162191	_ls )	0.1723628
-2.577504	_ls ,	-0.08575831
-0.8172491	_ls .	2.653924
-2.700115	_ls :
-2.700115	_ls </s>
-0.5609288	_ls _-rrb-	-0.2772998
-1.576917	_ls _.	-0.1302366
-2.700115	_ls _cc
-1.877947	_ls _cd	-0.3579639
-2.577504	_ls _jj	0.102669
-1.438614	_ls _nn	-0.03353458
-2.178977	_ls _nns
-2.178977	_ls _prp
-2.178977	_ls _rb
-2.178977	_ls _vbg
-2.700115	_ls _vbn
-2.700115	_ls _wp
-2.700115	_ls _wrb
-2.606815	_ls and
-2.700115	_ls are
-2.700115	_ls as
-2.700115	_ls can
-2.700115	_ls for
-2.700115	_ls from
-1.877947	_ls http	2.768569
-2.700115	_ls in
-2.700115	_ls not
-1.781037	_ls of	-0.05055515
-2.700115	_ls people
-2.700115	_ls the
-2.577504	_ls to	0.124735
-2.606815	_ls will
-3.167908	_md "	-0.2358052
-3.990076	_md 's
-3.990076	_md (
-3.896776	_md )	-0.1720909
-2.866878	_md ,	-0.09216164
-3.867465	_md .	3.538531
-3.990076	_md _''
-3.990076	_md _``
-3.896776	_md _cd	-0.2517473
-3.867465	_md _dt	0.02035351
-3.167908	_md _in
-2.62384	_md _jj	-0.1762431
-3.468938	_md _jjr
-2.389756	_md _nn	-0.1344869
-3.468938	_md _nnp	-0.1453958
-3.468938	_md _nns
-2.514695	_md _prp	-0.4897908
-3.990076	_md _prp$
-1.027243	_md _rb	-1.050265
-3.468938	_md _rbr
-2.656024	_md _rbs	0.5374428
-3.990076	_md _sym
-0.3836472	_md _vb	0.3419225
-3.867465	_md _vbd	-0.03999831
-3.990076	_md _vbg
-3.896776	_md _vbn
-2.92487	_md _vbz	-0.04528635
-2.815725	_md a	-0.2183748
-1.509896	_md also	-1.020456
-3.468938	_md an
-3.070998	_md and	-0.1518285
-3.468938	_md as
-0.58841	_md be	0.3464193
-3.468938	_md by
-3.867465	_md for	-0.04536818
-3.990076	_md from
-1.197096	_md have	0.166092
-2.292846	_md in	-0.3826431
-3.468938	_md is
-3.070998	_md more	-0.09192339
-1.035969	_md not	-1.020134
-3.468938	_md nuclear	0.03848636
-3.070998	_md of
-3.167908	_md on	0.1097934
-3.867465	_md or	-0.3844998
-3.990076	_md should
-3.070998	_md that	-0.003057308
-2.338604	_md the	-0.09493449
-3.990076	_md their
-3.990076	_md there
-3.896776	_md they
-3.468938	_md this
-2.30757	_md to	-0.1237576
-2.488318	_nn "	0.1523116
-1.930081	_nn 's	-0.5324852
-1.907617	_nn (	0.1424634
-2.065511	_nn )	0.4855698
-1.025218	_nn ,	0.6238627
-0.952583	_nn .	0.1296692
-3.383721	_nn 2009	1.061094
-2.400023	_nn :	0.3402561
-2.394521	_nn </s>
-4.025652	_nn _#	0.2066493
-3.777868	_nn _$	0.6770987
-3.583293	_nn _''	0.03885024
-3.4494	_nn _,	0.1062287
-3.139596	_nn _-lrb-	0.2169815
-2.259354	_nn _-rrb-	-0.1024373
-2.13743	_nn _.	0.2095985
-2.008619	_nn _:	0.5445033
-3.993468	_nn _``	0.1025466
-2.349311	_nn _cc	0.2024196
-2.001925	_nn _cd	-0.0221082
-3.130996	_nn _dt	0.03232974
-5.266404	_nn _ex
-3.506127	_nn _fw	-0.8104047
-1.58998	_nn _in	0.5296205
-1.949825	_nn _jj	0.2348813
-3.340255	_nn _jjr	0.2961437
-4.294497	_nn _jjs	-0.1067547
-4.838566	_nn _ls
-1.941764	_nn _md	-0.1899108
-0.971452	_nn _nn	0.733279
-2.656722	_nn _nnp	0.3578051
-5.266404	_nn _nnps
-1.259755	_nn _nns	0.416922
-4.294497	_nn _pdt	0.1684834
-3.225782	_nn _pos	0.3935942
-2.840743	_nn _prp	-0.03548944
-3.777868	_nn _prp$	0.4224004
-1.941489	_nn _rb	0.1784496
-3.467498	_nn _rbr	-0.04411694
-4.537536	_nn _rbs	0.5396869
-3.383721	_nn _rp	0.04066902
-4.440626	_nn _sym	0.3240061
-3.741656	_nn _to	0.2340905
-2.966409	_nn _vb	0.2037995
-1.911195	_nn _vbd	0.1192436
-2.262801	_nn _vbg	0.5371518
-2.012815	_nn _vbn	-0.03610349
-2.606841	_nn _vbp	0.4266504
-1.767789	_nn _vbz	0.5107839
-4.236506	_nn _wdt	-0.01318789
-3.002875	_nn _wp	-0.011006
-4.537536	_nn _wp$	0.06485739
-2.395303	_nn _wrb	0.2571191
-3.053236	_nn a	0.4898782
-2.938199	_nn also	-0.7050422
-3.777868	_nn an	0.5699068
-1.270893	_nn and	0.5000873
-2.386013	_nn are	0.3584239
-2.068082	_nn as	0.2679679
-3.340255	_nn be	-0.1211079
-2.329363	_nn by	0.2359893
-2.012167	_nn can	0.002142549
-4.060414	_nn elderly	-0.04916336
-3.14837	_nn energy	0.2772742
-1.690117	_nn for	0.3083603
-2.223142	_nn from	0.05736554
-3.777868	_nn government	-0.06630707
-2.107784	_nn has	0.3112713
-2.724622	_nn have	0.506918
-3.595528	_nn http	2.052268
-1.518523	_nn in	0.1643236
-1.429648	_nn is	0.4752709
-3.042686	_nn it	0.1122582
-2.981233	_nn more	0.1500766
-3.157325	_nn not	-0.1296194
-3.258782	_nn nuclear	0.578675
-0.9195923	_nn of	0.3244205
-1.789348	_nn on	0.06955743
-2.246945	_nn or	-0.2343603
-3.361444	_nn people	-0.08986872
-2.188744	_nn should	0.1024696
-2.797173	_nn such	-1.021454
-2.276868	_nn technology	0.2466184
-1.878095	_nn that	0.1764318
-2.51842	_nn the	0.6984929
-3.621082	_nn their	0.5620751
-3.634446	_nn there	0.4283575
-3.118407	_nn they	0.09591973
-3.741656	_nn this	0.330556
-1.37244	_nn to	0.3824024
-2.153272	_nn which	0.3618971
-2.001925	_nn will	-0.06587851
-2.325348	_nn with	0.2342511
-2.348774	_nnp "	-0.2456772
-1.749919	_nnp 's	-0.0261991
-1.300013	_nnp (	-0.5489773
-1.636224	_nnp )	0.4414717
-0.7722974	_nnp ,	0.0208379
-1.122857	_nnp .	0.860316
-2.289189	_nnp 2009	0.9005156
-1.851682	_nnp :	0.1544528
-2.276027	_nnp </s>
-4.799331	_nnp _#
-2.786832	_nnp _$	0.1282606
-3.977163	_nnp _''
-2.56219	_nnp _,	-0.2264172
-2.503676	_nnp _-lrb-	0.2020355
-2.526145	_nnp _-rrb-	-0.2029431
-2.574902	_nnp _.	-0.05040979
-2.423887	_nnp _:	-0.375962
-4.278193	_nnp _``
-2.075433	_nnp _cc	-0.9032664
-1.190412	_nnp _cd	-0.7393199
-3.500042	_nnp _dt	-0.02655123
-3.074073	_nnp _fw	-0.5050695
-2.197206	_nnp _in	0.02893686
-2.394532	_nnp _jj	0.2004928
-3.676133	_nnp _jjr	-0.1486693
-4.706031	_nnp _jjs
-2.549839	_nnp _md	0.3592805
-1.436834	_nnp _nn	0.4550098
-0.5388583	_nnp _nnp	0.3504369
-1.866574	_nnp _nnps	0.07147926
-1.805437	_nnp _nns	0.21433
-2.889027	_nnp _pos	0.1332727
-3.348774	_nnp _prp	-0.03462368
-4.706031	_nnp _prp$
-2.359115	_nnp _rb	-0.1876833
-3.977163	_nnp _rbr
-4.799331	_nnp _rp
-4.706031	_nnp _sym
-3.579223	_nnp _to	0.1046897
-2.740374	_nnp _vb	0.01865953
-1.798906	_nnp _vbd	0.3455967
-2.746714	_nnp _vbg	0.2826049
-3.348774	_nnp _vbn	-0.1844634
-2.721891	_nnp _vbp	0.02572453
-1.980433	_nnp _vbz	0.1999449
-4.799331	_nnp _wdt
-3.375103	_nnp _wp	-0.07364702
-4.278193	_nnp _wp$
-2.99944	_nnp _wrb	-0.03657666
-3.2368	_nnp a	0.2329842
-2.916465	_nnp also	-0.4897076
-3.977163	_nnp an	0.0892815
-1.511037	_nnp and	-0.4307614
-2.629833	_nnp are	0.2477103
-2.665409	_nnp as	-0.1784526
-3.977163	_nnp be
-3.102102	_nnp by	-0.04394093
-2.793893	_nnp can	0.4839051
-3.403132	_nnp energy	0.02928843
-2.202646	_nnp for	-0.2234888
-2.935771	_nnp from	0.06217507
-2.537831	_nnp government	-0.05288112
-1.946766	_nnp has	0.4099785
-2.808371	_nnp have	-0.1971392
-3.047744	_nnp http	1.83915
-1.99944	_nnp in	-0.03421628
-1.824875	_nnp is	0.1855043
-3.880253	_nnp it	-0.09251796
-3.977163	_nnp more	0.07491688
-3.880253	_nnp not	-0.09364101
-2.727965	_nnp nuclear	0.163933
-1.656498	_nnp of	-0.8296211
-2.406037	_nnp on	-0.402855
-3.14786	_nnp or	-0.3241708
-3.880253	_nnp people
-2.779883	_nnp should	0.01524282
-3.734125	_nnp such	-0.2834415
-3.060709	_nnp technology	0.0360083
-2.966439	_nnp that	0.004171118
-2.99944	_nnp the	0.2304155
-4.706031	_nnp their
-3.676133	_nnp there	0.2702611
-4.799331	_nnp they
-4.67672	_nnp this	0.2223465
-2.24477	_nnp to	-0.01338267
-2.838861	_nnp which	0.1204337
-2.406037	_nnp will	0.3861791
-2.99944	_nnp with	0.004671246
-1.777594	_nnps "	-0.1554221
-2.590508	_nnps 's
-1.460174	_nnps (	0.2338008
-1.988447	_nnps )	0.2183017
-0.8662316	_nnps ,	-0.03220502
-0.7877337	_nnps .	2.212878
-3.111645	_nnps 2009
-1.311754	_nnps :	-0.1974812
-2.989034	_nnps </s>
-3.111645	_nnps _$
-2.192567	_nnps _-lrb-	-0.002659515
-2.046439	_nnps _.	-0.033438
-2.192567	_nnps _:	-0.08612557
-3.111645	_nnps _``
-2.192567	_nnps _cc	-0.09220675
-2.192567	_nnps _cd	-0.1475727
-3.111645	_nnps _dt
-3.111645	_nnps _fw
-1.386387	_nnps _in	0.0689145
-3.111645	_nnps _jj
-1.988447	_nnps _md	0.05815214
-1.715446	_nnps _nn	-0.05321282
-1.175534	_nnps _nnp	-0.07820284
-2.590508	_nnps _nnps
-2.289477	_nnps _nns
-2.989034	_nnps _pos	0.07282187
-2.192567	_nnps _rb	-0.06754434
-3.111645	_nnps _rbs
-3.111645	_nnps _to
-2.590508	_nnps _vb
-1.386387	_nnps _vbd	0.08647215
-2.046439	_nnps _vbg	-0.1292138
-2.590508	_nnps _vbn
-1.590508	_nnps _vbp	-0.07829818
-2.192567	_nnps _vbz	-0.0431923
-2.989034	_nnps _wp	-0.07851133
-2.590508	_nnps _wrb
-2.590508	_nnps also
-3.111645	_nnps an
-1.289477	_nnps and	-0.1687945
-1.661089	_nnps are	0.09523177
-2.289477	_nnps as	-0.07442237
-2.289477	_nnps can	0.1189089
-1.636265	_nnps for	-0.3401681
-2.590508	_nnps from
-3.018346	_nnps government
-1.937295	_nnps has	-0.1042032
-1.777594	_nnps have	0.009065449
-2.590508	_nnps http	2.910495
-1.891537	_nnps in	-0.1960675
-2.289477	_nnps is	-0.1127951
-3.111645	_nnps it
-3.111645	_nnps not
-1.373024	_nnps of	-0.8241042
-3.018346	_nnps on
-2.289477	_nnps should	0.1120804
-2.192567	_nnps such	-0.1373135
-3.111645	_nnps that
-3.111645	_nnps the
-1.612784	_nnps to	-0.2501336
-3.018346	_nnps which
-1.988447	_nnps will	0.0449468
-1.937295	_nnps with	-0.06645846
-2.539377	_nns "	-0.2193347
-3.09343	_nns 's	0.1433838
-1.844374	_nns (	0.1714993
-2.669993	_nns )	0.2305937
-1.041067	_nns ,	0.4114996
-0.8468282	_nns .	0.4366121
-4.425869	_nns 2009
-2.18283	_nns :	0.2792368
-2.187822	_nns </s>
-4.947006	_nns _#
-4.947006	_nns _$
-4.425869	_nns _''
-3.404679	_nns _,	-0.04500655
-3.221748	_nns _-lrb-	-0.2819184
-3.295535	_nns _-rrb-	-0.1637129
-2.629988	_nns _.	-0.03185767
-2.459727	_nns _:	0.5337915
-3.8818	_nns _``	-0.004156202
-2.571562	_nns _cc	-0.00773111
-3.195419	_nns _cd	-0.1514354
-2.869566	_nns _dt	-0.2444808
-4.425869	_nns _fw
-1.369154	_nns _in	0.2963187
-2.097489	_nns _jj	0.1509634
-3.221748	_nns _jjr	0.2357486
-4.824395	_nns _jjs	-0.07199553
-1.666956	_nns _md	-0.008168459
-2.026195	_nns _nn	0.3279104
-2.857666	_nns _nnp	0.1981982
-2.512054	_nns _nns	0.1884742
-4.124838	_nns _pdt	0.1858146
-2.076591	_nns _pos	-0.2630404
-2.813084	_nns _prp	-0.1258994
-3.8818	_nns _prp$	0.3078948
-1.688676	_nns _rb	0.004904747
-3.158697	_nns _rbr	-0.02159154
-4.853706	_nns _rbs	-0.1006602
-4.824395	_nns _rp	-0.05384957
-4.947006	_nns _sym
-4.124838	_nns _to	-0.09748416
-2.96347	_nns _vb	0.1075831
-1.725597	_nns _vbd	0.1936612
-1.847802	_nns _vbg	0.3438615
-1.714061	_nns _vbn	-0.2487561
-1.492887	_nns _vbp	0.4376419
-2.332447	_nns _vbz	0.2399533
-4.853706	_nns _wdt
-2.249777	_nns _wp	-0.6133005
-3.8818	_nns _wp$	0.2101867
-2.289148	_nns _wrb	-0.03129154
-3.195419	_nns a	0.2167635
-2.619688	_nns also	-0.6792763
-3.58077	_nns an	0.3627494
-1.149406	_nns and	0.433109
-1.339687	_nns are	0.3008527
-2.026195	_nns as	-0.04616058
-3.496449	_nns be	0.1502725
-2.386454	_nns by	0.1605844
-1.757949	_nns can	-0.02843297
-4.027928	_nns energy
-1.639472	_nns for	0.2822213
-2.031417	_nns from	-0.3647815
-2.67768	_nns has	-0.1735187
-1.680013	_nns have	0.07688856
-3.772656	_nns http	2.416387
-1.428919	_nns in	0.1395385
-1.986536	_nns is	0.200583
-3.124838	_nns it	-0.07551813
-2.840408	_nns more	0.1609734
-3.170596	_nns not	-0.6569743
-4.124838	_nns nuclear	0.1961114
-1.091616	_nns of	0.01216173
-1.996116	_nns on	-0.05577266
-2.026195	_nns or	-0.2638314
-3.647717	_nns people	-0.1731279
-2.069842	_nns should	0.1143421
-1.833137	_nns such	-1.569877
-3.612955	_nns technology	-0.08099715
-1.631032	_nns that	-0.129006
-2.559581	_nns the	0.3857502
-3.685506	_nns their	0.04515302
-3.58077	_nns there	-0.1026876
-2.934507	_nns they	0.2804468
-4.027928	_nns this	0.1914731
-1.232883	_nns to	0.1055992
-1.956783	_nns which	-0.04819441
-1.829821	_nns will	-0.1933429
-2.091414	_nns with	0.1551547
-2.785956	_pdt .
-0.8415719	_pdt _dt	-0.2940831
-2.264818	_pdt _prp$
-1.486667	_pdt a	-0.2241003
-2.663345	_pdt an	0.4256783
-2.785956	_pdt and
-2.785956	_pdt is
-2.264818	_pdt that
-0.1186898	_pdt the	-0.08682585
-2.785956	_pdt their
-1.662758	_pdt this	0.2780889
-2.785956	_pdt with
-3.037012	_pos "
-2.914401	_pos (	-0.1154514
-1.640813	_pos ,	-0.1142023
-1.225839	_pos .	2.725617
-3.037012	_pos :
-2.515874	_pos </s>
-2.515874	_pos _,
-2.515874	_pos _-lrb-	-0.2602871
-3.037012	_pos _cc
-2.943712	_pos _in
-0.9192768	_pos _jj	-0.02901495
-2.515874	_pos _jjs
-0.388769	_pos _nn	0.02365363
-1.640813	_pos _nnp	-0.1001184
-0.7638254	_pos _nns	0.06113547
-3.037012	_pos _pos
-3.037012	_pos _rbs
-3.037012	_pos _vb
-3.037012	_pos _vbd
-2.914401	_pos _vbg	-0.003112577
-3.037012	_pos _vbn
-2.515874	_pos _vbp
-2.515874	_pos _vbz
-3.037012	_pos _wp
-1.670776	_pos and	-0.2569631
-2.214844	_pos are
-3.037012	_pos as
-3.037012	_pos can
-2.515874	_pos energy	-0.1812569
-2.214844	_pos for	-0.204689
-2.515874	_pos has	-0.2863931
-3.037012	_pos have
-1.862661	_pos in	-0.2187242
-1.862661	_pos is	-0.2874638
-2.515874	_pos more
-2.515874	_pos not
-3.037012	_pos nuclear
-1.913814	_pos of	-0.3572449
-2.515874	_pos on
-3.037012	_pos or
-2.515874	_pos people	-0.2683105
-2.515874	_pos such	0.1015218
-3.037012	_pos technology
-3.037012	_pos that
-3.037012	_pos the
-1.737723	_pos to	-0.05344638
-2.214844	_pos which	-0.09947406
-2.214844	_pos will	-0.2070909
-3.037012	_pos with
-3.962126	_prp "
-2.019532	_prp 's	-0.02074361
-2.308327	_prp (	-0.3550944
-4.084738	_prp )
-1.677109	_prp ,	-0.0276143
-1.147792	_prp .	1.599844
-4.084738	_prp :
-4.084738	_prp </s>
-4.084738	_prp _''
-4.084738	_prp _,
-4.084738	_prp _-lrb-
-2.785449	_prp _.	-0.7781563
-2.910387	_prp _:	-0.1014954
-2.823237	_prp _cc	-0.04731899
-3.16566	_prp _cd	-0.1437973
-2.24138	_prp _dt	-0.3074289
-1.839324	_prp _in	-0.02330375
-2.065289	_prp _jj	0.3750452
-2.785449	_prp _jjr	0.1589308
-4.084738	_prp _jjs
-1.194384	_prp _md	-0.02191699
-2.320562	_prp _nn	-0.08458455
-3.16566	_prp _nnp	0.05318259
-2.750686	_prp _nns	0.005959712
-4.084738	_prp _pdt
-3.991438	_prp _prp
-3.991438	_prp _prp$
-1.378908	_prp _rb	-0.1469727
-3.019532	_prp _rbr	-0.06477652
-2.46669	_prp _rp	-0.1308283
-1.76772	_prp _vb	0.2526788
-1.303528	_prp _vbd	0.2875022
-2.251846	_prp _vbg	0.1178805
-2.750686	_prp _vbn	-0.0294845
-0.9046349	_prp _vbp	0.2388134
-1.501018	_prp _vbz	0.1492712
-3.26257	_prp _wp
-2.402232	_prp _wrb	-0.2600972
-2.16566	_prp a	0.2676606
-2.019532	_prp also	-0.722617
-3.26257	_prp an	0.1441453
-1.807725	_prp and	-0.007976145
-1.388959	_prp are	0.197238
-2.251846	_prp as	0.08045983
-3.26257	_prp be	0.2205246
-2.785449	_prp by	-0.8074807
-1.111813	_prp can	-0.07663357
-4.084738	_prp energy
-2.192532	_prp for	0.08767879
-2.183388	_prp from	-0.3764735
-1.956145	_prp has	0.3094597
-1.484419	_prp have	0.08389866
-1.747358	_prp in	0.0122084
-1.036615	_prp is	-0.1116331
-3.5636	_prp it
-2.609357	_prp more	0.1716927
-2.502902	_prp not	-0.4090387
-4.084738	_prp nuclear
-2.634181	_prp of	0.02489147
-2.823237	_prp on	0.01083937
-1.930131	_prp or	-0.7566832
-1.352746	_prp should	0.1390072
-3.991438	_prp such	0.0845353
-2.46669	_prp that	-0.05824631
-2.433266	_prp the	0.3319316
-4.084738	_prp there
-4.084738	_prp they
-4.084738	_prp this
-1.245536	_prp to	-0.2670142
-3.019532	_prp which	-0.1089946
-1.43166	_prp will	0.08962643
-2.038555	_prp with	0.175583
-3.656445	_prp$ "	-0.07826518
-2.859978	_prp$ (	-0.08238914
-3.656445	_prp$ ,
-2.197221	_prp$ .	2.954954
-3.779057	_prp$ 2009
-3.257918	_prp$ </s>
-3.779057	_prp$ _-rrb-
-3.656445	_prp$ _cc	-0.1767577
-2.655859	_prp$ _cd	-0.09026558
-3.257918	_prp$ _dt	-0.1451626
-3.779057	_prp$ _in
-0.670769	_prp$ _jj	-0.6495485
-2.445005	_prp$ _jjr	-0.03302073
-2.303676	_prp$ _jjs	-0.1923879
-0.3267149	_prp$ _nn	0.05163574
-1.896191	_prp$ _nnp	-0.02419513
-0.7743312	_prp$ _nns	0.4237836
-3.779057	_prp$ _pos
-2.445005	_prp$ _rb	-0.5075306
-3.257918	_prp$ _rbr	-0.07432513
-2.956888	_prp$ _rbs	0.2265928
-3.257918	_prp$ _vb
-2.053798	_prp$ _vbg	-0.3457511
-2.41282	_prp$ _vbn	-0.3751511
-3.779057	_prp$ _vbz
-3.779057	_prp$ a
-3.656445	_prp$ and	-0.121249
-3.779057	_prp$ are
-3.779057	_prp$ as
-2.71385	_prp$ elderly	-0.1265447
-2.303676	_prp$ energy	-0.3635157
-3.685757	_prp$ for
-3.257918	_prp$ from
-2.354828	_prp$ government	-0.2294392
-3.779057	_prp$ have
-2.859978	_prp$ in	-0.1515347
-3.685757	_prp$ is	-0.3066009
-3.779057	_prp$ it
-3.257918	_prp$ more
-3.685757	_prp$ not
-3.656445	_prp$ nuclear	-0.05382326
-3.685757	_prp$ of	-0.1665155
-3.257918	_prp$ on	-0.2861325
-1.349433	_prp$ or	-1.429536
-1.803074	_prp$ people	-0.1973326
-3.779057	_prp$ should
-2.655859	_prp$ technology	-0.116602
-3.779057	_prp$ that
-2.479767	_prp$ to	-0.2502615
-3.779057	_prp$ which
-3.779057	_prp$ will
-3.257918	_prp$ with	-0.2888692
-3.108271	_rb "	-0.1472485
-4.168969	_rb 's	-0.2502453
-2.657085	_rb (	-0.3218313
-3.624901	_rb )	0.2762936
-0.5708898	_rb ,	-0.7186197
-1.319549	_rb .	1.166233
-3.428606	_rb :	-0.02001774
-4.596807	_rb </s>
-4.168969	_rb _#
-3.390817	_rb _$	0.3579385
-4.690107	_rb _''
-3.214726	_rb _,	-0.1093084
-4.596807	_rb _-lrb-
-4.690107	_rb _-rrb-
-3.02284	_rb _.	-0.5657787
-2.857215	_rb _:	-0.1478968
-3.624901	_rb _``	-0.1789444
-3.007601	_rb _cc	-0.09753233
-1.988556	_rb _cd	-0.07563341
-2.193537	_rb _dt	-0.1897963
-1.456319	_rb _in	0.1790365
-0.967435	_rb _jj	0.4442556
-1.840589	_rb _jjr	-0.02724266
-3.428606	_rb _jjs	0.2663282
-2.771029	_rb _md	0.3235873
-1.974454	_rb _nn	0.239745
-2.506211	_rb _nnp	-0.17101
-3.867939	_rb _nnps	-0.1042396
-2.260484	_rb _nns	0.2820603
-3.127576	_rb _pdt	-0.07101554
-4.690107	_rb _pos
-2.401813	_rb _prp	-0.3076154
-3.007601	_rb _prp$	0.2391607
-1.545203	_rb _rb	0.5290793
-2.753995	_rb _rbr	0.1896566
-4.168969	_rb _rbs	0.368518
-4.690107	_rb _sym
-4.168969	_rb _to	0.07099393
-1.219579	_rb _vb	0.3840629
-1.907706	_rb _vbd	0.4492572
-1.52601	_rb _vbg	0.3707041
-1.159305	_rb _vbn	0.4571143
-1.649797	_rb _vbp	0.3930981
-1.657085	_rb _vbz	0.2480536
-4.690107	_rb _wdt
-3.108271	_rb _wp	0.1499094
-2.339665	_rb _wrb	0.1068166
-1.934705	_rb a	0.2386657
-3.356055	_rb also	-0.1206936
-2.706571	_rb an	-0.2615849
-1.916116	_rb and	0.2320487
-2.650455	_rb are	0.1056136
-1.570178	_rb as	0.3941422
-1.848822	_rb be	0.1731603
-2.405541	_rb by	0.3475156
-2.5355	_rb can	0.2084774
-3.515756	_rb elderly	-0.07864375
-4.567495	_rb energy	-0.01574085
-2.195841	_rb for	0.2033414
-2.255155	_rb from	-0.325725
-3.428606	_rb government	-0.06334876
-2.612666	_rb has	0.1437634
-2.207548	_rb have	0.2150981
-1.802546	_rb in	0.006921649
-2.452965	_rb is	0.3910773
-2.231952	_rb it	-0.2858933
-2.068598	_rb more	0.1551763
-2.420781	_rb not	0.1981945
-3.265879	_rb nuclear	0.6431182
-1.925931	_rb of	0.06667328
-2.173333	_rb on	0.2349151
-2.83653	_rb or	-0.3153276
-3.265879	_rb people	-0.0544656
-3.089787	_rb should	0.4989275
-3.293907	_rb such	0.1621873
-4.567495	_rb technology	-0.1185218
-2.217146	_rb that	-0.2415667
-1.653757	_rb the	0.5261723
-3.147779	_rb their	0.4287893
-2.589185	_rb there	0.3758606
-2.448809	_rb they	0.555924
-2.753995	_rb this	0.1713287
-1.764991	_rb to	0.5256909
-3.265879	_rb which	0.004939705
-2.657085	_rb will	0.5319303
-2.139585	_rb with	0.1430775
-2.921296	_rbr (	-0.09606864
-1.303126	_rbr ,	0.04355881
-0.9815747	_rbr .	2.503769
-3.014596	_rbr _-lrb-
-3.014596	_rbr _.
-3.014596	_rbr _cc
-1.13173	_rbr _in	0.1110639
-0.4017911	_rbr _jj	0.2265154
-2.095518	_rbr _nn	-0.08793503
-2.493458	_rbr _nnp
-3.014596	_rbr _prp
-1.33209	_rbr _rb	-0.1296905
-1.303126	_rbr _vb	-0.03749704
-2.493458	_rbr _vbd
-2.095518	_rbr _vbg	-0.1226582
-1.34733	_rbr _vbn	-0.04159151
-3.014596	_rbr _vbz
-2.192428	_rbr _wrb	-0.0680753
-1.891398	_rbr a	-0.2553972
-2.192428	_rbr an	0.5149715
-1.414277	_rbr and	-0.119182
-1.94939	_rbr as	-0.2861621
-2.921296	_rbr by
-2.493458	_rbr elderly
-1.64836	_rbr for	-0.03224885
-2.493458	_rbr from
-3.014596	_rbr have
-1.64836	_rbr in	-0.01753137
-2.095518	_rbr nuclear	0.02535802
-1.891398	_rbr on	0.1906414
-2.921296	_rbr or
-3.014596	_rbr should
-2.921296	_rbr the
-3.014596	_rbr this
-1.590368	_rbr to	0.1516052
-3.014596	_rbr will
-2.921296	_rbr with
-2.972157	_rbs ,
-2.972157	_rbs .
-2.972157	_rbs _in
-0.1066262	_rbs _jj	-0.01566923
-0.81755	_rbs _rb	-0.1120073
-1.90695	_rbs _vbn	-0.1225542
-2.972157	_rbs and
-1.451018	_rbs elderly	-0.0819644
-2.972157	_rbs energy
-2.972157	_rbs is
-2.149988	_rbs nuclear	0.009026095
-2.386276	_rp "
-3.509474	_rp 's
-2.687306	_rp (	0.004699513
-3.509474	_rp )
-1.244043	_rp ,	-0.00513944
-1.272333	_rp .	2.299649
-3.509474	_rp :
-3.509474	_rp _$
-2.988336	_rp _''
-3.509474	_rp _,
-2.590396	_rp _.	-0.397945
-2.590396	_rp _:
-3.509474	_rp _``
-3.509474	_rp _cc
-1.946943	_rp _cd	-0.4407316
-1.798004	_rp _dt	0.01287404
-1.354867	_rp _in	0.04412836
-1.316238	_rp _jj	-0.2445424
-3.509474	_rp _jjs
-2.687306	_rp _md	-0.07962308
-1.391739	_rp _nn	0.1146474
-2.386276	_rp _nnp	-0.04332668
-1.525938	_rp _nns	0.02672917
-2.590396	_rp _pdt	0.08890456
-3.509474	_rp _pos
-3.416174	_rp _prp
-2.085246	_rp _prp$	0.430887
-1.456857	_rp _rb	-0.03706291
-3.416174	_rp _rbr
-3.509474	_rp _vb
-3.509474	_rp _vbd
-1.784216	_rp _vbg	0.1303565
-3.416174	_rp _vbn	-0.1591018
-3.509474	_rp _vbz
-2.590396	_rp _wp	-0.001755789
-2.247973	_rp _wrb	-0.02060051
-1.450517	_rp a	0.1403088
-2.289366	_rp an	0.3507328
-1.757887	_rp and	-0.02970949
-1.927638	_rp as	-0.1277944
-1.496974	_rp by	0.3632953
-3.509474	_rp can
-3.509474	_rp elderly
-3.509474	_rp energy
-1.698301	_rp for	0.3182926
-2.113275	_rp from	-0.1846703
-3.509474	_rp government
-1.402875	_rp in	0.214016
-2.590396	_rp is	-0.07478996
-3.509474	_rp it
-1.988336	_rp more	0.1046589
-2.687306	_rp not	-0.05711488
-3.416174	_rp nuclear	0.1597385
-1.812245	_rp of	0.2298969
-1.812245	_rp on	0.1184126
-2.444268	_rp or	-0.04196662
-3.416174	_rp such	-0.1661648
-1.556972	_rp that	-0.1553697
-0.916454	_rp the	-0.008197308
-1.533491	_rp their	0.3768285
-2.175423	_rp this	0.01035067
-1.259982	_rp to	0.1872609
-2.988336	_rp which
-2.988336	_rp will	-0.05802369
-0.8727254	_rp with	0.08675331
-1.71265	_sym "
-2.631728	_sym (
-2.11059	_sym )
-2.631728	_sym ,
-2.538428	_sym .	3.839561
-2.11059	_sym :
-2.11059	_sym </s>
-2.538428	_sym _-lrb-	-0.2772736
-2.11059	_sym _.
-1.80956	_sym _:
-2.11059	_sym _cd
-1.566522	_sym _dt	-0.0708456
-2.631728	_sym _fw
-1.71265	_sym _jj	-0.07597545
-2.11059	_sym _jjs	-0.2912895
-1.297676	_sym _nn	-0.06106316
-0.1491686	_sym _nnp	-0.4880543
-2.631728	_sym _nnps
-2.631728	_sym _pos
-2.631728	_sym _prp
-2.631728	_sym _prp$
-2.631728	_sym _rb
-2.631728	_sym _rbr
-2.631728	_sym _sym
-1.71265	_sym _vb	-0.07551956
-2.11059	_sym _vbg
-2.631728	_sym _wp
-2.538428	_sym of	-0.1665155
-2.631728	_sym on
-2.631728	_sym to
-3.060802	_to "
-3.154101	_to (
-2.632963	_to )
-2.030903	_to ,	-0.05192911
-1.51902	_to .	2.901709
-2.632963	_to </s>
-3.154101	_to _$
-3.154101	_to _''
-3.154101	_to _-lrb-
-2.632963	_to _``
-2.632963	_to _cc	-0.2293938
-2.030903	_to _cd
-1.51902	_to _dt	0.192341
-3.154101	_to _fw
-1.51902	_to _jj	0.1305023
-3.060802	_to _jjr	0.07334527
-3.154101	_to _jjs
-1.787865	_to _nn	-0.2752049
-3.03149	_to _nnp	0.02012032
-2.088895	_to _nns
-2.632963	_to _prp	-0.2843936
-3.060802	_to _prp$
-1.729873	_to _rb	-0.5270605
-3.154101	_to _rbr
-0.2455733	_to _vb	0.2501056
-3.154101	_to _vbg
-3.154101	_to _wp
-1.428843	_to a	-0.6926529
-2.632963	_to an	-0.2866609
-1.757902	_to and	-0.1380879
-3.154101	_to are
-2.331933	_to as	-0.248604
-1.854812	_to be	-0.172279
-3.03149	_to by	-0.002055496
-3.154101	_to elderly
-3.154101	_to energy
-2.030903	_to for	-0.1064703
-3.154101	_to has
-3.154101	_to have
-2.030903	_to in	0.0181683
-3.154101	_to is
-3.060802	_to it
-3.060802	_to more	-0.1645217
-2.632963	_to nuclear
-1.892601	_to of	-0.1215773
-2.235023	_to on	-0.08755408
-3.154101	_to or
-3.060802	_to people	-0.1582867
-3.154101	_to should
-3.154101	_to such
-3.154101	_to technology
-3.060802	_to that
-1.252752	_to the	-0.4224096
-1.979751	_to their	-0.7813867
-2.235023	_to this	-0.3035963
-1.892601	_to to	-0.2124729
-3.03149	_to with	-0.0805472
-0.154902	_uh ,	-0.1837378
-1.220108	_uh _.
-1.220108	_uh _cc
-1.220108	_uh _vbg
-2.838791	_vb "	-0.1005247
-3.773289	_vb 's
-2.94078	_vb (	-0.1428375
-4.171229	_vb )	0.08999598
-1.882309	_vb ,	0.1398333
-1.637203	_vb .	1.481626
-4.692367	_vb 2009
-3.870199	_vb :	-0.0550307
-3.472259	_vb </s>
-4.692367	_vb _#
-3.627161	_vb _$	0.5920218
-4.599067	_vb _''
-4.171229	_vb _,
-4.171229	_vb _-rrb-	-0.2095402
-3.040895	_vb _.	-0.3713066
-3.518017	_vb _:
-3.870199	_vb _``
-2.809501	_vb _cc	-0.3643888
-2.188958	_vb _cd	-0.5228193
-1.666079	_vb _dt	-0.4093234
-4.599067	_vb _fw	0.0169865
-1.46923	_vb _in	0.2854469
-1.085582	_vb _jj	-0.06803322
-1.960376	_vb _jjr	0.01932514
-3.092048	_vb _jjs	-0.3636014
-4.692367	_vb _ls
-3.870199	_vb _md	0.1896615
-1.111098	_vb _nn	0.1244189
-2.226746	_vb _nnp	0.04880834
-4.569756	_vb _nnps	-0.06696632
-1.402221	_vb _nns	-0.4335946
-2.747983	_vb _pdt	-0.1076026
-4.692367	_vb _pos
-1.570256	_vb _prp	-0.6638577
-1.671542	_vb _prp$	-0.06746161
-1.547463	_vb _rb	-0.3468518
-2.679867	_vb _rbr	0.03404051
-4.171229	_vb _rbs
-1.566463	_vb _rp	0.02886403
-4.692367	_vb _to
-2.188958	_vb _vb	-0.2184894
-3.870199	_vb _vbd
-2.070858	_vb _vbg	0.289962
-2.411561	_vb _vbn	0.1484649
-4.692367	_vb _vbp
-3.569169	_vb _vbz	-0.05265512
-4.599067	_vb _wdt
-2.694108	_vb _wp	0.02995768
-4.692367	_vb _wp$
-2.361669	_vb _wrb	0.2041869
-1.348081	_vb a	-0.2089553
-4.692367	_vb also
-2.141845	_vb an	0.08317697
-1.705103	_vb and	-0.1904262
-3.870199	_vb are
-2.254775	_vb as	-0.06223351
-4.692367	_vb be
-2.652715	_vb by	-0.0008595586
-3.870199	_vb can
-2.828806	_vb elderly	-0.239523
-2.672919	_vb energy	0.09857166
-1.754588	_vb for	0.2852679
-2.214581	_vb from	-0.3437935
-3.472259	_vb government	-0.1125456
-4.692367	_vb has
-4.171229	_vb have
-4.171229	_vb http	2.910495
-1.639112	_vb in	0.2863003
-2.701407	_vb is	0.09833646
-1.953745	_vb it	-0.3978719
-1.681974	_vb more	0.3611879
-2.94078	_vb not	-0.5023845
-2.385899	_vb nuclear	0.1751539
-2.499131	_vb of	0.3448374
-1.791018	_vb on	0.5119676
-2.53776	_vb or	-0.5803058
-1.959041	_vb people	-0.09702498
-4.599067	_vb should	0.06216376
-2.446953	_vb such	0.02585518
-4.569756	_vb technology
-1.493166	_vb that	-0.4259592
-0.7083071	_vb the	0.06186414
-1.474873	_vb their	0.4283466
-3.358316	_vb there	0.02754734
-3.393078	_vb they	0.009531051
-2.052303	_vb this	-0.2798387
-1.303761	_vb to	0.444699
-3.092048	_vb which	0.02483864
-4.569756	_vb will	0.3466808
-1.808558	_vb with	0.5559816
-2.88718	_vbd "
-4.06153	_vbd 's
-2.88718	_vbd (	-0.08965732
-1.755062	_vbd ,	0.1109639
-1.762241	_vbd .	2.237501
-2.109028	_vbd 2009	-1.551064
-3.938919	_vbd :
-3.142452	_vbd </s>
-2.88718	_vbd _$	0.4828773
-3.540392	_vbd _,
-4.06153	_vbd _.
-3.540392	_vbd _:	-0.1800431
-3.96823	_vbd _``
-3.96823	_vbd _cc
-1.698407	_vbd _cd	-0.4715567
-1.892032	_vbd _dt	-0.1420229
-1.498999	_vbd _in	0.1652352
-1.114695	_vbd _jj	0.1299201
-2.410058	_vbd _jjr	0.2356245
-3.938919	_vbd _md	0.001476526
-1.388104	_vbd _nn	0.2384707
-2.002573	_vbd _nnp	0.1204883
-1.665331	_vbd _nns	0.2738
-3.540392	_vbd _pdt
-2.133852	_vbd _prp	-0.1310775
-2.133852	_vbd _prp$	0.1417596
-1.117146	_vbd _rb	-0.06305349
-3.142452	_vbd _rbr
-3.540392	_vbd _rbs	0.368518
-1.595909	_vbd _rp	0.1208646
-2.610973	_vbd _vb	-0.08760079
-2.727479	_vbd _vbd	-0.09203083
-1.762241	_vbd _vbg	0.2443373
-0.783756	_vbd _vbn	0.2462234
-3.96823	_vbd _vbz	-0.1123369
-4.06153	_vbd _wdt
-3.938919	_vbd _wp	-0.1394119
-2.637302	_vbd _wrb	0.05529082
-1.374554	_vbd a	0.2104914
-2.28512	_vbd also	-0.3013813
-2.093234	_vbd an	-0.03055143
-2.077994	_vbd and	-0.2149178
-3.96823	_vbd are
-2.665331	_vbd as	-0.2292302
-2.800029	_vbd by	0.08540722
-3.96823	_vbd can
-3.239362	_vbd elderly
-3.540392	_vbd energy
-2.410058	_vbd for	-0.06862062
-1.927608	_vbd from	-0.06031507
-4.06153	_vbd government
-4.06153	_vbd has
-3.96823	_vbd have
-4.06153	_vbd http
-1.538226	_vbd in	0.3943763
-3.938919	_vbd is	-0.04270622
-2.151226	_vbd it	-0.2037636
-2.207954	_vbd more	0.1902989
-1.376039	_vbd not	-0.3763464
-2.800029	_vbd nuclear	0.0432376
-2.586149	_vbd of	0.1897202
-2.077994	_vbd on	0.06677425
-3.142452	_vbd or	-0.1566481
-2.996324	_vbd people	-0.04038907
-3.142452	_vbd such	-0.1485855
-4.06153	_vbd technology
-1.156577	_vbd that	-0.3149135
-1.080246	_vbd the	0.0456748
-2.197969	_vbd their	0.3332628
-3.96823	_vbd there
-3.938919	_vbd they	-0.08197619
-2.426449	_vbd this	-0.09795564
-1.161994	_vbd to	0.117771
-3.540392	_vbd which
-3.239362	_vbd will	0.1131452
-2.410058	_vbd with	-0.01751375
-2.861426	_vbg "	-0.1539596
-4.423956	_vbg 's
-2.881629	_vbg (	-0.2453784
-3.902818	_vbg )
-1.975962	_vbg ,	-0.06431317
-1.795609	_vbg .	1.908442
-4.301345	_vbg :	-0.05609933
-3.300758	_vbg </s>
-4.301345	_vbg _$	0.6589685
-3.902818	_vbg _''
-4.330657	_vbg _-rrb-
-3.504879	_vbg _.	-0.1722381
-3.601789	_vbg _:	-0.2851817
-3.504879	_vbg _``	-0.1492303
-2.999728	_vbg _cc	-0.1017407
-2.35259	_vbg _cd	-0.3685113
-1.955875	_vbg _dt	-0.2393118
-3.902818	_vbg _fw	-0.2366649
-1.564362	_vbg _in	0.06308872
-1.027179	_vbg _jj	-0.06806862
-2.002451	_vbg _jjr	-0.03776258
-3.249606	_vbg _jjs	-0.1837566
-3.249606	_vbg _md	-0.1141725
-0.8019312	_vbg _nn	0.0513109
-2.067128	_vbg _nnp	-0.02079177
-3.504879	_vbg _nnps	-0.0177571
-1.095622	_vbg _nns	0.2941188
-2.861426	_vbg _pdt	0.2742506
-4.423956	_vbg _pos
-1.816459	_vbg _prp	-0.2576227
-2.05772	_vbg _prp$	0.08264089
-1.571391	_vbg _rb	-0.2165528
-2.925095	_vbg _rbr	0.1699194
-4.423956	_vbg _rbs
-1.820033	_vbg _rp	0.232001
-4.423956	_vbg _sym
-4.330657	_vbg _to
-2.999728	_vbg _vb	0.008789279
-2.9734	_vbg _vbd	0.03534053
-2.432997	_vbg _vbg	-0.07175082
-1.513652	_vbg _vbn	-0.02181858
-3.027757	_vbg _vbz	-0.01027281
-4.330657	_vbg _wp	-0.1504713
-2.9734	_vbg _wrb	0.01525249
-1.316794	_vbg a	-0.1498531
-3.902818	_vbg also
-2.103478	_vbg an	0.1852302
-1.777337	_vbg and	-0.2662376
-3.124667	_vbg are	0.1899955
-2.772485	_vbg as	0.001426578
-4.423956	_vbg be
-3.089905	_vbg by	-0.1081105
-3.089905	_vbg can	0.4277792
-2.881629	_vbg elderly	-0.178571
-2.487845	_vbg energy	-0.1436197
-1.827271	_vbg for	0.1420937
-1.999728	_vbg from	-0.4100704
-3.504879	_vbg government	-0.1261323
-4.330657	_vbg has
-3.902818	_vbg have
-1.666029	_vbg in	0.5608902
-2.647546	_vbg is	0.04824573
-2.016328	_vbg it	-0.4300212
-1.821831	_vbg more	-0.002008736
-3.35875	_vbg not	-0.3720579
-1.939031	_vbg nuclear	0.388876
-1.877513	_vbg of	0.2208156
-1.731092	_vbg on	0.384094
-2.560396	_vbg or	-0.5336663
-2.212622	_vbg people	0.1130705
-4.330657	_vbg should	-0.07607491
-2.487845	_vbg such	-0.5499694
-2.685334	_vbg technology	-0.1287183
-2.05772	_vbg that	-0.09237403
-0.8402365	_vbg the	0.1974761
-1.877513	_vbg their	-0.01906359
-4.330657	_vbg there
-3.35875	_vbg they	0.03163686
-2.15077	_vbg this	-0.1778861
-1.177724	_vbg to	0.4957006
-3.089905	_vbg which	-0.003938973
-3.35875	_vbg will	-0.069509
-2.039496	_vbg with	0.2360193
-2.773575	_vbn "	-0.05643678
-4.573466	_vbn 's
-2.403968	_vbn (	-0.4995376
-3.399116	_vbn )	0.2400997
-1.535132	_vbn ,	0.4501541
-1.172373	_vbn .	1.135697
-2.973147	_vbn 2009	-0.6353164
-3.239415	_vbn :	-0.009425849
-3.074605	_vbn </s>
-4.052329	_vbn _$	0.976985
-3.751298	_vbn _''
-4.480166	_vbn _,
-4.480166	_vbn _-lrb-
-4.480166	_vbn _-rrb-
-3.074605	_vbn _.	-0.6042507
-2.973147	_vbn _:	-0.2225452
-3.751298	_vbn _``	-0.0584961
-2.80929	_vbn _cc	-0.1140086
-2.112809	_vbn _cd	-0.5098751
-2.484127	_vbn _dt	-0.1862139
-4.052329	_vbn _fw
-1.190794	_vbn _in	0.3037261
-1.49362	_vbn _jj	0.08752811
-2.785157	_vbn _jjr	0.3048534
-3.751298	_vbn _jjs
-2.89096	_vbn _md	-0.1927506
-1.41334	_vbn _nn	0.1112127
-1.299512	_vbn _nnp	-1.02607
-4.480166	_vbn _nnps	-0.1616493
-1.725992	_vbn _nns	0.2645791
-3.654388	_vbn _pdt	0.08890456
-2.797056	_vbn _prp	-0.239089
-2.700146	_vbn _prp$	0.2359822
-1.347749	_vbn _rb	-0.2894136
-2.9062	_vbn _rbr	-0.08271936
-4.573466	_vbn _rbs
-1.741635	_vbn _rp	0.09786528
-3.20723	_vbn _to	0.2287223
-3.074605	_vbn _vb	-0.4463765
-2.80929	_vbn _vbd	-0.008565098
-2.005054	_vbn _vbg	0.1786858
-1.463497	_vbn _vbn	-0.3359022
-3.353358	_vbn _vbp	-0.08207151
-3.311966	_vbn _vbz	-0.1132312
-4.052329	_vbn _wp
-4.573466	_vbn _wp$
-2.423939	_vbn _wrb	0.1191304
-1.810533	_vbn a	-0.0730803
-4.480166	_vbn also
-2.554018	_vbn an	0.06083637
-1.603622	_vbn and	0.06168962
-2.762294	_vbn are	0.1265062
-1.560967	_vbn as	0.0176667
-4.573466	_vbn be
-1.074376	_vbn by	0.2010841
-3.052328	_vbn can	0.1537802
-3.399116	_vbn elderly	-0.03511474
-3.50826	_vbn energy	0.03769968
-1.636521	_vbn for	0.3398204
-1.611419	_vbn from	0.1786551
-4.573466	_vbn government
-3.654388	_vbn has	0.1080521
-3.311966	_vbn have	-0.04194574
-3.751298	_vbn http	2.768569
-1.203524	_vbn in	0.1114932
-2.340521	_vbn is	0.3515232
-2.80929	_vbn it	-0.2621478
-2.444873	_vbn more	0.07003397
-3.353358	_vbn not	-0.2289463
-3.274177	_vbn nuclear	0.07819545
-2.394317	_vbn of	0.2806413
-1.521489	_vbn on	0.3260312
-2.455731	_vbn or	-0.4189376
-2.876237	_vbn people	0.00242123
-3.177267	_vbn should	0.09999549
-2.955418	_vbn such	-0.003005028
-2.554018	_vbn technology	-0.1419154
-1.65179	_vbn that	-0.382783
-1.607503	_vbn the	0.2392818
-2.709906	_vbn their	0.364387
-4.052329	_vbn there
-3.751298	_vbn they	-0.002809092
-2.876237	_vbn this	-0.05680621
-0.8289622	_vbn to	0.4803375
-2.921995	_vbn which	0.03873718
-2.9062	_vbn will	0.2943674
-1.566607	_vbn with	0.3794893
-2.785265	_vbp "	-0.1106189
-4.046766	_vbp 's
-2.826658	_vbp (	-0.1354148
-3.525628	_vbp )
-1.769753	_vbp ,	0.03798294
-1.696324	_vbp .	2.186348
-3.127688	_vbp :
-3.525628	_vbp </s>
-4.046766	_vbp _#
-4.046766	_vbp _$
-4.046766	_vbp _''
-4.046766	_vbp _,
-3.525628	_vbp _.
-3.127688	_vbp _:
-4.046766	_vbp _``
-2.923568	_vbp _cc	-0.2504667
-2.36426	_vbp _cd	-0.2656565
-1.805468	_vbp _dt	-0.1947477
-4.046766	_vbp _fw
-1.56184	_vbp _in	0.3175491
-1.105672	_vbp _jj	0.04375958
-1.912844	_vbp _jjr	0.2271609
-2.826658	_vbp _jjs	-0.3568681
-4.046766	_vbp _ls
-2.872415	_vbp _md	0.1807549
-1.231162	_vbp _nn	-0.07871222
-2.258456	_vbp _nnp	0.04399073
-3.525628	_vbp _nnps
-1.557145	_vbp _nns	-0.04160148
-3.525628	_vbp _pdt	0.3277398
-1.693119	_vbp _prp	-0.3290759
-2.15456	_vbp _prp$	0.06966692
-1.47641	_vbp _rb	0.05863959
-2.504438	_vbp _rbr	0.04339743
-4.046766	_vbp _rbs
-1.945844	_vbp _rp	-0.01735869
-1.957426	_vbp _vb	0.0003597438
-1.945844	_vbp _vbg	0.09895805
-2.119088	_vbp _vbn	0.1056562
-3.525628	_vbp _vbp
-3.127688	_vbp _vbz
-3.224598	_vbp _wp	-0.1005546
-2.525628	_vbp _wrb	0.07705218
-1.488201	_vbp a	0.1628349
-4.046766	_vbp also
-2.224598	_vbp an	-0.02007645
-1.994149	_vbp and	-0.2519691
-2.826658	_vbp are	0.08888742
-2.203408	_vbp as	0.1412115
-2.650567	_vbp by	0.1567937
-2.923568	_vbp can	0.4149952
-3.953466	_vbp elderly	-0.1436677
-2.872415	_vbp energy
-2.213874	_vbp for	0.1512761
-1.957426	_vbp from	-0.3023374
-2.98156	_vbp government	-0.2656395
-2.98156	_vbp have	-0.02815884
-4.046766	_vbp http
-1.647681	_vbp in	0.2521104
-2.596209	_vbp is	0.1757075
-1.923568	_vbp it	-0.1125832
-1.86287	_vbp more	0.2539402
-1.222432	_vbp not	-1.038933
-2.308144	_vbp nuclear	0.4913959
-2.246874	_vbp of	0.251948
-1.994149	_vbp on	0.0853008
-2.826658	_vbp or	-0.06623253
-2.622538	_vbp people	-0.1530155
-4.046766	_vbp should
-2.923568	_vbp such	-0.1507174
-3.224598	_vbp technology	-0.07373882
-0.9747882	_vbp that	-0.5049741
-0.9498628	_vbp the	0.2438003
-1.722854	_vbp their	0.1309441
-2.747477	_vbp there	0.1815935
-2.596209	_vbp they	-0.08210938
-2.295179	_vbp this	0.2211104
-0.8753203	_vbp to	-0.1238822
-4.046766	_vbp which
-3.924155	_vbp will	0.08446959
-1.897239	_vbp with	0.2333115
-2.75533	_vbz "	0.003346369
-3.600428	_vbz 's
-2.901458	_vbz (	-0.04768644
-4.121566	_vbz )
-1.725367	_vbz ,	0.1340705
-1.743096	_vbz .	2.15832
-4.121566	_vbz 2009
-3.05636	_vbz :	-0.1131194
-3.05636	_vbz </s>
-3.202488	_vbz _$	0.7381498
-4.028266	_vbz _-lrb-
-4.028266	_vbz _.	-0.1760963
-3.299398	_vbz _:
-3.202488	_vbz _``	-0.1972139
-2.622705	_vbz _cc	-0.1703171
-2.009364	_vbz _cd	-0.3333746
-1.888621	_vbz _dt	-0.1244283
-1.486485	_vbz _in	0.01995456
-1.13878	_vbz _jj	0.0363059
-1.901458	_vbz _jjr	0.1949199
-3.05636	_vbz _jjs	0.07588589
-3.299398	_vbz _md	-0.08051762
-1.159519	_vbz _nn	-0.2428711
-1.905823	_vbz _nnp	-0.09069741
-4.028266	_vbz _nnps	-0.299888
-1.4543	_vbz _nns	-0.09450471
-2.860066	_vbz _pdt	0.1199598
-4.121566	_vbz _pos
-1.673572	_vbz _prp	-0.3529004
-1.914687	_vbz _prp$	-0.04258502
-1.445092	_vbz _rb	-0.01154548
-2.579239	_vbz _rbr	0.03593737
-4.121566	_vbz _rbs
-1.884425	_vbz _rp	0.1221612
-3.600428	_vbz _to
-2.068949	_vbz _vb	-0.146179
-3.202488	_vbz _vbd	-0.08091366
-1.96696	_vbz _vbg	-0.003177255
-2.102118	_vbz _vbn	0.08619109
-3.600428	_vbz _vbp
-3.05636	_vbz _vbz	-0.0501719
-3.600428	_vbz _wp
-2.396308	_vbz _wrb	0.006853729
-1.25018	_vbz a	0.2009524
-4.028266	_vbz also
-1.794248	_vbz an	0.07285035
-2.095278	_vbz and	-0.07522824
-2.860066	_vbz are	0.1403466
-2.088545	_vbz as	-0.1855253
-3.600428	_vbz be	-0.2737879
-2.600428	_vbz by	-0.09982044
-4.028266	_vbz can
-3.05636	_vbz elderly	-0.08638345
-2.998368	_vbz energy	-0.07327455
-1.977179	_vbz for	0.2876026
-2.068949	_vbz from	-0.1198167
-3.998955	_vbz government	-0.3464638
-3.202488	_vbz has	0.1510693
-2.75533	_vbz have	-0.1278607
-1.589705	_vbz in	0.2729241
-2.75533	_vbz is	0.03153424
-1.919187	_vbz it	-0.2480089
-1.884425	_vbz more	0.1481225
-1.289735	_vbz not	-1.001897
-2.646186	_vbz nuclear	0.03102994
-2.169065	_vbz of	0.1538839
-1.829576	_vbz on	0.3517122
-3.299398	_vbz or
-2.333256	_vbz people	-0.3196635
-4.121566	_vbz should
-3.998955	_vbz such	0.4147862
-3.05636	_vbz technology
-1.205977	_vbz that	-0.3978097
-0.889043	_vbz the	0.5570281
-2.288674	_vbz their	0.3008965
-3.202488	_vbz there	-0.09388295
-4.121566	_vbz they
-2.470094	_vbz this	0.1180252
-0.9486659	_vbz to	0.3867848
-4.028266	_vbz which
-4.028266	_vbz will
-2.109067	_vbz with	0.03843755
-2.340682	_wdt ,
-1.819544	_wdt _jj
-1.421604	_wdt _md	0.07266288
-0.916454	_wdt _nn	-0.03853659
-1.819544	_wdt _nnp
-1.217484	_wdt _nns	-0.1511299
-1.819544	_wdt _prp
-1.421604	_wdt _rb	-0.08537475
-1.120574	_wdt _vbd	-0.07794745
-1.006631	_wdt _vbp	-0.05495122
-0.7781513	_wdt _vbz	0.06881365
-2.340682	_wdt an
-2.247382	_wdt and
-2.340682	_wdt as
-2.340682	_wdt be
-2.340682	_wdt can
-2.340682	_wdt for
-2.247382	_wdt from	-0.1678736
-2.340682	_wdt have
-1.421604	_wdt in	-0.08759908
-2.340682	_wdt is
-1.819544	_wdt it
-2.340682	_wdt more
-1.819544	_wdt not	-0.2282837
-2.340682	_wdt nuclear
-1.819544	_wdt of
-2.340682	_wdt on
-2.340682	_wdt people
-2.340682	_wdt technology
-2.340682	_wdt that
-1.217484	_wdt the	-0.3578116
-2.340682	_wdt their
-2.340682	_wdt there
-1.819544	_wdt they	-0.173978
-1.518514	_wdt to	-0.1176673
-3.385649	_wp "
-2.165541	_wp 's	-0.4586788
-2.563481	_wp )
-3.292349	_wp ,	-0.283466
-3.385649	_wp .
-3.385649	_wp </s>
-3.385649	_wp _.
-3.292349	_wp _dt	-0.1032599
-1.961421	_wp _in	0.05528674
-2.211298	_wp _jj	-0.02487172
-3.385649	_wp _jjs
-1.532073	_wp _md	0.4188831
-2.262451	_wp _nn	-0.007877864
-2.051598	_wp _nnp	-0.144022
-3.385649	_wp _nnps
-2.124148	_wp _nns	-0.1039807
-1.308209	_wp _prp	-0.3518617
-2.466571	_wp _prp$	0.1177971
-1.449538	_wp _rb	-0.5473424
-3.385649	_wp _vb
-0.966884	_wp _vbd	0.335374
-2.864511	_wp _vbg
-3.385649	_wp _vbn
-0.8057056	_wp _vbp	0.09584039
-1.366201	_wp _vbz	-0.05837664
-2.563481	_wp a	0.4574696
-3.385649	_wp and
-0.7137547	_wp are	0.01395851
-1.522088	_wp can	0.4393449
-3.385649	_wp for
-1.803813	_wp has	0.3259251
-1.165541	_wp have	0.2380875
-1.058331	_wp is	-0.07496953
-2.019413	_wp it	-0.09178969
-3.292349	_wp more
-3.385649	_wp not
-2.864511	_wp of
-3.292349	_wp people
-2.019413	_wp should	0.646475
-3.385649	_wp that
-1.621473	_wp the	0.3006347
-3.292349	_wp their
-1.522088	_wp they	-0.1186177
-2.051598	_wp to	-0.3588282
-1.585757	_wp will	0.0521059
-1.631958	_wp$ _jj	-0.0798336
-1.725258	_wp$ _jjs
-0.3290587	_wp$ _nn	-0.2294423
-0.50515	_wp$ _nns	-0.2418955
-1.725258	_wp$ _wp
-1.725258	_wp$ energy
-1.725258	_wp$ the
-2.546543	_wrb "	-0.06556655
-2.789581	_wrb ,
-3.518449	_wrb .	3.839561
-3.611749	_wrb _,
-3.090611	_wrb _.	-0.1591098
-1.993701	_wrb _cd	-0.2092
-1.719543	_wrb _dt	0.009244055
-3.518449	_wrb _in
-1.022425	_wrb _jj	-0.05198884
-2.546543	_wrb _jjr	-0.2302438
-2.789581	_wrb _jjs	-0.1320579
-2.245513	_wrb _md	-0.2402987
-1.133962	_wrb _nn	-0.2935998
-1.7104	_wrb _nnp	-0.2105473
-3.090611	_wrb _nnps	-0.2754085
-1.264536	_wrb _nns	-0.4792817
-3.518449	_wrb _pdt	0.448992
-1.312459	_wrb _prp	-0.3102208
-2.350248	_wrb _prp$	-0.114571
-1.728883	_wrb _rb	-0.1793237
-2.789581	_wrb _rbs	-0.1941917
-3.090611	_wrb _to
-3.611749	_wrb _vb
-2.488551	_wrb _vbd	-0.2333121
-1.308855	_wrb _vbg	0.1104388
-1.546543	_wrb _vbn	-0.1866677
-2.136368	_wrb _vbp	-0.1719936
-2.546543	_wrb _vbz	-0.05600687
-3.611749	_wrb _wp
-3.090611	_wrb _wrb	-0.2392442
-1.499546	_wrb a	-0.3124865
-1.929243	_wrb an	0.3484318
-2.350248	_wrb and	-0.3882339
-2.789581	_wrb are
-3.611749	_wrb by
-2.350248	_wrb can	-0.2211089
-2.692671	_wrb elderly	-0.1447057
-3.611749	_wrb energy
-3.611749	_wrb for
-3.611749	_wrb from
-3.518449	_wrb government	-0.132902
-2.692671	_wrb in	-0.02858764
-2.391641	_wrb is	-0.1542952
-1.245513	_wrb it	-0.3622947
-2.277697	_wrb more	-0.08546297
-2.437398	_wrb not	-0.001236215
-2.215549	_wrb nuclear	0.6711469
-3.611749	_wrb of
-3.611749	_wrb on
-1.659247	_wrb people	-0.4834979
-2.789581	_wrb should
-2.692671	_wrb such	-0.1137437
-3.489137	_wrb technology	-0.03945313
-3.611749	_wrb that
-0.7884963	_wrb the	-0.02099633
-2.215549	_wrb their	-0.00519833
-1.565566	_wrb there	-0.1271217
-0.9292427	_wrb they	-0.4556584
-2.161192	_wrb this	-0.05508786
-1.29127	_wrb to	-0.8024679
-2.488551	_wrb will	-0.1615711
-3.611749	_wrb with
-2.535435	a "	-0.3829572
-4.218545	a )	-0.2983661
-3.790707	a ,
-3.790707	a .	3.856547
-4.311845	a </s>
-3.392767	a _$	0.9638567
-4.311845	a _''
-3.392767	a _,	-0.1426247
-4.311845	a _-lrb-
-3.489677	a _-rrb-
-4.218545	a _.	-0.1626438
-3.091737	a _:	0.06579131
-2.600376	a _``	-0.1184381
-4.218545	a _cc
-2.222506	a _cd	-0.4285787
-1.790707	a _dt	-0.3700336
-4.311845	a _ex
-3.790707	a _fw
-2.836465	a _in	-0.3321834
-0.4226064	a _jj	-1.09282
-1.308549	a _jjr	-1.066316
-3.489677	a _jjs	-0.05612864
-3.188647	a _md	-0.1652607
-0.3519277	a _nn	-0.05948317
-2.142347	a _nnp	-0.2942042
-2.500673	a _nns	-0.2202746
-4.311845	a _pdt
-4.311845	a _pos
-1.488593	a _rb	-1.196619
-2.812984	a _rbr	-0.667237
-3.790707	a _rbs	0.368518
-4.218545	a _to	0.1922461
-2.693797	a _vb	-0.2420931
-4.311845	a _vbd
-1.994827	a _vbg	-0.8590341
-2.313586	a _vbn	-0.6695029
-3.188647	a _vbp
-2.915646	a _vbz	-0.3502073
-4.311845	a _wdt
-4.311845	a _wp
-4.311845	a _wrb
-4.311845	a and
-4.311845	a by
-3.790707	a can
-2.749315	a government	-0.1663589
-1.939449	a more	-0.7460977
-4.311845	a not
-1.884911	a nuclear	-1.063993
-4.311845	a of
-4.311845	a on
-2.438525	a technology	-0.04251629
-4.311845	a to
-3.086004	also "
-2.541936	also ,	-0.006691888
-2.483944	also .	3.413592
-3.607142	also _-rrb-
-3.607142	also _cc
-2.541936	also _cd	-0.6597486
-2.044611	also _dt	-0.2051456
-2.345641	also _in	-0.0592375
-1.191134	also _jj	0.1485968
-2.541936	also _jjr	-0.09047067
-3.607142	also _jjs
-3.513842	also _md
-1.784974	also _nn	0.06452376
-1.795969	also _nns	-0.03429821
-3.607142	also _pdt
-3.607142	also _prp
-2.387034	also _prp$	-0.1832329
-1.382712	also _rb	-0.2695639
-3.607142	also _rbs
-0.7806523	also _vb	0.1292889
-1.333955	also _vbd	-0.3707633
-1.594642	also _vbg	0.1272739
-0.915742	also _vbn	0.01950997
-1.058654	also _vbp	-0.05054814
-0.9013123	also _vbz	0.05532837
-3.607142	also _wp
-2.541936	also _wrb
-1.57412	also a	0.1242542
-2.182914	also an	0.1993703
-3.513842	also are
-3.086004	also as
-1.062751	also be	-0.1682692
-2.784974	also by	-0.08078928
-2.307853	also can	0.0946632
-3.607142	also energy
-2.387034	also for	-0.03246707
-3.513842	also from
-1.95567	also has	0.1993136
-1.65464	also have	0.2510077
-2.006822	also in	0.03916302
-2.784974	also is	-0.0874725
-2.688064	also it	-0.07208074
-2.387034	also more	-0.001874238
-2.156585	also not	-0.02064025
-3.607142	also of
-2.541936	also on	0.1249222
-3.607142	also people
-2.688064	also should	-0.04138798
-3.607142	also that
-1.494939	also the	-0.01432115
-3.48453	also their	0.2416313
-3.607142	also there
-3.086004	also they
-3.607142	also this
-1.795969	also to	-0.2674311
-2.784974	also will	0.02575797
-3.086004	also with	-0.2742802
-2.390453	an "	-0.2872658
-3.558654	an _,
-3.130816	an _-lrb-	-0.2770538
-3.651954	an _:
-2.829786	an _``	-0.01291665
-3.130816	an _cc
-1.798378	an _dt	-0.07153001
-3.651954	an _fw
-2.477603	an _in	-0.1285595
-0.4135617	an _jj	-0.8515084
-1.926696	an _jjr	-0.4189365
-3.130816	an _ls	-0.2775114
-0.3384244	an _nn	-0.04508698
-2.109627	an _nnp	-0.2652852
-2.586748	an _nns	-0.2951629
-1.653695	an _rb	-0.6078439
-3.651954	an _to
-2.586748	an _vb	-0.06432558
-3.651954	an _vbd
-1.632506	an _vbg	-0.8301123
-1.534219	an _vbn	-0.7946987
-3.130816	an _vbp	-0.2867746
-3.558654	an _vbz	-0.3049626
-3.651954	an _wrb
-2.528756	an a	-0.2553972
-3.651954	an also
-1.940484	an elderly	-0.01357068
-2.051635	an energy	-0.6178008
-3.651954	an this
-2.968372	and "	-0.1767964
-3.688531	and (
-3.176648	and ,	-0.1796282
-3.336349	and _$	0.4828773
-4.510699	and _''
-3.011837	and _,	-0.1695507
-3.688531	and _-lrb-	-0.1951078
-3.290591	and _-rrb-	-0.04702606
-4.388088	and _.	0.01658916
-3.290591	and _:	-0.04604779
-4.417399	and _``
-1.80487	and _cc	-0.06862903
-2.157052	and _cd	0.3225415
-2.144463	and _dt	-0.07322347
-3.591621	and _fw	0.03037706
-2.040171	and _in	0.1405267
-0.8477978	and _jj	0.2071104
-1.878971	and _jjr	0.05065233
-3.21141	and _jjs	-0.1282338
-2.30832	and _md	0.4261696
-0.6873384	and _nn	0.1545514
-1.262834	and _nnp	0.1244522
-3.249198	and _nnps	0.01365201
-1.042372	and _nns	0.5940702
-3.591621	and _pdt	0.08890456
-2.451742	and _prp	-0.369029
-2.233686	and _prp$	0.3481498
-1.247622	and _rb	0.3474759
-2.772077	and _rbr	-0.3660836
-2.828193	and _rbs	0.1889881
-4.510699	and _rp
-3.591621	and _to	-0.08944966
-1.129523	and _vb	0.3845797
-1.877291	and _vbd	0.08166963
-1.414951	and _vbg	0.3131037
-1.7868	and _vbn	-0.222354
-2.052545	and _vbp	-0.1067866
-1.837273	and _vbz	0.3340904
-3.989561	and _wdt
-2.91038	and _wp	0.02580218
-2.677807	and _wrb	0.1780058
-2.135255	and a	0.2940313
-1.970445	and also	0.02528846
-2.657123	and an	0.3312719
-2.477678	and are	0.1363133
-2.875618	and as	-0.2489029
-2.600395	and be	0.1383064
-3.086471	and by	-0.3177195
-2.464516	and can	0.6329263
-3.011837	and elderly	-0.07313673
-2.968372	and energy	0.001562789
-2.81347	and for	0.1962254
-3.144463	and from	-0.1097256
-2.627833	and government	-0.4692237
-2.477678	and has	0.05350423
-2.409777	and have	0.2604331
-2.376777	and in	0.0443213
-2.341201	and is	-0.1432875
-1.904985	and it	-0.4118817
-1.899656	and more	0.06492925
-2.222405	and not	0.276063
-2.843433	and nuclear	0.680822
-3.21141	and of	0.1720869
-3.290591	and on	0.0339489
-4.510699	and or
-2.759112	and people	-0.0510122
-2.618493	and should	0.2016785
-3.445493	and such	-0.04288643
-2.245268	and technology	0.09535491
-2.527163	and that	-0.03164911
-1.162515	and the	0.4602369
-2.265285	and their	0.05528319
-2.451742	and there	0.2431949
-2.186787	and they	0.6892078
-2.120329	and this	0.1318627
-2.160257	and to	-0.1520138
-3.445493	and which	-0.05620462
-2.484411	and will	0.6284617
-2.843433	and with	0.08941853
-2.74514	are "	-0.09720075
-2.824321	are ,	-0.1636406
-3.921818	are .	3.538531
-3.125351	are :	-0.1927457
-4.044429	are </s>
-4.044429	are _$
-4.044429	are _''
-3.951129	are _,
-4.044429	are _-lrb-
-4.044429	are _-rrb-
-3.222261	are _.	0.02224194
-3.523291	are _:
-3.125351	are _``	0.01449285
-2.824321	are _cc	-0.2346039
-1.786895	are _cd	-0.6791075
-1.6368	are _dt	-0.2476047
-3.222261	are _ex	-0.2052673
-1.794937	are _in	-0.1577016
-0.6528872	are _jj	-0.09788311
-2.018141	are _jjr	0.2537748
-3.222261	are _jjs	-0.399483
-4.044429	are _ls
-1.824321	are _nn	-0.06853211
-2.782928	are _nnp	-0.04558869
-1.500039	are _nns	-0.2726607
-3.523291	are _pdt	0.3277398
-2.921231	are _prp	-0.190821
-2.979223	are _prp$	0.169452
-0.7754911	are _rb	-0.6140038
-2.256119	are _rbr	-0.5034188
-2.870079	are _rbs	0.8244977
-4.044429	are _uh
-2.921231	are _vb	0.03768039
-1.03263	are _vbg	0.2346668
-0.7397448	are _vbn	-0.2639748
-1.960998	are _vbp	-0.07316315
-3.222261	are _vbz
-3.523291	are _wdt
-2.921231	are _wp	-0.01849501
-2.031929	are a	-0.2209686
-1.521125	are also	-0.6224351
-2.870079	are an	0.3964903
-4.044429	are and
-2.870079	are as	-0.3699088
-4.044429	are be
-4.044429	are by
-4.044429	are can
-3.222261	are elderly
-3.921818	are for	-0.05647358
-3.222261	are from	-0.04407648
-1.926694	are in	-0.3047224
-1.620201	are more	-0.1843209
-1.257295	are not	-0.9206462
-2.462593	are of	-0.1875603
-2.678193	are on	-0.01832256
-2.979223	are people	-0.1721045
-3.921818	are such	0.2004781
-2.921231	are that	0.03506329
-1.470213	are the	0.459509
-3.951129	are their
-3.125351	are there	-0.1578186
-3.125351	are they	-0.1577523
-4.044429	are this
-2.190853	are to	-0.5125364
-4.044429	are which
-4.044429	are with
-2.275921	as "	-0.1833208
-2.728219	as ,	-0.09786929
-3.904896	as :	-0.1707381
-3.50637	as _$	0.976985
-4.027508	as _-lrb-
-4.027508	as _.
-3.934208	as _:
-2.728219	as _``	0.1236385
-3.20534	as _cc	-0.1971976
-1.962302	as _cd	-0.306636
-1.90431	as _dt	0.007793903
-4.027508	as _fw
-1.909773	as _in	0.1145437
-1.012912	as _jj	-0.01662195
-2.40946	as _jjr	-0.2375124
-2.693456	as _jjs	0.01337728
-0.8983788	as _nn	-0.01385069
-1.512933	as _nnp	-0.1003149
-1.436332	as _nns	0.09101957
-3.20534	as _pdt	0.4115215
-1.920909	as _prp	-0.2153539
-2.036548	as _prp$	-0.01425833
-0.9800304	as _rb	-0.8392507
-4.027508	as _rbr
-2.330278	as _vb	0.07341899
-4.027508	as _vbd
-1.519598	as _vbg	0.05090076
-1.369649	as _vbn	-0.4579988
-3.934208	as _vbp
-2.8074	as _vbz	-0.04454689
-4.027508	as _wdt
-2.90431	as _wp	-0.08972987
-2.693456	as _wrb	-0.08256061
-1.064675	as a	-0.09447825
-4.027508	as also
-1.686826	as an	-0.2188107
-4.027508	as be
-4.027508	as by
-4.027508	as can
-3.20534	as elderly
-3.20534	as energy	-0.01008808
-2.766007	as for	0.006810084
-2.90431	as government	-0.4780234
-4.027508	as has
-2.251097	as in	-0.01096296
-4.027508	as is
-1.214114	as it	-0.5647637
-2.392426	as more	0.1968988
-2.48518	as not	-0.3989882
-2.445672	as nuclear	0.8742079
-2.766007	as of	-0.005774327
-4.027508	as on
-2.30225	as people	-0.331794
-2.90431	as such	-0.05655262
-2.48518	as technology	-0.1963466
-3.10843	as that	-0.2126978
-0.8648956	as the	0.4549031
-2.059212	as their	0.3762985
-1.877981	as there	-0.07154733
-1.311855	as they	0.3019544
-2.360242	as this	0.08802772
-1.495646	as to	-0.5819167
-4.027508	as will
-3.20534	as with	-0.1162521
-2.839381	be "	-0.1866816
-3.254355	be ,
-2.999082	be .	3.36244
-3.652295	be _$	0.976985
-4.173433	be _''
-4.080133	be _.	-0.02767475
-4.173433	be _:
-4.050821	be _``	-0.1010016
-4.080133	be _cc
-2.12725	be _cd	-0.4541852
-2.182473	be _dt	-0.3601211
-2.072511	be _in	-0.2725396
-0.8185104	be _jj	-0.1260506
-1.86342	be _jjr	0.3788086
-4.173433	be _jjs
-2.722876	be _md	-0.2217549
-1.989537	be _nn	0.07757646
-2.573113	be _nnp	0.08225727
-4.173433	be _nnps
-2.319856	be _nns	-0.1710891
-4.173433	be _prp
-3.108227	be _prp$	0.2510778
-1.147145	be _rb	-0.9075183
-2.351265	be _rbr	-0.6907912
-4.080133	be _rp
-3.108227	be _to	0.2224045
-1.885139	be _vb	-0.3605751
-4.080133	be _vbd	-0.1409819
-1.788972	be _vbg	0.1076974
-0.2659741	be _vbn	-0.7021512
-4.080133	be _vbp
-4.080133	be _wdt
-4.173433	be _wp
-3.254355	be _wrb	-0.01790549
-1.35018	be a	-0.1335001
-3.351265	be also	-0.2043521
-2.114475	be an	-0.18086
-3.652295	be and
-4.173433	be are
-2.538351	be as	-0.5599062
-4.173433	be be
-4.173433	be by
-4.173433	be can
-4.173433	be elderly
-4.173433	be energy
-4.050821	be for	0.06012338
-3.351265	be from
-2.237321	be in	-0.2424885
-2.674571	be it	-0.1891937
-1.608932	be more	-0.1626037
-2.911932	be not	-0.3230124
-3.652295	be nuclear
-2.722876	be of	-0.2158195
-2.698052	be on	0.1169391
-3.652295	be people	-0.2706738
-2.674571	be that	-0.09023443
-1.471882	be the	-0.1477919
-3.652295	be their
-4.080133	be there
-4.173433	be this
-2.397022	be to	-0.6534163
-4.080133	be with
-2.606859	by "	-0.3163543
-2.862131	by (	0.04927203
-3.781209	by )
-2.519709	by ,	-0.05463739
-3.658598	by .	3.538531
-3.781209	by :
-3.781209	by _$
-3.781209	by _-rrb-
-3.781209	by _.
-3.781209	by _:
-2.414973	by _cc	-0.133074
-1.28464	by _cd	-0.4614716
-1.709843	by _dt	-0.09059715
-3.260071	by _fw
-1.853531	by _in	-0.1016863
-1.073963	by _jj	-0.4222101
-2.862131	by _jjr	-0.02018011
-2.561101	by _jjs	-0.05663074
-1.038657	by _nn	0.009778619
-1.208919	by _nnp	-0.3717353
-3.260071	by _nnps
-1.186353	by _nns	-0.147744
-3.68791	by _pdt	0.3107533
-3.781209	by _pos
-2.017033	by _prp	-0.2759393
-2.199373	by _prp$	0.4155371
-1.87986	by _rb	-0.1324959
-3.781209	by _to
-2.959041	by _vb
-3.781209	by _vbd
-0.6673396	by _vbg	0.2144846
-3.658598	by _vbn	-0.209232
-3.260071	by _vbz
-3.781209	by _wp
-3.68791	by _wrb	-0.267276
-1.531718	by a	0.09712631
-2.129738	by an	0.2224575
-3.781209	by and
-3.781209	by as
-3.260071	by can
-3.260071	by for
-2.519709	by government	-0.09873085
-3.68791	by in
-2.716003	by it	-0.280598
-2.658011	by more	-0.4122322
-2.561101	by not	-0.5950983
-1.853531	by nuclear	0.4204098
-2.199373	by people	-0.08403143
-3.68791	by such
-2.959041	by technology
-3.68791	by that	-0.1356592
-0.5987321	by the	-0.01831698
-1.862131	by their	0.1409467
-2.447158	by this	0.1022792
-3.68791	by which
-3.778195	can "	-0.2310597
-3.379668	can ,
-3.807506	can .	3.839561
-3.900806	can _-rrb-
-3.900806	can _cc
-3.900806	can _cd
-2.981728	can _dt	-0.0948538
-3.900806	can _in
-2.981728	can _jj
-2.300487	can _md	0.3585497
-2.078638	can _nn	-0.001643732
-3.900806	can _nnp
-2.639305	can _nns	-0.01953906
-2.566755	can _prp	-0.2957443
-3.379668	can _prp$
-1.046221	can _rb	-1.283927
-3.900806	can _rbr
-0.3702171	can _vb	0.7521352
-3.900806	can _vbd
-3.379668	can _vbg
-3.078638	can _vbn
-3.078638	can _vbz	-0.1213106
-3.900806	can _wdt
-3.807506	can a	0.08310333
-1.435185	can also	-1.304779
-3.379668	can and
-0.5086792	can be	-0.1129911
-1.981728	can have	-0.2627652
-3.078638	can in	-0.3473625
-3.900806	can it
-3.379668	can more
-1.035276	can not	-1.049642
-3.900806	can of
-3.900806	can on
-2.601517	can the	0.03502765
-3.900806	can their
-3.807506	can they	-0.3083021
-3.379668	can this
-3.078638	can to	0.1530551
-3.143483	elderly "
-3.54201	elderly 's	0.2066969
-2.189241	elderly (	0.03553954
-3.664621	elderly )
-1.154479	elderly ,	-0.002581954
-0.8275129	elderly .	1.699682
-3.54201	elderly </s>
-3.571321	elderly _''	-0.1178356
-3.664621	elderly _-lrb-
-3.143483	elderly _-rrb-
-3.664621	elderly _.
-3.54201	elderly _:	-0.07040455
-2.490271	elderly _cc	-0.07604312
-3.664621	elderly _cd
-3.54201	elderly _dt	0.07077256
-1.681085	elderly _in	-0.01896495
-1.624969	elderly _jj	0.1783435
-3.143483	elderly _jjr
-1.457741	elderly _md	0.3212636
-1.075297	elderly _nn	0.01862687
-3.664621	elderly _nnp
-3.664621	elderly _nnps
-1.232326	elderly _nns	-0.01607496
-3.571321	elderly _prp
-1.652122	elderly _rb	0.1066855
-3.143483	elderly _rbr
-3.571321	elderly _to
-2.268422	elderly _vb	0.02519384
-2.013149	elderly _vbd	-0.1298645
-2.102091	elderly _vbg	0.1384356
-2.444513	elderly _vbn	-0.04336645
-1.72851	elderly _vbp	-0.171312
-1.967392	elderly _vbz	-0.02520389
-1.510015	elderly _wp	-0.2209802
-3.664621	elderly _wp$
-2.490271	elderly _wrb	-0.07217634
-2.541423	elderly a	0.3901409
-3.143483	elderly also	-0.2539216
-3.143483	elderly an	-0.02702361
-1.47603	elderly and	-0.1020324
-1.314179	elderly are	0.0858326
-1.763272	elderly as	0.05406851
-2.046573	elderly by	-0.5549785
-1.490271	elderly can	0.648964
-3.664621	elderly elderly
-2.490271	elderly for	-0.1376376
-2.240393	elderly from	-0.3446921
-2.214064	elderly has	-0.04723525
-1.720237	elderly have	0.1768785
-1.380055	elderly in	0.0509851
-1.605664	elderly is	-0.03490937
-2.842453	elderly more
-2.842453	elderly not	-0.05711488
-3.571321	elderly of	-0.05510709
-3.54201	elderly on	0.01818821
-2.541423	elderly or	-0.04860907
-1.558022	elderly people	0.201213
-1.720237	elderly should	0.5990296
-3.143483	elderly such	0.1015218
-2.298385	elderly that	-0.112527
-3.664621	elderly their
-1.194093	elderly to	-0.1341006
-3.143483	elderly which
-1.46679	elderly will	0.533504
-1.876312	elderly with	-0.0004615188
-2.643847	energy "
-2.643847	energy 's	0.03439835
-2.342817	energy (	-0.1048547
-3.469625	energy )
-1.199803	energy ,	-0.06902432
-0.9448773	energy .	1.918742
-2.643847	energy :	-0.2081198
-3.562925	energy </s>
-3.562925	energy _-rrb-
-3.469625	energy _.	-0.1760963
-2.740757	energy _:
-2.740757	energy _cc
-2.643847	energy _dt	-0.2130743
-3.562925	energy _fw
-1.586942	energy _in	-0.05502713
-1.981089	energy _jj	0.1221422
-1.811338	energy _md	0.1845549
-0.6421136	energy _nn	0.08899468
-3.469625	energy _nnp
-0.9483656	energy _nns	0.06242365
-3.469625	energy _prp
-1.751753	energy _rb	-0.04255033
-3.562925	energy _rbr
-2.740757	energy _vb
-1.895659	energy _vbd	-0.06186698
-2.301425	energy _vbg	-0.04981855
-1.635247	energy _vbn	-0.2480052
-2.643847	energy _vbp	-0.04639564
-1.618541	energy _vbz	0.009518534
-2.740757	energy _wrb
-3.469625	energy a	0.08310333
-2.643847	energy also	-0.1007361
-1.456327	energy and	0.08788213
-2.138697	energy are	0.2374122
-1.944877	energy as	0.007305861
-3.562925	energy be
-2.301425	energy by	-0.06303981
-1.880419	energy can	0.3946927
-1.811338	energy for	0.01991299
-1.981089	energy from	-0.1959206
-1.811338	energy has	0.1995571
-2.497719	energy have	-0.005728021
-1.67072	energy in	0.04109901
-1.068659	energy is	0.1892222
-2.740757	energy it	-0.09949023
-2.497719	energy more	0.04158586
-2.301425	energy of	-0.03660297
-3.469625	energy on	0.05987674
-3.440314	energy or
-2.342817	energy should	-0.2028413
-2.228874	energy such	-0.5522867
-3.562925	energy technology
-1.981089	energy that	-0.3747128
-3.469625	energy the	-0.1290069
-3.562925	energy they
-1.643847	energy to	-0.02870476
-1.911454	energy which	-0.08183178
-1.865696	energy will	0.2287056
-2.301425	energy with	-0.1013825
-3.178574	for "	-0.04520291
-4.004353	for (	0.04217003
-3.975041	for ,
-2.731416	for .	3.170554
-3.576514	for 2009
-4.097652	for _$
-4.097652	for _''
-4.097652	for _,
-4.004353	for _-lrb-
-2.974454	for _-rrb-	-0.05463457
-3.275484	for _.	-0.1041773
-3.275484	for _:
-4.097652	for _``
-2.59879	for _cc	-0.3372259
-2.026286	for _cd	-0.3201054
-1.500967	for _dt	-0.2283937
-1.928154	for _in	-0.1161432
-0.940528	for _jj	-0.6510816
-1.923302	for _jjr	-0.06148922
-2.59879	for _jjs	-0.2027029
-4.097652	for _md
-0.8179807	for _nn	0.1685189
-1.375117	for _nnp	-0.2296717
-2.836151	for _nnps	-0.07065023
-1.144347	for _nns	0.04611361
-2.923302	for _pdt	0.05933893
-1.396101	for _prp	-0.7812162
-1.766954	for _prp$	0.105442
-2.099393	for _rb	-0.05927405
-4.097652	for _rbs
