
\data\
ngram 1=101
ngram 2=4737
ngram 3=17049

\1-grams:
-2.589533	"	0.07627726
-2.874204	%	-1.442925
-2.52453	's	-1.103535
-2.109955	(	-1.829222
-2.105817	)	-0.9407496
-1.349021	,	-2.128177
-1.364844	.	-4.260555
-2.505	2009	-1.986978
-2.221507	:	-1.575788
-1.327364	</s>
-99	<s>	-2.064931
-0.3612903	<unk>	0
-2.881212	=	-1.792579
-2.821583	[	-2.285096
-2.821583	]	-0.998199
-1.878562	a	-2.229469
-2.720761	aged	-0.8635831
-2.732305	aging	-1.215087
-2.882897	all	-0.8623837
-2.571193	also	-1.004051
-2.528693	an	-2.664604
-1.697981	and	-2.180159
-2.166582	are	-1.216782
-2.118294	as	-1.673304
-2.756105	at	-1.366047
-2.03804	be	-1.754016
-2.891423	been	-1.671275
-2.883911	but	-0.9210969
-2.399184	by	-1.579891
-2.310264	can	-1.629099
-2.85828	cost	-0.6320746
-2.763738	country	-0.9983911
-2.734699	design	-0.890075
-2.672199	development	-1.170685
-2.536988	elderly	-1.048832
-2.579342	energy	-0.9441017
-2.061495	for	-1.681413
-2.308011	from	-1.468288
-2.858599	generation	-0.8983105
-2.760414	genetic	-2.257724
-2.62218	government	-1.238902
-2.519382	has	-1.437502
-2.366106	have	-1.567599
-2.907919	help	-0.777877
-2.896969	high	-1.174767
-2.700769	however	-1.546936
-2.486988	http	-3.260025
-2.822464	if	-1.569171
-1.781846	in	-1.8442
-1.884962	is	-1.703628
-2.17809	it	-1.743504
-2.85163	its	-1.464886
-2.785852	many	-1.531729
-2.690891	may	-1.895332
-2.419499	more	-1.40925
-2.789377	new	-1.764412
-2.270163	not	-1.58007
-2.35315	nuclear	-2.060184
-1.581395	of	-2.226364
-2.226917	on	-1.258781
-2.68187	one	-1.446657
-2.891423	only	-0.8868556
-2.602795	or	-1.035247
-2.671992	other	-1.377497
-2.507696	people	-0.906117
-2.736142	population	-0.8950024
-2.697451	power	-0.6615337
-2.899417	problem	-0.7138402
-2.88731	problems	-0.8340476
-2.701658	process	-0.6789383
-2.706806	public	-1.258774
-2.800687	reactor	-0.8520036
-2.860519	reactors	-1.131514
-2.776236	research	-0.9119753
-2.757115	retrieved	-1.756529
-2.905422	safety	-0.9482566
-2.508408	should	-1.925432
-2.759904	singapore	-0.9614081
-2.872882	so	-1.165017
-2.83227	some	-1.151429
-2.77862	spending	-0.6778804
-2.604926	such	-1.511297
-2.587818	technology	-1.078606
-2.05207	that	-1.434172
-1.248456	the	-2.88392
-2.371066	their	-1.753497
-2.819827	them	-1.015875
-2.624037	there	-1.635836
-2.746625	these	-1.507146
-2.480522	they	-2.043042
-2.319117	this	-1.221475
-1.56245	to	-2.353713
-2.879868	use	-0.8602433
-2.903648	vhtr	-0.9805557
-2.840156	was	-1.43816
-2.712699	we	-2.052671
-2.875862	when	-1.199415
-2.494379	which	-1.339647
-2.314349	will	-2.147994
-2.325526	with	-1.440446
-2.743429	would	-1.853175

\2-grams:
-3.996955	" "
-0.976094	" (	0.09634948
-2.288662	" )	0.2318135
-1.253386	" ,	-0.01426673
-1.147333	" .	1.93341
-2.448363	" 2009	-0.6118028
-3.402605	" :
-1.769137	" </s>
-0.3437998	" <unk>	-0.03020763
-2.101575	" [	0.8868356
-1.800545	" a	0.0544734
-3.093338	" aging	-0.01624684
-3.402605	" all
-2.925484	" also	-0.149972
-2.499515	" an	0.7124612
-1.940207	" and	0.2044752
-2.703635	" are	0.2855091
-2.198485	" as	-0.005751759
-3.996955	" at	-0.03470957
-3.996955	" be	0.4917405
-3.56397	" but	-0.3225062
-2.288662	" by	-0.1337652
-3.093338	" can	0.4844411
-3.996955	" cost
-3.093338	" design	-0.2233912
-3.996955	" development
-2.925484	" elderly	-0.02846077
-2.557507	" energy	0.07748497
-2.703635	" for	-0.0806955
-2.402605	" from	0.1944711
-3.56397	" generation	0.1927069
-3.996955	" genetic	1.299628
-2.925484	" government
-2.557507	" has	0.2098596
-2.925484	" have	-0.01643756
-3.402605	" help
-3.402605	" high
-2.925484	" however	0.9266951
-1.800545	" http	1.765499
-2.288662	" if	0.06696033
-2.040877	" in	0.3350894
-2.022394	" is	0.1733344
-2.123852	" it	-0.04212472
-3.402605	" may
-2.448363	" more	0.1532704
-2.925484	" new	0.3092945
-3.56397	" not	0.2252307
-1.925484	" nuclear	0.07610458
-2.288662	" of	0.2474197
-3.093338	" on	0.4214232
-2.361212	" one	0.01315987
-2.925484	" only	0.1367249
-2.448363	" or	0.09235454
-3.56397	" people	-0.02760309
-2.925484	" population	-0.08505496
-3.402605	" power
-3.996955	" problem
-3.996955	" process	-0.1591896
-2.361212	" public	0.129769
-3.402605	" reactor
-3.996955	" reactors
-3.996955	" research
-2.703635	" retrieved	0.3848667
-2.925484	" should
-2.323424	" singapore	-0.04841259
-3.402605	" so
-3.996955	" some	0.08460775
-3.402605	" spending
-2.925484	" such	0.0548287
-3.56397	" technology
-3.56397	" that
-1.316245	" the	-0.2621958
-3.402605	" their
-2.402605	" there	0.2347471
-3.996955	" these	0.3803629
-2.925484	" they
-2.256477	" this	-0.01212054
-1.811541	" to	0.5377727
-3.402605	" use
-3.996955	" vhtr
-2.703635	" was	0.4085042
-2.499515	" we	0.001214504
-3.093338	" when	-0.2164588
-2.323424	" which	0.2753676
-2.925484	" will	-0.001381218
-2.361212	" with	0.2423617
-3.996955	" would	-0.05533481
-3.712284	% "
-3.117934	% %
-1.670776	% (	0.1419799
-1.887485	% )	-0.1269916
-1.862661	% ,	-0.08760303
-1.515874	% .	2.586623
-0.2170208	% <unk>	-0.6581482
-1.971806	% and	0.2512122
-3.712284	% are	0.2852391
-3.117934	% as
-3.117934	% at
-3.712284	% but
-2.418964	% by	-0.1238495
-3.117934	% cost
-2.00399	% for	0.06569982
-2.272836	% from	-0.1786487
-3.117934	% has
-1.393658	% in	-0.2450597
-3.712284	% is
-1.573866	% more	-0.2113324
-0.730544	% of	-0.4320439
-3.117934	% on
-3.712284	% or
-3.117934	% population
-1.913814	% to	-0.5014147
-2.640813	% when
-3.279298	% which	-0.3524824
-3.712284	% with	-0.07744278
-3.15834	's "	-0.3526154
-2.467608	's (	0.2218093
-2.513366	's ,	0.1009497
-2.513366	's .	3.23444
-3.467608	's :
-0.1378036	's <unk>	-0.1148742
-2.513366	's a	0.07259589
-2.353665	's aging	-0.2646383
-3.467608	's also
-3.467608	's an
-3.15834	's and	0.1370217
-3.467608	's at
-4.061958	's can
-3.467608	's cost
-3.467608	's country
-2.513366	's design	0.1324874
-0.9734535	's development	-0.5330788
-3.15834	's elderly	0.07377009
-2.00521	's energy	-0.3162908
-3.467608	's for
-3.467608	's generation
-2.036244	's genetic	0.3405499
-2.125185	's government	-0.125703
-3.15834	's help	-0.1164106
-3.628973	's high	0.2466148
-4.061958	's in
-3.467608	's is
-3.467608	's many
-3.467608	's may
-2.513366	's more	-0.5594122
-1.291517	's new	-1.389676
-2.990487	's not
-2.564518	's nuclear	0.1718047
-4.061958	's of	-0.002761543
-3.467608	's on
-2.990487	's one
-2.768638	's only	0.2705261
-4.061958	's or	0.3425087
-3.467608	's other
-1.768638	's population	-0.1062911
-2.564518	's power	0.04044388
-4.061958	's problem
-2.990487	's problems
-3.467608	's process
-4.061958	's public	-0.1554543
-4.061958	's reactors
-2.564518	's research	0.01282597
-2.188854	's safety	0.3839011
-3.467608	's singapore
-2.513366	's spending	-0.2282789
-3.467608	's such
-3.15834	's technology	-0.1523072
-4.061958	's the	0.2645439
-3.467608	's their
-3.628973	's to	0.3275995
-3.467608	's vhtr
-3.467608	's which
-3.467608	's will
-2.133995	( "	-0.4201802
-3.405062	( )
-1.109128	( 2009	-1.296241
-0.06926953	( <unk>	-1.15202
-4.476533	( [	1.71558
-2.559964	( a	0.1550483
-3.882183	( aged
-3.405062	( aging	-0.173972
-3.183213	( an	0.430984
-4.476533	( and	0.2159329
-2.419785	( as	-1.034604
-3.405062	( at	0.09415537
-4.476533	( by	0.1028346
-3.882183	( cost
-3.882183	( design
-3.405062	( energy	-0.04013541
-4.043547	( for	0.08349246
-3.405062	( from	-0.03762597
-2.62691	( generation	-0.3244552
-2.581153	( genetic	0.9377111
-4.043547	( government	-0.4339645
-3.882183	( help
-3.882183	( high
-2.501972	( http	1.987347
-3.183213	( in	0.180898
-3.882183	( it
-2.768239	( may	-0.05019757
-3.882183	( more
-3.572915	( new	0.008264482
-2.390821	( nuclear	-0.001456678
-3.882183	( of
-3.882183	( on
-3.882183	( only
-3.405062	( or	0.3376734
-3.405062	( population	-0.08505496
-3.572915	( public	-0.4613197
-4.043547	( research	0.087072
-3.572915	( safety	-0.1340848
-2.405062	( singapore	-0.6286696
-4.043547	( such	-0.07011005
-2.02485	( the	-0.3990486
-3.882183	( these
-3.405062	( to	0.2255841
-3.882183	( use
-1.788761	( vhtr	-1.623313
-3.882183	( we
-4.476533	( when
-3.405062	( which	-0.0938433
-3.882183	( will
-2.543899	) "	-0.01144007
-4.047686	) 's	0.1269839
-2.233109	) (	-0.08484751
-2.80714	) )	0.4882472
-1.01709	) ,	-0.06224144
-0.2316637	) .	0.909277
-2.423923	) :	-0.2025464
-1.737102	) </s>
-0.8267581	) <unk>	0.119822
-3.041224	) [	1.342767
-4.480671	) ]
-2.80714	) a	0.3980863
-3.4092	) aging	-0.249196
-3.886322	) all
-2.471348	) also	-0.4266363
-1.7929	) and	0.01145709
-2.454958	) are	-0.003023148
-2.39496	) as	0.1354626
-4.480671	) at
-4.480671	) but
-2.772378	) by	-0.3118688
-2.682201	) can	0.1517261
-3.4092	) cost
-4.480671	) design
-4.480671	) development	-0.1675981
-4.047686	) energy	-0.02218223
-2.655873	) for	0.09211534
-2.772378	) from	0.1113503
-3.187351	) generation	-0.1311572
-2.983232	) genetic	0.8688237
-3.886322	) government
-2.187351	) has	-0.2820677
-2.740193	) have	-0.2099943
-3.4092	) high	0.3715536
-2.631049	) however	0.01484358
-2.844929	) http	2.326166
-3.187351	) if
-2.01126	) in	0.1597992
-1.936931	) is	0.006772816
-2.983232	) it	0.247129
-3.886322	) its
-3.886322	) many
-4.047686	) may	0.3519184
-3.4092	) more	0.4034375
-3.4092	) new	0.4429948
-4.480671	) not
-2.631049	) nuclear	-0.1026835
-2.772378	) of	0.06815398
-2.740193	) on	0.109608
-3.577054	) one	0.1606879
-3.886322	) only
-2.932079	) or	0.5537293
-3.886322	) people
-3.886322	) power
-3.886322	) process
-3.187351	) reactor	-0.05999424
-4.480671	) reactors
-3.4092	) research	-0.07061134
-2.454958	) retrieved	0.9528576
-3.4092	) safety	-0.1193912
-2.71023	) should	-0.1886007
-3.577054	) singapore	-0.2109988
-3.187351	) so	-0.03822827
-4.480671	) some	-0.2455418
-3.187351	) such	0.2001724
-2.844929	) technology	-0.0611317
-2.454958	) that	0.09175131
-2.041224	) the	-0.3375351
-3.886322	) their
-3.4092	) there
-3.041224	) these	0.3828027
-4.480671	) they
-2.471348	) this	-0.06737417
-2.145959	) to	-0.06993973
-3.886322	) use
-2.524594	) was	-0.2542536
-4.047686	) when	-0.04628257
-2.306538	) which	0.01256186
-2.886322	) will	0.2721353
-2.682201	) with	0.3212797
-3.4092	) would	-0.01298085
-2.300694	, "	-0.3917105
-2.729303	, (	-0.1641204
-4.804482	, )	-0.05500007
-4.643117	, ,
-1.342087	, 2009	-0.3776525
-4.643117	, :
-5.237467	, </s>
-0.3578072	, <unk>	0.3410544
-5.237467	, [
-1.801132	, a	0.2436368
-4.165996	, aged	-0.1741308
-3.262906	, aging	0.3991413
-2.810608	, all	-0.1791144
-3.211753	, also	-0.1849196
-2.41523	, an	0.1947445
-1.601724	, and	0.06064904
-2.872265	, are	0.1544049
-1.998678	, as	-0.01085997
-3.030333	, at	-0.08745277
-3.320898	, be	0.176863
-1.993782	, but	0.0973767
-2.563936	, by	-0.547706
-2.980359	, can	0.1384296
-3.009649	, cost	-0.151911
-4.804482	, country	0.03678805
-3.438997	, design	-0.08296774
-3.030333	, development	-0.2318491
-3.019868	, elderly	-0.2581134
-3.467026	, energy	-0.1160271
-2.308663	, for	-0.373783
-1.575674	, from	-0.6870522
-3.180719	, generation	-0.8945853
-2.857787	, genetic	0.2135381
-2.798019	, government	-0.1992168
-2.791859	, has	0.3632448
-3.086814	, have	0.3956251
-4.333849	, help	0.02979113
-3.195959	, high	0.1177465
-2.703598	, however	0.4419039
-3.281389	, http	2.005831
-2.216606	, if	0.3037254
-1.875961	, in	-0.2137207
-2.449992	, is	0.3622282
-1.34821	, it	-0.9251714
-2.836937	, its	0.1844188
-2.236577	, many	0.3088423
-2.487781	, may	-0.468705
-2.362084	, more	0.01447219
-2.804268	, new	0.3356278
-2.586212	, not	-0.3867551
-2.197513	, nuclear	0.3287946
-3.320898	, of	0.07402974
-2.952921	, on	-0.08675104
-2.308663	, one	0.03331262
-2.989904	, only	-0.01095009
-2.503238	, or	0.1993583
-3.063333	, other	-0.2038203
-2.275761	, people	-0.5092874
-3.563936	, population	-0.4102319
-3.798019	, power	-0.1880794
-4.643117	, problem
-3.643117	, problems	-0.070572
-4.165996	, process	-0.1666531
-2.281389	, public	-0.9524001
-3.944147	, reactor	-0.3846827
-4.804482	, reactors	-0.1194352
-2.698634	, research	-0.03988087
-2.785784	, retrieved	0.9613459
-2.729303	, safety	0.1128697
-2.999664	, should	0.6592634
-2.412668	, singapore	-0.03939986
-2.430929	, so	0.02272367
-2.238283	, some	0.3839691
-3.052052	, spending	-0.2270706
-2.164551	, such	-0.2304873
-2.894929	, technology	-0.1236269
-2.952921	, that	-0.07771069
-0.8909916	, the	0.5779071
-2.669989	, their	0.05011249
-1.652334	, there	0.04877412
-2.392697	, these	0.2351271
-1.797399	, they	0.4752347
-1.972871	, this	0.03413045
-2.281389	, to	-0.02046061
-3.944147	, use	-0.09209159
-2.56757	, vhtr	-0.3580483
-3.111638	, was	-0.1421912
-1.815102	, we	0.5615295
-2.484755	, when	0.2909405
-1.635369	, which	-0.0205003
-2.779794	, will	0.2404774
-2.120673	, with	-0.05208969
-3.262906	, would	0.6345897
-4.627305	. ,
-4.627305	. .
-4.097891e-05	. </s>
-4.627305	. <unk>
-4.081488	2009 "
-3.487138	2009 's
-2.532896	2009 (	0.4358128
-0.4713596	2009 )	-0.006379247
-0.3580933	2009 ,	-1.332764
-1.518655	2009 .	2.2202
-2.407957	2009 :	-0.1658852
-2.106927	2009 </s>
-1.350418	2009 <unk>	-0.7260486
-4.081488	2009 [	1.71558
-2.125411	2009 ]	0.2230229
-3.487138	2009 and
-3.487138	2009 for
-0.9332554	2009 from	-0.7575096
-3.487138	2009 government
-3.487138	2009 have
-3.010017	2009 http	2.890437
-3.487138	2009 in
-3.487138	2009 is
-3.010017	2009 may	0.09714344
-3.648503	2009 on	0.05768038
-4.081488	2009 retrieved	0.3845966
-3.487138	2009 singapore
-3.487138	2009 that
-3.487138	2009 there
-3.010017	2009 to	0.3592844
-3.487138	2009 when
-3.487138	2009 will
-2.323473	: "	-0.1380119
-4.364981	: %	0.09643689
-3.071661	: (	0.5228394
-4.364981	: 2009	-0.1298462
-3.29351	: :	0.2092206
-1.314265	: </s>
-0.1548914	: <unk>	-0.9474372
-1.964451	: a	-0.06160474
-2.69145	: an	0.05077279
-3.770631	: are
-3.770631	: as
-3.770631	: be
-4.364981	: can
-3.931995	: cost	-0.03189339
-3.770631	: country
-4.364981	: design	-0.14448
-2.770631	: energy	-0.07741699
-3.29351	: from	-0.03762597
-4.364981	: generation	0.09552687
-3.461364	: genetic	0.9937625
-4.364981	: government	-0.1451757
-3.770631	: high
-0.7013331	: http	0.2982605
-3.770631	: if
-3.770631	: in
-2.729239	: is	-0.3151129
-3.770631	: it
-3.770631	: its
-4.364981	: more	0.4082729
-3.29351	: new	0.4429948
-3.770631	: not
-2.624503	: nuclear	0.3101428
-4.364981	: on	-0.06042559
-3.29351	: one
-3.770631	: only
-4.364981	: problem
-3.770631	: public
-3.770631	: research
-3.770631	: retrieved
-3.770631	: safety
-3.29351	: should
-3.461364	: singapore	-0.009821922
-4.364981	: some	0.08460775
-3.931995	: technology	-0.437078
-3.770631	: that
-1.867541	: the	-0.1419628
-4.364981	: they
-3.071661	: to	0.2306895
-4.364981	: vhtr
-3.770631	: was
-3.770631	: we
-4.364981	: when	-0.2276009
-3.770631	: will
-3.770631	: with
-1.992676	<s> "	-0.1699258
-1.457409	<s> (	-0.4096727
-3.217616	<s> )	-0.1618168
-4.826138	<s> ,	0.03915736
-3.819675	<s> .	3.343585
-3.409501	<s> 2009	-0.1038862
-3.710531	<s> :	0.4283703
-0.3668818	<s> <unk>	0.02493882
-2.426728	<s> [	0.4354166
-4.664773	<s> ]
-2.035364	<s> a	0.03709781
-4.826138	<s> aged	-0.1216773
-2.879444	<s> aging	0.2961627
-2.500421	<s> all	-0.5580698
-2.381472	<s> also	-0.4789699
-2.4168	<s> an	0.2151788
-2.537669	<s> and	0.1470947
-4.187652	<s> are
-1.650673	<s> as	0.009987593
-2.53444	<s> at	-0.492383
-3.965804	<s> be	-0.3074656
-2.361578	<s> but	-0.2428812
-2.25994	<s> by	-0.4969372
-4.826138	<s> can	0.06742981
-3.434325	<s> cost	0.2054375
-3.2498	<s> design	0.2216152
-3.623381	<s> development	-0.2239949
-3.363744	<s> elderly	-0.2769484
-3.322351	<s> energy	-0.04861632
-1.693034	<s> for	-0.8293747
-2.434325	<s> from	0.03582478
-2.886622	<s> generation	-1.210338
-2.557564	<s> genetic	-0.1083422
-3.133295	<s> government	-0.2732141
-3.710531	<s> have	-0.2666047
-4.826138	<s> help	-0.05908895
-3.585592	<s> high	0.16517
-1.413379	<s> however	0.0770005
-2.651936	<s> http	1.354721
-2.077063	<s> if	0.4102883
-1.190995	<s> in	-0.6248075
-3.363744	<s> is	0.006237775
-1.617109	<s> it	-0.7961952
-3.266834	<s> its	-0.02503669
-2.379216	<s> many	-0.07960165
-5.259123	<s> may	0.1019788
-2.725254	<s> more	0.130284
-2.639468	<s> new	-0.2947017
-2.886622	<s> not	-0.5031321
-2.071487	<s> nuclear	0.238144
-3.409501	<s> of	0.1532807
-2.108471	<s> on	-0.8248472
-2.037408	<s> one	-0.6230682
-3.120706	<s> only	0.2063631
-3.761683	<s> or	0.4852144
-2.789712	<s> other	-0.499098
-2.585592	<s> people	-0.3228208
-3.342554	<s> population	-0.620676
-3.761683	<s> power	-0.2625504
-5.259123	<s> problem	-0.2298063
-3.409501	<s> problems	-0.2174848
-5.259123	<s> process
-2.567863	<s> public	-0.9257484
-4.826138	<s> reactor	0.02331978
-2.940498	<s> research	-0.1087388
-1.480935	<s> retrieved	-0.3747412
-2.838699	<s> safety	-0.1823319
-3.284562	<s> should	-0.2547271
-2.372518	<s> singapore	0.01796234
-2.407095	<s> so	-0.5450978
-2.173412	<s> some	-0.05304754
-3.342554	<s> spending	-0.1214478
-2.627347	<s> such	0.1321808
-2.924411	<s> technology	-0.4278805
-2.772679	<s> that	-0.7091882
-1.07016	<s> the	0.3996277
-3.096572	<s> their	0.0923847
-2.011561	<s> there	0.1331261
-2.038433	<s> these	0.04485786
-2.04568	<s> they	0.4094864
-1.386706	<s> this	-0.0656575
-2.047773	<s> to	-0.3862863
-4.826138	<s> use	0.1473243
-2.983532	<s> vhtr	-0.198837
-2.290025	<s> we	0.8512242
-2.359422	<s> when	0.3878284
-4.187652	<s> which
-4.187652	<s> will	0.1323191
-1.852529	<s> with	-0.1962346
-4.187652	<s> would	-0.1798133
-2.584352	<unk> "	0.08349979
-2.516237	<unk> %	0.226521
-2.475512	<unk> 's	0.0842396
-1.943586	<unk> (	0.2297499
-1.826708	<unk> )	0.3963729
-1.084737	<unk> ,	0.8967178
-1.144191	<unk> .	-0.07102013
-3.039783	<unk> 2009	0.8759985
-2.255001	<unk> :	0.4130996
-2.246853	<unk> </s>
-0.4407767	<unk> <unk>	0
-2.526702	<unk> =	-0.01901758
-2.552754	<unk> [	-0.2134612
-2.470379	<unk> ]	0.1092243
-1.981124	<unk> a	0.2833061
-3.551666	<unk> aged	-0.2893499
-3.199484	<unk> aging	0.4028308
-3.0128	<unk> all	-0.01125801
-3.022322	<unk> also	-0.6803597
-2.723974	<unk> an	0.5084587
-1.435086	<unk> and	0.8415482
-2.106192	<unk> are	0.04256618
-2.076601	<unk> as	0.1534773
-2.548062	<unk> at	0.2447253
-2.597022	<unk> be	0.2029477
-3.298409	<unk> been	0.4312965
-2.912346	<unk> but	0.2301639
-2.13461	<unk> by	0.4065965
-2.273294	<unk> can	0.1654586
-2.877265	<unk> cost	0.2630457
-3.256099	<unk> country	0.4132658
-2.666117	<unk> design	0.2094042
-2.923278	<unk> development	0.3284647
-3.210892	<unk> elderly	0.2357433
-2.655876	<unk> energy	0.2498804
-1.81137	<unk> for	0.5201709
-2.210892	<unk> from	0.3931254
-2.89765	<unk> generation	0.3384322
-2.895249	<unk> genetic	0.2412012
-3.310701	<unk> government	0.05879378
-2.523638	<unk> has	0.1378421
-2.367922	<unk> have	0.1614501
-3.224308	<unk> help	0.009823918
-2.955986	<unk> high	0.2513351
-3.95875	<unk> however	0.5194647
-2.663768	<unk> http	0.4004788
-2.832888	<unk> if	0.2283819
-1.614399	<unk> in	0.6580274
-1.892543	<unk> is	0.3888143
-2.427271	<unk> it	0.7601174
-2.928417	<unk> its	0.04739404
-3.067367	<unk> many	0.2079034
-2.693832	<unk> may	0.3137617
-2.40528	<unk> more	0.2655939
-3.059139	<unk> new	0.2847897
-2.436889	<unk> not	0.1156026
-2.502126	<unk> nuclear	0.1066446
-1.301531	<unk> of	0.6206644
-2.038782	<unk> on	0.393515
-2.889696	<unk> one	0.09991121
-3.312784	<unk> only	0.3327155
-2.316981	<unk> or	0.1365991
-3.062646	<unk> other	0.3820487
-2.524317	<unk> people	0.2841361
-2.810646	<unk> population	0.2874529
-3.075753	<unk> power	0.1931736
-3.060305	<unk> problem	0.2253478
-2.799618	<unk> problems	0.2320411
-2.949606	<unk> process	0.2202526
-2.97957	<unk> public	-0.1980538
-2.682924	<unk> reactor	0.1651789
-2.817267	<unk> reactors	0.216617
-2.76812	<unk> research	0.2206023
-3.773515	<unk> retrieved	0.7538431
-3.026622	<unk> safety	0.2234707
-2.533243	<unk> should	0.3654985
-3.2806	<unk> singapore	0.2655698
-2.804125	<unk> so	-0.2265129
-3.059139	<unk> some	0.2056596
-3.219228	<unk> spending	0.6407659
-2.552029	<unk> such	-0.5726087
-2.517239	<unk> technology	0.409701
-1.787927	<unk> that	0.4621673
-1.412601	<unk> the	0.8827093
-2.356459	<unk> their	0.2396238
-2.724513	<unk> them	0.2396848
-3.112334	<unk> there	0.6379137
-3.021253	<unk> these	0.150205
-2.752901	<unk> they	0.05495727
-2.729935	<unk> this	0.3431013
-1.286691	<unk> to	0.6318169
-3.133918	<unk> use	0.3030996
-3.558966	<unk> vhtr	0.05651265
-2.756366	<unk> was	0.3181177
-3.080619	<unk> we	0.3731507
-2.751752	<unk> when	0.05879235
-2.426456	<unk> which	0.09642136
-2.295189	<unk> will	0.2060245
-2.130337	<unk> with	0.3735735
-2.696855	<unk> would	0.4109014
-3.705276	= %	0.09643689
-2.801659	= </s>
-0.01262871	= <unk>	-1.560133
-3.110926	= ]
-3.110926	= a
-3.27229	= all	-0.1274429
-3.110926	= an
-1.855654	= http	2.39518
-2.633805	= nuclear	-0.01564741
-3.110926	= the
-2.861288	[ 2009	-0.6114467
-0.004124945	[ <unk>	-2.010531
-3.170555	[ as
-3.170555	[ generation
-3.170555	[ its
-3.170555	[ of
-3.170555	[ people
-3.170555	[ singapore
-3.170555	[ vhtr
-3.170555	[ which
-2.216313	] "	0.1178807
-3.764905	] 's	0.256758
-1.891801	] (	0.3428033
-1.639076	] )	0.4100786
-1.272928	] ,	-0.5158014
-0.8320985	] .	1.850226
-3.170555	] :
-0.2920333	] </s>
-0.8222502	] <unk>	-0.2448662
-3.331919	] =	1.258487
-1.399703	] [	0.4170135
-3.170555	] ]
-3.170555	] aging
-3.170555	] an
-2.861288	] and	0.1370217
-3.764905	] are
-2.693434	] as	-0.2500716
-3.170555	] by
-3.170555	] energy
-3.170555	] for
-3.170555	] from
-3.170555	] genetic
-3.170555	] however
-2.325457	] http	2.52246
-2.693434	] in
-3.764905	] is
-3.764905	] it	-0.1274592
-3.170555	] many
-3.170555	] may
-3.170555	] new
-3.170555	] nuclear
-3.764905	] of
-3.170555	] one
-3.170555	] public
-3.170555	] retrieved
-3.764905	] singapore	-0.1895537
-3.170555	] such
-3.170555	] technology
-3.170555	] that
-2.091374	] the	0.1432457
-2.693434	] there	-0.01245837
-3.170555	] these
-3.170555	] they
-2.471585	] this	0.2147622
-2.693434	] to	0.3592844
-3.170555	] was
-3.170555	] will
-3.764905	] with
-2.545374	a "	-0.7674139
-3.636454	a (	0.517734
-4.27494	a )	-0.141587
-3.268478	a ,	-0.05558288
-2.307396	a .	2.382503
-4.707926	a 2009	-0.1298462
-4.113576	a </s>
-0.0639701	a <unk>	-0.5414112
-4.27494	a =	1.104103
-4.113576	a and
-4.113576	a by
-4.707926	a can
-3.113576	a cost	-0.1674162
-1.567033	a country	0.3770406
-2.608426	a design	-0.01050097
-4.27494	a development	-0.1055697
-2.812546	a generation	-0.5062631
-2.084192	a genetic	0.02136695
-2.715636	a government	-0.09366265
-2.04539	a high	-0.4755362
-1.95824	a more	-0.5626462
-1.677413	a new	0.2372315
-4.113576	a not
-1.870538	a nuclear	-0.8205324
-4.113576	a of
-4.113576	a on
-3.636454	a one	-0.003252849
-2.682212	a population	0.04589033
-2.999632	a power	-0.7003579
-2.076149	a problem	0.01470602
-2.608426	a process	0.0243839
-4.27494	a public	-0.2852284
-2.545374	a reactor	0.03091151
-2.582097	a research	-0.0815942
-2.858303	a safety	-0.3547471
-4.707926	a singapore
-4.113576	a so
-4.707926	a spending
-2.184157	a technology	-0.4070378
-4.113576	a to
-4.113576	a use
-2.751848	a vhtr	0.00948903
-3.271377	aged "
-3.271377	aged 's
-2.962109	aged (	0.5919559
-1.040928	aged ,	0.1077241
-0.7913699	aged .	1.708676
-3.271377	aged :
-2.794256	aged </s>
-0.6825451	aged <unk>	-0.04890376
-3.271377	aged a
-3.271377	aged aged
-3.271377	aged also
-3.271377	aged an
-1.396316	aged and	0.01234782
-1.538983	aged are	0.03865218
-1.715074	aged as	0.2222346
-3.432741	aged at	-0.3087791
-2.794256	aged be	0.4869051
-2.317134	aged but	-0.04882701
-2.368287	aged by	0.3879194
-1.669317	aged can	0.1745175
-3.432741	aged for	-0.1102754
-3.865727	aged from	-0.2262371
-3.271377	aged generation
-1.992623	aged has	-0.04403579
-1.949158	aged have	-0.03632158
-3.432741	aged if
-1.618164	aged in	0.03972554
-1.229984	aged is	0.002917528
-3.271377	aged it
-1.970347	aged may	0.553233
-3.865727	aged more	0.4082729
-2.962109	aged not	-0.1961514
-3.865727	aged of
-2.368287	aged on	-0.1159777
-3.271377	aged one
-2.962109	aged or
-1.873437	aged people	0.1520979
-1.590136	aged population	0.2712311
-3.432741	aged problem
-3.865727	aged problems
-3.271377	aged public
-0.9115414	aged should	-0.1041206
-1.992623	aged so	-0.4163119
-3.271377	aged spending
-2.962109	aged such	0.001092255
-2.794256	aged that
-1.500525	aged to	0.1465721
-2.794256	aged we	-0.2909616
-3.432741	aged when	0.04377081
-2.317134	aged which	0.06419869
-1.438868	aged will	0.4920644
-2.368287	aged with	-0.2812927
-1.928954	aged would	0.3801477
-3.854183	aging "
-2.356743	aging (	0.3187194
-3.259833	aging )
-1.647049	aging ,	0.023164
-1.460492	aging .	2.389342
-2.782712	aging :	0.342921
-0.860159	aging <unk>	-0.108609
-3.259833	aging [
-3.259833	aging a
-3.259833	aging also
-1.861893	aging and	-0.0235787
-1.981079	aging are	-0.2942745
-3.854183	aging as	-0.3002854
-3.259833	aging at
-2.782712	aging but	-0.1447404
-3.854183	aging can
-3.854183	aging country
-3.259833	aging elderly
-3.259833	aging from
-2.950565	aging has	-0.0672904
-3.259833	aging have
-2.145889	aging in	0.3138514
-1.680049	aging is	-0.04151237
-3.854183	aging may	0.1019788
-3.854183	aging more	0.4082729
-2.560863	aging of	-0.108978
-3.854183	aging on
-2.30559	aging people	-0.07508471
-0.4324634	aging population	-0.1322268
-1.453653	aging problem	-0.1590682
-2.113705	aging problems	0.04457331
-0.5234362	aging process	0.03966248
-3.259833	aging research
-3.259833	aging should
-3.259833	aging spending
-3.259833	aging such
-3.259833	aging the
-3.259833	aging to
-3.259833	aging which
-2.560863	aging will	0.003724158
-3.421197	aging with
-3.854183	aging would
-3.109241	all "
-3.109241	all (
-0.8539684	all ,	-0.08297944
-1.507181	all .	2.586623
-3.109241	all :
-3.703591	all </s>
-0.4550644	all <unk>	-0.1875176
-3.109241	all ]
-3.109241	all a
-3.109241	all and
-2.63212	all are	0.2804037
-2.63212	all as
-3.703591	all be	0.4917405
-3.109241	all been
-3.109241	all but
-2.63212	all by	0.09799919
-3.703591	all can
-3.109241	all country
-3.703591	all design
-2.410271	all elderly	-0.2043833
-3.109241	all energy
-3.703591	all for
-3.109241	all generation
-3.109241	all genetic
-2.206151	all have	0.1311034
-3.109241	all if
-1.485992	all in	-0.9119489
-2.63212	all is
-3.109241	all it
-3.109241	all its
-3.703591	all new	0.3141298
-3.109241	all not
-2.206151	all nuclear	-0.2782744
-1.410271	all of	-0.1025115
-3.703591	all or
-2.154999	all other	0.4840461
-2.154999	all people	-0.05495933
-3.109241	all problems
-2.799973	all public	-0.08606777
-3.703591	all reactors
-3.703591	all research	-0.1994763
-3.109241	all such
-3.703591	all technology	-0.1925523
-2.264143	all that	0.06337003
-0.6605346	all the	-0.2164185
-2.03006	all their	0.180285
-3.109241	all there
-1.071814	all these	-0.01232988
-2.63212	all they
-2.067848	all this	-0.01681465
-3.109241	all was
-3.109241	all which
-3.703591	all will
-4.015296	also "	-0.04675007
-1.175433	also ,	-0.04991215
-2.517855	also .	3.285593
-0.197969	also <unk>	-0.4416119
-1.608032	also a	-0.2125652
-3.420945	also aging
-4.015296	also all	-0.2017723
-2.216825	also an	-0.074166
-3.420945	also and
-2.943824	also are	0.414104
-4.015296	also as
-4.015296	also at
-1.096663	also be	-0.2185686
-1.989582	also been	-0.1220995
-3.58231	also by	-0.02693957
-2.341764	also can	0.1778474
-3.420945	also cost
-4.015296	also development
-3.420945	also energy
-2.420945	also for	0.3266301
-2.943824	also from
-1.989582	also has	0.1416706
-1.688552	also have	0.1428859
-1.808161	also help	-0.1547579
-3.420945	also high
-4.015296	also if	-0.1964585
-2.023005	also in	0.09770435
-3.58231	also is	-0.09256595
-2.466703	also it	0.01483859
-4.015296	also its	0.4150203
-2.216825	also many	0.02306247
-3.420945	also may
-2.420945	also more	-0.1194413
-3.420945	also new
-2.190496	also not	-0.06766331
-3.420945	also of
-2.575847	also on	0.4653268
-2.575847	also one	-0.5206102
-3.420945	also only
-2.379553	also other	0.4449158
-4.015296	also people	-0.1247831
-4.015296	also public	-0.1554543
-2.721975	also should	-0.1648947
-2.420945	also some	-0.06785443
-3.420945	also that
-1.496666	also the	-0.4119357
-3.111678	also their	0.481315
-4.015296	also there
-4.015296	also they
-3.420945	also this
-1.818885	also to	-0.1392021
-2.341764	also use	-0.435219
-3.420945	also vhtr
-3.420945	also we
-4.015296	also when
-3.58231	also will	0.1006342
-3.58231	also with	0.1038756
-2.422052	an "	-0.6158569
-0.04964251	an <unk>	-0.3972991
-2.463445	an a	0.4626469
-3.624809	an aged	-0.1162234
-1.119053	an aging	-1.197147
-3.463445	an all
-3.463445	an also
-3.463445	an country
-1.931966	an elderly	-0.133789
-2.048472	an energy	-0.6027356
-2.986324	an only	0.2704253
-3.463445	an population
-3.463445	an this
-2.971938	and "	-0.4110863
-4.455522	and (	0.6197494
-3.148029	and ,	-0.07652453
-0.1540896	and <unk>	0.00577569
-2.138821	and a	-0.3453156
-4.888507	and aged
-3.449059	and aging	0.0550319
-3.148029	and all	0.1179916
-1.971938	and also	0.1478907
-2.660689	and an	-0.2765604
-2.481244	and are	-0.04158342
-2.802796	and as	-0.2125909
-2.595187	and at	-0.396062
-2.603961	and be	-0.04449296
-4.294158	and been
-3.015404	and by	-0.3283812
-2.468083	and can	0.2473921
-2.561764	and cost	0.07065362
-3.98489	and country
-2.494817	and design	-0.2249188
-1.576487	and development	0.4140452
-2.971938	and elderly	-0.193949
-2.913946	and energy	-0.1114605
-2.802796	and for	0.271076
-3.090038	and from	-0.02963075
-3.449059	and generation	0.09796664
-2.569882	and genetic	0.7198426
-2.6314	and government	-0.4758461
-2.481244	and has	0.05017358
-2.413344	and have	-0.264819
-2.750089	and help	-0.05533427
-2.62206	and high	-0.1235518
-4.294158	and however
-2.846999	and if	0.2366734
-2.354638	and in	-0.06127208
-2.344768	and is	-0.07957804
-1.903222	and it	-0.24683
-2.430835	and its	0.1332495
-2.595187	and many	0.03968501
-2.789007	and may	-0.09269887
-1.903222	and more	-0.0301801
-3.252765	and new	-0.254977
-2.225972	and not	0.117807
-2.817036	and nuclear	0.131357
-3.118066	and of	0.1852719
-3.294158	and on	0.1275995
-2.913946	and one	-0.1596063
-2.951735	and only	-0.03602743
-4.294158	and or
-2.170306	and other	-0.3145371
-2.762679	and people	-0.1509734
-3.449059	and population	-0.07632254
-3.339915	and power	0.04254667
-3.817036	and problem	-0.1009414
-3.180214	and problems	-0.02708115
-4.888507	and process
-2.670908	and public	-0.2251336
-3.98489	and reactor	-0.02614772
-3.817036	and reactors
-2.523305	and research	0.1415146
-2.523305	and safety	-0.08399171
-2.62206	and should	0.1121196
-2.750089	and singapore	0.08077314
-2.487978	and so	-0.5318849
-2.692097	and some	-0.05437833
-3.98489	and spending	-0.0884924
-3.391068	and such	-0.09852181
-2.173584	and technology	-0.01679617
-2.508828	and that	0.03412813
-1.156803	and the	0.3042824
-2.252765	and their	-0.1747525
-2.424926	and there	0.2889802
-3.148029	and these	0.2924968
-2.183568	and they	0.8763008
-2.112314	and this	0.0075683
-2.157437	and to	-0.05065006
-2.831759	and use	0.2577297
-3.595187	and vhtr
-3.063709	and was	-0.1460834
-2.595187	and we	0.1089441
-3.180214	and when	0.110402
-3.449059	and which	0.06090562
-2.487978	and will	0.4539713
-2.762679	and with	0.06725937
-2.951735	and would	-0.1495645
-2.746375	are "	-0.2783935
-2.825556	are ,	0.07302982
-3.516288	are .	3.410532
-3.126586	are :	-0.1992171
-3.825556	are </s>
-0.1276295	are <unk>	-0.361168
-2.033164	are a	-0.2967963
-3.126586	are aged	-0.2319921
-4.419906	are aging
-2.394192	are all	-0.2568079
-1.52236	are also	-0.4696091
-2.871313	are an	0.4026656
-3.825556	are and
-2.871313	are as	-0.1504442
-2.307042	are at	0.1101545
-3.825556	are be
-3.825556	are by
-3.825556	are can
-3.825556	are design
-3.98692	are elderly	0.02399266
-3.516288	are for	-0.0925988
-3.98692	are from	0.1392465
-3.98692	are generation	-0.03424725
-4.419906	are genetic	1.299628
-3.126586	are high	0.5249568
-4.419906	are however	0.7978302
-3.825556	are if
-1.927929	are in	-0.1391316
-4.419906	are its
-1.679428	are many	-0.2893382
-1.621436	are more	-0.3768448
-4.419906	are new	0.3141298
-1.25853	are not	-0.6907343
-2.463828	are of	-0.282301
-2.679428	are on	0.2899468
-3.126586	are one	-0.147528
-2.394192	are only	-0.3973494
-2.281488	are other	-0.3164026
-2.980458	are people	-0.2706411
-3.825556	are population
-2.922466	are problems	0.002766311
-3.348435	are public	-0.02658938
-4.419906	are reactors
-3.825556	are research
-3.98692	are safety	0.03988111
-3.825556	are singapore
-2.746375	are so	-0.4875683
-1.927929	are some	-0.1161504
-3.516288	are spending	0.1602149
-3.516288	are such	0.4350399
-2.922466	are that	0.2059428
-1.467621	are the	-0.3236136
-3.348435	are their	0.782345
-3.516288	are there	-0.2134555
-3.348435	are these	0.3755276
-3.126586	are they	-0.2875514
-3.825556	are this
-2.192087	are to	-0.4016014
-3.98692	are we	-0.2462538
-3.825556	are which
-3.825556	are with
-2.342365	as "	-0.3766349
-3.873843	as %
-2.794662	as ,	-0.09140828
-3.564576	as :	0.1351448
-0.3410892	as <unk>	-0.420469
-0.9393451	as a	-0.5366777
-3.396722	as aging	-0.1787869
-2.7599	as all	-0.1556069
-3.873843	as also
-1.709491	as an	-0.5676953
-4.468194	as at	-0.179005
-3.873843	as be
-3.873843	as been
-4.468194	as by
-3.873843	as can
-2.970753	as cost	-0.2687639
-3.396722	as design	-0.01561505
-3.873843	as development
-3.564576	as elderly	-0.08793916
-4.035208	as energy	0.06187996
-2.166273	as for	-0.1663867
-3.564576	as generation	-0.2103385
-2.919601	as genetic	0.8176712
-2.919601	as government	-0.4001782
-3.873843	as has
-3.873843	as help
-2.426686	as high	0.1877177
-3.396722	as if
-2.282779	as in	0.1470796
-3.174874	as is	-0.1291455
-1.26212	as it	-0.4348924
-2.271784	as its	-0.2581128
-2.382482	as many	0.2456886
-2.368694	as more	0.2991331
-3.174874	as new	0.5241259
-2.551624	as not	-0.352031
-2.426686	as nuclear	0.1721814
-2.572814	as of	-0.3958056
-3.873843	as on
-2.110415	as one	-0.1470845
-4.468194	as only	0.1415603
-2.551624	as other	0.315152
-2.166273	as people	-0.5184567
-4.468194	as power
-2.794662	as public	0.220117
-4.468194	as reactor	-0.1579986
-4.035208	as research	-0.01815791
-3.174874	as safety	0.03698638
-2.329776	as singapore	0.09422958
-3.873843	as so
-2.873843	as some	0.2069146
-3.174874	as spending	-0.05822811
-1.869522	as such	-0.781345
-2.396722	as technology	-0.4273368
-3.174874	as that	-0.03725347
-0.8656694	as the	0.4859396
-2.125655	as their	-0.003124595
-1.924453	as there	-0.04577875
-2.368694	as these	0.2402551
-1.365988	as they	0.355273
-2.396722	as this	0.0733431
-1.551624	as to	-0.7906861
-2.7599	as vhtr	-0.009097055
-1.891572	as we	-0.445518
-3.564576	as when	-0.03814574
-3.873843	as will
-3.028745	as with	0.09429155
-3.397398	at .	3.586623
-3.830383	at :	0.214056
-0.3296981	at <unk>	-0.2891673
-3.236033	at =
-1.099313	at a	-0.5513117
-3.236033	at aged
-1.582821	at all	-0.3382702
-1.511757	at an	-0.5943219
-3.830383	at and	0.2159329
-2.758912	at as	0.08437353
-3.236033	at development
-3.236033	at energy
-3.236033	at for
-1.65625	at high	-0.5041547
-2.390935	at http	2.52246
-3.830383	at it	-0.3040898
-2.332943	at its	-0.01578385
-3.236033	at many
-3.830383	at more	0.4082729
-3.236033	at new
-3.397398	at nuclear
-2.758912	at one	-0.003252849
-3.236033	at only
-2.758912	at or	0.3376734
-2.537063	at other	0.3017414
-3.236033	at people
-3.236033	at power
-3.236033	at problems
-3.830383	at public	-0.1554543
-3.236033	at safety
-3.236033	at singapore
-3.397398	at some	0.1817878
-2.156852	at such	-0.1487829
-1.537063	at that	-1.350499
-0.5876731	at the	-0.7648523
-2.059942	at their	0.3103291
-3.236033	at them
-3.397398	at these	0.2505888
-1.623249	at this	-0.4995838
-3.236033	at to
-2.281791	at which	-0.004110157
-3.236033	at would
-2.840154	be "	-0.4614534
-3.255128	be ,	0.09054518
-2.999855	be .	3.23444
-0.07482976	be <unk>	-0.830932
-1.350953	be a	-0.6169176
-3.109	be aged	-0.3535901
-3.954098	be all
-4.115462	be also	-0.002203286
-2.115249	be an	-0.3336431
-4.548448	be and	0.2159329
-3.954098	be are
-2.539124	be as	-0.611175
-2.435584	be at	-0.002033949
-3.954098	be be
-3.954098	be by
-3.954098	be can
-3.476976	be cost	-0.2180471
-3.954098	be elderly
-3.954098	be energy
-3.64483	be for	0.1961147
-4.115462	be from
-3.051008	be high	-0.2849835
-3.954098	be if
-2.238094	be in	0.01792395
-2.59237	be it	-0.3602296
-4.548448	be its
-3.109	be many	0.1171035
-1.609705	be more	-0.3612235
-2.912705	be not	-0.03959736
-4.548448	be nuclear
-2.723649	be of	-0.1874149
-2.698825	be on	0.0004635453
-2.352038	be one	-0.381455
-4.548448	be only	0.1415603
-4.548448	be other
-4.548448	be people	-0.1247831
-3.954098	be power
-3.476976	be problems
-3.476976	be public	-0.007443279
-3.954098	be research
-4.548448	be retrieved
-4.548448	be singapore
-2.80797	be so	-0.3860105
-2.749978	be some	-0.1616292
-3.109	be spending	-0.06752662
-2.675344	be that	-0.002405405
-1.472655	be the	-0.6890476
-4.548448	be their	0.7871804
-3.476976	be there
-3.954098	be these
-3.954098	be this
-2.397795	be to	-0.2800874
-3.109	be use	-0.18556
-3.476976	be when	-0.098736
-3.476976	be with	0.05142216
-3.695065	been "
-3.100715	been .
-0.05578354	been <unk>	-0.4781512
-1.301375	been a	-0.2611873
-1.778496	been an	-0.1922653
-3.100715	been and
-3.100715	been as
-3.695065	been for
-2.255617	been in	0.3472694
-2.401745	been many	0.03627741
-2.623594	been more	0.4034375
-2.401745	been on	-0.2871097
-2.791448	been one	-0.4536633
-2.401745	been so	-0.1974955
-3.100715	been some
-2.623594	been spending	-0.1393592
-1.758292	been the	-0.6055929
-3.695065	been to	0.2304195
-3.100715	been use
-3.100715	been with
-1.728015	but ,	0.0946143
-0.6296602	but <unk>	-0.0193035
-2.029045	but a	0.3229091
-2.631105	but all
-0.7051061	but also	-0.2324456
-2.631105	but an	0.6528327
-2.029045	but are	0.05262494
-2.108227	but as	0.12507
-1.994283	but at	0.09636295
-2.205137	but by	-0.3279696
-2.263129	but can	0.03515352
-1.962099	but for	0.1323327
-3.108227	but from
-2.631105	but has
-3.269591	but have
-3.108227	but help
-3.702577	but however
-1.852954	but if	0.088209
-1.528443	but in	-0.3312546
-2.205137	but is	0.1790051
-1.108227	but it	-0.01000464
-2.631105	but its
-2.798959	but many	0.1840503
-2.631105	but may	-0.1303734
-2.153984	but more	0.1532704
-1.189149	but not	-0.4927419
-3.269591	but nuclear	-0.02588496
-3.702577	but of	-0.002761543
-2.263129	but on	0.2825014
-2.153984	but one	0.2051359
-1.932135	but only	0.2493772
-3.108227	but other
-2.631105	but people	0.004081845
-3.108227	but population
-3.702577	but public
-3.108227	but reactors
-2.263129	but should	-0.1480509
-3.108227	but singapore
-3.269591	but some	-0.04516637
-3.108227	but spending
-3.702577	but such
-3.108227	but technology
-2.263129	but that	0.00922735
-1.117001	but the	-0.2403973
-3.269591	but their	0.6574062
-1.728015	but there	0.1029561
-2.798959	but these	0.5600947
-1.495443	but they	-0.01987267
-1.829473	but this	0.1559306
-1.676863	but to	-0.2112921
-3.108227	but vhtr
-3.108227	but was
-1.728015	but we	0.2136124
-2.798959	but when	-0.09562524
-2.263129	but will	0.03187546
-1.877778	but with	-0.02714276
-3.108227	but would
-2.592954	by "	-0.3475101
-2.893984	by (	0.2958853
-3.592954	by )
-2.551561	by ,	0.1938967
-3.283686	by .	3.410532
-3.592954	by :
-0.2129233	by <unk>	-0.2206253
-1.55953	by a	-0.1954637
-2.747855	by aging	-0.254436
-2.551561	by all	-0.08305618
-2.16159	by an	0.528067
-3.754318	by and	0.3131129
-3.592954	by as
-4.187304	by at	-0.03470957
-4.187304	by can
-3.592954	by country
-2.689864	by design	-0.2000321
-3.592954	by energy
-4.187304	by for
-2.893984	by generation	-0.1311572
-2.747855	by genetic	0.9268157
-2.446826	by government	0.006545901
-3.592954	by high
-3.115832	by in
-2.747855	by it	-0.28622
-2.638711	by its	0.5372441
-2.115832	by many	0.06666648
-2.689864	by more	-0.02253127
-4.187304	by new
-2.446826	by not	-0.6299298
-1.87695	by nuclear	0.1781308
-2.893984	by one	0.01645003
-3.115832	by only	0.2704253
-2.446826	by other	0.2298352
-2.231226	by people	0.01790774
-3.592954	by population
-2.638711	by public	0.2888941
-3.592954	by reactors
-2.689864	by research	0.04845926
-4.187304	by safety	-0.03903541
-2.551561	by singapore	-0.2375806
-3.592954	by so
-2.291924	by some	-0.2585392
-2.689864	by spending	-0.24844
-3.115832	by such	-0.05522159
-3.754318	by technology	-0.01123395
-3.283686	by that	-0.2027264
-0.6226067	by the	-0.2093687
-1.893984	by their	-0.4395038
-2.592954	by them	-0.08843943
-2.446826	by these	0.1921179
-2.362505	by this	-0.05925259
-2.551561	by vhtr	0.03162165
-3.115832	by which
-3.372607	can "	-0.3526154
-3.681874	can %
-4.276224	can ,
-3.204753	can .	3.711562
-0.3241298	can <unk>	-0.4749454
-2.982904	can a	0.7031204
-3.681874	can aged
-4.276224	can all
-1.436361	can also	-0.7428274
-4.276224	can and	0.2159329
-3.681874	can at
-0.5095631	can be	-0.3738253
-3.681874	can been
-3.372607	can cost	-0.1424779
-3.372607	can design	-0.07509343
-1.982904	can have	-0.09684968
-1.443828	can help	-0.3218926
-3.843238	can in	-0.09744394
-3.681874	can it
-4.276224	can more
-1.036452	can not	-0.5708444
-3.681874	can nuclear
-3.681874	can of
-3.681874	can on
-1.801061	can only	-0.5545444
-3.681874	can process
-2.602693	can the	0.1432457
-3.681874	can their
-3.204753	can they	-0.06570266
-4.276224	can this	0.06619442
-3.843238	can to	0.4117378
-2.048406	can use	-0.2883442
-2.602693	can we	-0.723375
-3.133858	cost "
-2.28876	cost (	0.5250092
-3.133858	cost )
-1.151587	cost ,	0.008495092
-1.023268	cost .	2.078093
-3.728208	cost </s>
-0.7041059	cost <unk>	-0.03113592
-2.179615	cost a	0.29955
-3.133858	cost all
-2.656737	cost also	0.2564358
-3.133858	cost an
-1.07316	cost and	-0.2233074
-2.656737	cost are	0.414104
-2.133858	cost as	-0.3024096
-2.656737	cost at	0.09415537
-3.728208	cost but
-3.295223	cost by	-0.02693957
-2.230768	cost can	-0.2036634
-3.133858	cost cost
-1.565656	cost for	0.2539218
-2.824591	cost from	0.2063862
-2.824591	cost has	0.2048313
-2.019915	cost in	-0.005903006
-1.377983	cost is	-0.3167214
-3.133858	cost it
-2.434888	cost may	-0.07940197
-3.295223	cost more	0.5054529
-0.4701572	cost of	-0.2896085
-2.230768	cost on	0.4073349
-3.728208	cost or	-0.2986281
-3.133858	cost people
-3.133858	cost problem
-3.133858	cost safety
-2.230768	cost should	0.02823901
-3.728208	cost so	-0.1404428
-3.133858	cost spending
-3.133858	cost technology
-2.824591	cost that	0.05591662
-2.824591	cost the	0.3501872
-3.133858	cost them
-3.133858	cost they
-1.702494	cost to	0.2866434
-2.656737	cost was	0.255101
-3.295223	cost when	-0.1304209
-2.824591	cost which	0.1612704
-1.903409	cost will	0.1405038
-3.728208	cost with
-2.230768	cost would	0.3665724
-3.389765	country "	-0.09543673
-0.5016732	country 's	-0.7745722
-3.82275	country (
-3.2284	country )
-1.190974	country ,	0.1285072
-0.8002656	country .	1.760548
-3.2284	country :
-0.910337	country <unk>	0.07885242
-2.751279	country a	0.5497171
-3.2284	country aging
-3.2284	country all
-3.389765	country also	-0.002203286
-1.389551	country and	0.1856068
-2.187008	country are	0.289642
-1.797037	country as	-0.08191186
-3.389765	country at	-0.08182499
-2.32531	country but	0.03628931
-2.919133	country by	-0.2030308
-1.866673	country can	0.2325628
-3.2284	country country
-1.848189	country development	-0.210595
-3.2284	country energy
-2.274158	country for	-0.01004702
-2.52943	country from	-0.03252059
-1.737039	country has	0.1509659
-3.389765	country have	0.1697162
-3.2284	country however
-1.672098	country in	-0.01799142
-1.472525	country is	-0.0773086
-2.32531	country may	-0.1018712
-2.52943	country more	0.1815888
-2.751279	country not	-0.27986
-3.82275	country on
-3.2284	country one
-3.389765	country or	0.5238271
-1.885978	country should	0.3784741
-3.82275	country so	-0.1404428
-3.2284	country some
-3.82275	country spending
-2.383302	country such	-0.3131481
-2.187008	country that	-0.09883502
-3.82275	country the	0.2645439
-3.2284	country there
-1.402326	country to	-0.1949546
-3.82275	country when
-1.997951	country which	0.1616821
-1.615617	country will	0.2594549
-1.737039	country with	0.1161579
-2.187008	country would	0.2723984
-3.418803	design "	0.1345683
-3.257439	design 's
-2.178257	design (	0.1426281
-1.382377	design ,	0.102806
-1.224015	design .	2.155259
-3.257439	design :
-3.418803	design </s>
-0.5015637	design <unk>	-0.02793509
-1.877227	design a	0.02187908
-3.257439	design all
-2.558469	design also	-0.09911326
-2.780317	design an	0.6528327
-1.333159	design and	-0.1041717
-3.418803	design are
-2.303196	design as	0.0470617
-3.851789	design at
-3.851789	design but
-2.412341	design by	0.4459113
-2.354349	design can	0.02504286
-3.257439	design cost
-3.257439	design design
-3.257439	design development
-1.842465	design for	-0.05606443
-2.780317	design from
-2.303196	design has	0.1568767
-1.826075	design in	0.02593529
-1.418589	design is	0.2666575
-3.418803	design may	0.2434369
-3.257439	design more
-3.851789	design new	0.3141298
-1.298397	design of	-0.1272776
-3.257439	design on
-3.257439	design only
-2.354349	design or	0.2869566
-2.02699	design problem	-0.1008029
-2.216046	design problems	-0.05509169
-0.5490177	design process	0.3093258
-3.851789	design reactors
-2.780317	design safety
-2.558469	design should	-0.304169
-3.257439	design so
-3.257439	design such
-3.257439	design technology
-2.257439	design that	-0.07801954
-2.412341	design the	0.2669837
-2.780317	design their	0.782345
-3.851789	design this
-2.081347	design to	-0.09813398
-3.257439	design vhtr
-2.02699	design was	0.202215
-3.257439	design we
-2.303196	design which	-0.0632028
-2.303196	design will	0.4454873
-2.354349	design with	-0.02264972
-2.948171	design would	0.09414348
-2.620968	development "	-0.1425027
-1.666726	development (	-0.4314032
-3.481303	development )	-0.141587
-1.052767	development ,	-0.1757998
-0.7871841	development .	1.655929
-3.481303	development :	0.311236
-0.7935992	development <unk>	0.06508327
-3.319938	development [
-3.914289	development also	0.1275708
-1.333167	development and	-0.1833961
-2.205995	development are	0.2170914
-1.977516	development as	0.007029265
-3.481303	development at	-0.08182499
-3.010671	development but	-0.1440713
-2.620968	development by	0.1031046
-2.47484	development can	-0.09223159
-2.620968	development cost	-0.1285118
-2.064666	development for	0.1528128
-1.939727	development has	0.06807858
-2.205995	development have	-0.121648
-1.307101	development in	0.3717368
-1.587545	development is	0.4194335
-3.481303	development may	0.1991588
-3.914289	development more	0.4082729
-3.319938	development not
-0.5565104	development of	-0.3110561
-1.939727	development on	0.2275109
-2.205995	development or	-0.2991487
-2.240757	development process	0.1110469
-3.914289	development research	-0.1994763
-2.319938	development should	-0.2299471
-3.010671	development so	0.02812889
-3.914289	development spending
-1.87278	development such	-0.9152081
-1.958211	development that	-0.1431032
-3.319938	development their
-3.914289	development there	-0.295239
-1.904965	development to	-0.2266709
-3.914289	development was	0.2599364
-3.914289	development when
-2.205995	development which	-0.03802803
-1.888575	development will	0.09541231
-2.842817	development with
-2.240757	development would	-0.263144
-3.616514	elderly "	0.05042994
-3.145882	elderly 's	0.3261445
-2.13293	elderly (	0.2461457
-4.0495	elderly )
-1.156296	elderly ,	0.1332168
-0.8298371	elderly .	1.56337
-3.455149	elderly :
-2.55206	elderly </s>
-0.5308703	elderly <unk>	-0.06609267
-3.455149	elderly ]
-2.55206	elderly a	0.1237484
-2.610051	elderly aged	-0.3037645
-4.0495	elderly aging
-4.0495	elderly also	0.1275708
-4.0495	elderly an	0.6576681
-1.482022	elderly and	0.08645469
-1.318429	elderly are	0.06682855
-1.773908	elderly as	0.1683111
-3.145882	elderly at	-0.1136208
-2.55206	elderly but	0.05065259
-2.040176	elderly by	-0.6128988
-1.500907	elderly can	0.5153335
-3.455149	elderly elderly
-2.500907	elderly for	-0.1600657
-2.224701	elderly from	-0.2174439
-2.199877	elderly has	0.102962
-1.730874	elderly have	0.2050003
-3.145882	elderly if	0.02167642
-1.375968	elderly in	-0.02214277
-1.6163	elderly is	-0.053451
-3.455149	elderly many
-2.154119	elderly may	0.6892492
-3.616514	elderly more	0.5054529
-3.455149	elderly new
-2.75618	elderly not	0.2060112
-2.978028	elderly of	-0.06257926
-3.145882	elderly on	0.02796942
-3.455149	elderly one
-4.0495	elderly only
-2.375968	elderly or	0.1108653
-1.55206	elderly people	0.1380451
-1.875366	elderly population	0.1680593
-3.455149	elderly problems
-1.722756	elderly should	0.4596688
-2.75618	elderly so	-0.1401728
-3.145882	elderly spending
-4.0495	elderly such	0.05966407
-2.309021	elderly that	-0.01387037
-3.455149	elderly their
-3.455149	elderly these
-1.202296	elderly to	-0.09353173
-2.75618	elderly when	-0.0693097
-4.0495	elderly which
-1.477426	elderly will	0.3240091
-1.886948	elderly with	-0.04822642
-1.75618	elderly would	0.5969196
-2.713826	energy "
-2.333615	energy 's	0.02511454
-2.051069	energy (	0.259829
-2.713826	energy )
-1.205971	energy ,	0.02258259
-0.9766338	energy .	1.75252
-2.208676	energy :	0.04767358
-4.007146	energy </s>
-0.3303701	energy <unk>	-0.03451788
-2.935675	energy a	0.5497171
-4.007146	energy all	-0.1212928
-2.713826	energy also	-0.09911326
-1.493718	energy and	0.05710131
-2.208676	energy are	-0.07134306
-1.981433	energy as	0.4139716
-2.935675	energy at	0.09415537
-3.412796	energy be
-2.935675	energy but
-2.333615	energy by	0.06944892
-1.950398	energy can	0.1720875
-3.412796	energy cost
-3.412796	energy design
-2.935675	energy development
-1.856494	energy for	-0.2778417
-2.014856	energy from	-0.1331157
-2.090577	energy generation	0.2763512
-1.868728	energy has	0.1404611
-2.567698	energy have	0.2504521
-1.713826	energy in	-0.1520932
-1.129495	energy is	0.1065246
-3.574161	energy it	-0.1048209
-2.567698	energy may	0.4629617
-2.567698	energy more	0.03546071
-2.567698	energy nuclear	-0.1713726
-2.182348	energy of	-0.04835159
-2.935675	energy on	0.06843935
-3.412796	energy only
-3.103529	energy or	0.5222405
-4.007146	energy power
-2.458554	energy problem	-0.03983231
-2.509706	energy problems	-0.09634249
-4.007146	energy reactor
-1.800013	energy research	-0.6931969
-3.412796	energy retrieved
-3.412796	energy safety
-2.371404	energy should	-0.2592793
-4.007146	energy so
-2.266668	energy such	-0.6141781
-4.007146	energy technology
-2.051069	energy that	-0.2524503
-3.574161	energy the	0.3617239
-3.412796	energy they
-1.713826	energy to	0.05204231
-2.935675	energy use
-2.371404	energy was	-0.08221632
-2.935675	energy we	0.01238528
-3.574161	energy when	-0.04036756
-1.981433	energy which	0.08066711
-1.935675	energy will	0.07826668
-2.371404	energy with	0.06309596
-2.266668	energy would	0.06884557
-3.231673	for "	-0.04648006
-3.453522	for (	0.517734
-3.930644	for )
-3.621376	for ,	0.1700911
-2.784515	for .	3.042555
-4.524993	for 2009
-0.3069807	for <unk>	-0.3292071
-3.930644	for [
-1.387818	for a	-0.1088043
-4.524993	for aged	-0.2077321
-2.889251	for aging	0.3103634
-2.167215	for all	-0.1843287
-2.067321	for an	0.4713598
-3.231673	for and	-0.01075119
-2.976401	for as	-0.2994939
-3.453522	for at	-0.03954494
-4.092008	for by	0.1173803
-3.930644	for cost
-4.092008	for country
-2.851462	for design	0.01406367
-2.8167	for development	0.1108499
-2.31786	for elderly	-0.08648416
-2.152492	for energy	0.1411105
-3.930644	for for
-2.061412	for generation	-0.7330372
-2.386575	for genetic	0.2278457
-3.231673	for government	0.06482039
-2.754552	for help	-0.07209472
-3.027554	for high	-0.05441517
-3.453522	for in
-4.524993	for is
-2.223073	for it	-0.04130128
-2.11773	for its	-0.06278366
-2.267886	for many	-0.2193561
-2.159791	for more	-0.2437058
-2.439282	for new	0.0783084
-2.976401	for not	-0.1339587
-2.055582	for nuclear	0.1724352
-2.675371	for one	-0.06287923
-3.453522	for only	0.1367249
-3.930644	for or
-2.206367	for other	-0.1500548
-2.249402	for people	-0.2132606
-4.524993	for population
-3.027554	for power	-0.1142525
-3.930644	for problems
-2.399164	for public	-0.1333631
-4.524993	for reactor
-4.524993	for reactors
-2.267886	for research	0.05100107
-2.700195	for safety	0.2862414
-3.930644	for should
-2.425493	for singapore	-0.04278949
-4.092008	for so	-0.1992819
-2.532703	for some	0.2386629
-4.092008	for spending	0.1239036
-2.65189	for such	-0.3496084
-2.976401	for technology	-0.1889118
-2.700195	for that	-0.2923653
-0.6055385	for the	0.1635814
-1.409505	for their	-0.01055801
-1.654182	for them	-0.2805575
-3.453522	for there
-2.483485	for these	-0.04746181
-3.085545	for they	0.1398303
-2.006364	for this	-0.05864054
-3.930644	for to
-2.851462	for use	0.1838626
-2.35086	for vhtr	0.08221808
-2.976401	for which	-0.06009744
-3.930644	for with
-2.508036	from "	-0.3086333
-3.684127	from (
-2.839029	from ,	-0.4544781
-2.508036	from .	3.012592
-1.658821	from :	-0.4373157
-2.071343	from </s>
-0.3275275	from <unk>	-0.3157852
-3.684127	from =
-1.541112	from a	-0.4129547
-3.684127	from aged
-2.985157	from aging
-2.428854	from all	-0.1586187
-2.252763	from an	0.5280669
-3.845491	from and	0.3972513
-3.684127	from are
-3.684127	from country
-3.845491	from design	-0.04729998
-3.845491	from energy	0.06187996
-2.985157	from generation	0.09579688
-2.480007	from genetic	0.5677937
-2.604946	from government	-0.04854563
-3.845491	from high	0.2466148
-0.7506396	from http	0.4340713
-3.684127	from in
-3.684127	from is
-2.165613	from it	-0.4292192
-2.405373	from its	-0.01619548
-3.374859	from many	-0.04290384
-3.207006	from more	0.4034375
-3.845491	from new	0.4113098
-1.993931	from nuclear	0.2561514
-3.684127	from on
-2.361908	from one	-0.4019059
-2.093062	from other	-0.1477745
-2.839029	from people	0.07591447
-3.207006	from power	-0.06353575
-3.684127	from problem
-3.684127	from problems
-2.729884	from public	0.3450557
-3.684127	from reactor
-3.684127	from reactors
-2.537999	from research	0.2690845
-4.278477	from safety
-2.684127	from singapore	-0.3556069
-2.781037	from some	0.1394008
-3.207006	from spending	0.0218882
-2.839029	from such	-0.1816468
-4.278477	from technology
-2.480007	from that	-0.31014
-0.7614015	from the	-0.4474638
-1.832869	from their	-0.106195
-2.508036	from them	-0.1213124
-4.278477	from there
-2.221729	from these	-0.124152
-2.002886	from this	-0.3052769
-2.985157	from vhtr
-3.845491	from which	-0.1247591
-3.684127	from would
-2.824271	generation "	-0.08061866
-2.230449	generation 's	0.052908
-2.434569	generation (	0.2958853
-1.577236	generation ,	0.1708854
-1.165056	generation .	2.2202
-3.727889	generation </s>
-0.2176117	generation <unk>	-0.6152856
-2.133539	generation =	0.7061631
-3.133539	generation also
-1.854785	generation and	0.3114857
-2.656418	generation are	0.414104
-3.294903	generation as	0.136827
-3.133539	generation at
-3.133539	generation be
-3.294903	generation by	0.2841529
-2.230449	generation can	0.4086275
-2.434569	generation cost	-0.1752534
-3.133539	generation elderly
-3.133539	generation energy
-2.656418	generation for
-3.294903	generation from	0.06438941
-2.092146	generation has	0.0862636
-2.434569	generation have	-0.01133218
-2.054358	generation in	0.2681653
-1.854785	generation is	-0.08556759
-3.727889	generation may	0.1019788
-1.628389	generation nuclear	0.6974648
-0.9662216	generation of	-0.314485
-3.727889	generation on
-3.133539	generation or
-3.294903	generation power	0.03847963
-3.133539	generation process
-2.824271	generation reactor	0.02649158
-1.854785	generation reactors	0.2692707
-3.133539	generation research
-2.656418	generation should	-0.03629972
-3.133539	generation technology
-3.294903	generation that	-0.1132884
-1.771811	generation to	-0.03104335
-3.727889	generation when
-2.656418	generation which	0.06202161
-1.987411	generation will	0.1260073
-3.727889	generation with	-0.07744278
-2.288441	generation would	0.1235344
-3.231725	genetic ,
-3.826074	genetic .	3.716397
-3.231725	genetic </s>
-0.01083213	genetic <unk>	-0.5580929
-2.754603	genetic and	0.2110975
-3.231725	genetic can
-2.532754	genetic problem	-0.01981022
-2.328635	genetic problems	-0.1408621
-1.976452	genetic research	0.06707025
-3.826074	genetic technology
-3.231725	genetic to
-3.964308	government "
-1.361357	government 's	-0.6289748
-3.06069	government (	0.216704
-1.52486	government ,	0.1635484
-1.188114	government .	2.006839
-0.5030798	government <unk>	-0.001449227
-3.369958	government a
-2.091204	government also	-0.182717
-3.369958	government an
-1.512625	government and	0.111878
-2.670988	government are	0.4338069
-2.256014	government as	0.2735999
-3.369958	government be
-3.531322	government but	-0.2100715
-3.531322	government by	0.5176935
-1.3055	government can	0.7754603
-3.369958	government development
-1.954984	government for	-0.3132141
-3.964308	government from	-0.0327906
-3.369958	government government
-1.015849	government has	-0.03891063
-2.369958	government have	-0.1211535
-3.964308	government help	-0.2961424
-3.369958	government if
-2.027535	government in	-0.2992709
-1.378731	government is	-0.3600254
-2.22383	government may	0.0102177
-3.369958	government more
-3.531322	government not	-0.09370622
-1.972018	government of	-0.3947288
-3.531322	government on	0.1208928
-3.964308	government only	0.1415603
-2.466868	government or	0.4501348
-3.369958	government population
-3.369958	government public
-3.369958	government research
-0.9668371	government should	0.06245935
-1.599106	government spending	-0.04699147
-3.369958	government technology
-3.369958	government that
-1.152474	government to	-0.6585824
-3.964308	government use
-2.892836	government was	0.255101
-3.369958	government we
-2.892836	government when	-0.08901258
-3.531322	government which	0.03033668
-1.500726	government will	0.4057493
-2.892836	government with	0.05142216
-2.047738	government would	-0.2736833
-3.634121	has ,	-0.1075992
-3.163489	has .	3.410532
-0.2824247	has <unk>	-0.4355336
-1.138303	has a	-0.4125487
-1.490485	has also	-0.8421059
-1.941278	has an	-0.401525
-4.067106	has at	-0.03470957
-3.472756	has be
-0.7567531	has been	0.02046132
-3.472756	has cost
-3.472756	has for
-2.627658	has genetic	1.15377
-3.472756	has help
-2.171726	has high	-0.2165727
-3.472756	has however
-2.627658	has in	0.07239798
-4.067106	has is	0.09753856
-4.067106	has it
-1.904555	has its	-0.6808956
-2.217484	has many	-0.2649028
-2.171726	has more	-0.4204713
-1.881692	has not	-0.5579069
-3.472756	has nuclear
-3.472756	has of
-2.569666	has on	0.3526461
-2.393575	has one	-0.09400362
-2.627658	has only	0.2543453
-4.067106	has or	0.3425087
-3.472756	has other
-3.472756	has people
-4.067106	has safety	-0.03903541
-3.634121	has so	-0.1992819
-3.163489	has some	0.1539943
-3.472756	has such
-1.447451	has the	-0.7602866
-2.995635	has their	0.782345
-3.472756	has them
-3.472756	has these
-4.067106	has this
-1.118648	has to	-1.003215
-3.626032	have "
-2.512089	have ,	0.2308604
-2.395583	have .	2.958234
-0.3048482	have <unk>	-0.5177343
-1.104894	have a	-0.4502613
-2.722942	have all	0.1099353
-1.992564	have also	-0.4933031
-1.85518	have an	-0.265646
-3.787397	have and	0.08615878
-3.626032	have are
-3.626032	have as
-2.67179	have at	-0.5166662
-0.9747542	have been	0.2171959
-3.626032	have but
-3.626032	have by
-3.626032	have cost
-3.626032	have design
-3.626032	have energy
-3.148911	have for
-3.148911	have genetic	1.294792
-3.626032	have have
-3.787397	have help	-0.01365706
-2.421912	have high	-0.128491
-2.479904	have in	0.2012185
-3.626032	have is
-3.787397	have it
-2.626032	have its	-0.1126938
-2.512089	have many	-0.1517419
-1.706954	have more	-0.5322919
-3.626032	have new
-2.023972	have not	-0.6488293
-4.220382	have nuclear
-3.316765	have on	0.008960962
-2.67179	have one	0.03251301
-3.316765	have only	0.06264907
-3.626032	have or
-4.220382	have other	0.5284255
-3.626032	have problem
-2.722942	have problems	-0.2449975
-3.626032	have so
-2.347279	have some	-0.7218599
-2.722942	have such	-0.2396387
-3.148911	have that	-0.1286505
-1.06973	have the	-0.9463746
-1.935836	have their	-0.2037758
-4.220382	have these
-3.626032	have they
-2.546851	have this	-0.05510378
-0.9236017	have to	-1.124444
-3.626032	have we
-3.148911	have when	-0.08901258
-3.084219	help "
-3.678569	help (	0.5225694
-2.774951	help ,	0.01136391
-1.540151	help .	2.644615
-0.5136757	help <unk>	-0.330492
-2.774951	help a	0.6454691
-2.607097	help all
-2.181129	help and	0.01208293
-2.607097	help as
-3.084219	help but
-3.245583	help by	0.2000146
-1.970275	help elderly	-0.05043645
-2.181129	help for	0.3753707
-1.527916	help from	-0.2098204
-3.678569	help if
-1.351825	help in	-0.298209
-2.239121	help is	-0.2752736
-3.084219	help it
-3.678569	help its
-3.678569	help many
-3.084219	help may
-3.678569	help more
-3.084219	help not
-1.239121	help of	-0.002943397
-3.084219	help on
-2.607097	help one	-0.1744198
-3.084219	help only
-2.181129	help people	-0.2118577
-2.385249	help should	0.07108295
-3.678569	help singapore
-3.245583	help such	0.4398753
-3.678569	help that
-0.8362454	help the	-0.2955861
-2.774951	help their	0.481315
-1.298889	help them	-0.3898043
-2.084219	help these	0.3828156
-3.245583	help they	0.03631271
-3.678569	help this	0.06619442
-0.6370606	help to	-0.8946993
-3.678569	help when	-0.2178775
-3.084219	help will
-2.385249	help with	-0.01806398
-3.095169	high %
-3.256534	high (	0.3927952
-3.095169	high )
-1.56369	high ,	0.05898184
-1.526968	high .	2.620481
-0.1004124	high <unk>	-0.4184992
-3.689519	high a	0.5545525
-2.095169	high and	0.4444894
-1.839897	high as	-0.2184348
-3.689519	high at	-0.03470957
-3.095169	high but
-3.095169	high by
-1.17089	high cost	0.1290992
-3.689519	high development
-3.689519	high elderly	-0.1573257
-2.053777	high energy	-0.6044068
-2.618048	high for	0.1151774
-3.095169	high government
-3.689519	high in
-3.095169	high may
-2.618048	high not	0.03907692
-3.095169	high nuclear
-3.095169	high of
-3.095169	high or
-2.618048	high power	-0.06353575
-3.689519	high public
-3.095169	high research
-2.250071	high safety	0.111589
-3.689519	high spending
-3.095169	high such
-2.053777	high technology	-0.113805
-2.618048	high that
-3.689519	high the	0.2645439
-3.689519	high to	0.2304195
-0.03537313	however ,	-0.4960943
-1.786219	however <unk>	0.04630569
-3.885719	however a	0.5545525
-3.291369	however aging
-3.885719	however an	0.6576681
-3.885719	however as
-3.291369	however cost
-2.814248	however for	-0.01852292
-3.291369	however government
-2.087249	however in	0.2915244
-2.814248	however is
-2.115278	however it	-0.1312767
-3.291369	however many
-3.885719	however may	0.1019788
-3.885719	however more	0.4082729
-3.885719	however not	-0.3057885
-3.291369	however on
-3.885719	however one	-0.1321178
-3.291369	however public
-3.291369	however research
-3.291369	however safety
-2.592399	however some	0.2331756
-2.036096	however the	0.1159105
-2.592399	however there	0.057065
-3.885719	however these	0.3803629
-2.814248	however they	-0.06570266
-2.145241	however this	0.06296563
-3.885719	however to	-0.2994289
-3.885719	however we
-3.291369	however when
-2.291369	however with	0.1591774
-4.0995	http %	0.09643689
-0.0002715189	http :	-2.818537
-0.6420445	if <unk>	-0.2899665
-3.764024	if [	1.71558
-1.3436	if a	-0.03954446
-2.169674	if all	-0.09782508
-1.771734	if an	0.2109522
-3.169674	if and
-3.169674	if at
-3.169674	if elderly
-3.169674	if for
-3.169674	if generation
-3.331039	if genetic	1.169854
-2.470704	if government	-0.2975058
-3.764024	if high
-3.169674	if in
-3.169674	if is
-1.356761	if it	-0.3022582
-2.470704	if its	0.5635881
-3.169674	if may
-2.324576	if more	0.2624148
-1.57861	if not	-0.3594417
-2.169674	if nuclear	0.1190233
-1.738311	if one	0.074783
-2.470704	if only	0.2870832
-3.169674	if other
-2.023546	if people	-0.162352
-3.169674	if problems
-1.847455	if public	-0.8525413
-3.169674	if research
-3.169674	if safety
-2.692553	if singapore	-0.1943891
-3.169674	if so
-2.692553	if some	0.2134727
-3.764024	if spending
-2.169674	if such	-0.2262035
-3.764024	if technology	-0.1925523
-3.331039	if that	-0.02663516
-0.5654484	if the	-0.2860647
-2.128282	if their	0.5933255
-1.288861	if there	-0.190992
-1.965554	if these	-0.124517
-1.002357	if they	-0.5032386
-1.754701	if this	0.01913658
-3.169674	if vhtr
-1.101489	if we	-0.471289
-3.0342	in "	-0.160775
-4.210292	in (
-3.168899	in ,	0.1718984
-2.597508	in .	2.575899
-2.795318	in 2009	-0.06115347
-3.733171	in :
-4.210292	in </s>
-0.2642819	in <unk>	0.1016926
-1.398047	in a	-0.155934
-4.210292	in aged
-3.064164	in aging	0.5175933
-2.384217	in all	-0.5493934
-2.083187	in an	0.1901289
-3.006172	in and	-0.289519
-4.210292	in are
-3.733171	in as	0.08437353
-4.210292	in at
-3.901024	in by	0.4356175
-3.307202	in cost	0.2062999
-2.410951	in design	-0.0728144
-3.256049	in development	0.06798327
-3.256049	in elderly	-0.1536852
-3.13111	in energy	-0.262521
-4.804642	in for
-3.064164	in generation	-0.3513612
-2.795318	in genetic	0.9010085
-3.168899	in government	-0.1420603
-2.909262	in high	-0.225401
-4.804642	in http	2.895273
-4.210292	in in
-4.804642	in is
-2.812352	in it	-0.1950123
-2.410951	in its	0.02747577
-2.051929	in many	-0.6840647
-3.365194	in may	-0.04387924
-2.733171	in more	-0.3696083
-2.909262	in new	-0.1393623
-4.804642	in not	0.04391229
-2.280873	in nuclear	0.08908808
-4.804642	in of	-0.002761543
-3.733171	in on
-2.71893	in one	-0.03018326
-3.733171	in only
-1.972246	in other	-0.4250233
-3.006172	in people	-0.09826007
-3.307202	in population	0.001863435
-3.13111	in power	-0.09208602
-4.210292	in problem
-4.210292	in problems
-4.210292	in process
-2.547534	in public	-0.2646422
-3.733171	in reactor
-4.804642	in reactors
-2.64209	in research	-0.02804822
-3.096349	in safety	0.2479666
-4.210292	in should
-1.498484	in singapore	-0.09789771
-4.804642	in so	-0.1404428
-2.280873	in some	-0.7372525
-3.307202	in spending	0.1983814
-2.557079	in such	-0.7960038
-2.365194	in technology	-0.07934999
-2.955019	in that	-0.6798477
-0.6289111	in the	-0.1372796
-1.741944	in their	-0.2118703
-2.979843	in them	-0.08934909
-2.494288	in these	-0.4881026
-1.580882	in this	-1.112236
-2.812352	in to	0.2371377
-3.064164	in use	-0.243318
-2.630508	in vhtr	0.0071913
-4.210292	in when
-2.34106	in which	-0.3471233
-4.210292	in will
-4.210292	in with
-2.675812	is "	-0.3724152
-2.602026	is ,	-0.01590919
-3.065783	is .	3.14729
-4.26854	is :
-0.2163081	is <unk>	-0.534404
-1.091816	is a	-0.2566779
-4.107176	is aged
-3.107176	is aging	-0.2544386
-3.408206	is all	-0.1458588
-1.604749	is also	-0.6527203
-1.675812	is an	-0.6554402
-4.26854	is and	0.3131129
-2.931085	is as	-0.3722929
-2.675812	is at	0.1363531
-4.701526	is been
-2.828423	is by	-0.4766791
-4.26854	is can	0.1515682
-3.797909	is cost	-0.292123
-3.152934	is for	0.09726405
-3.065783	is from	0.06452408
-4.107176	is generation
-2.993233	is genetic	0.6579704
-3.630055	is government	-0.150011
-4.107176	is help
-2.538974	is high	0.3365637
-4.107176	is however
-4.701526	is if
-2.321846	is in	-0.03854549
-4.107176	is is
-2.615814	is it	-0.4345301
-2.784957	is its	0.2856517
-4.107176	is many
-1.88446	is more	-0.2297735
-1.254696	is not	-0.836289
-2.876727	is nuclear	0.09582281
-2.425935	is of	-0.2656478
-2.806146	is on	0.1820248
-1.78703	is one	-0.6124803
-2.102855	is only	-0.3050717
-4.107176	is other
-3.408206	is people
-3.630055	is power
-4.107176	is problem
-4.701526	is public	-0.1554543
-3.797909	is research	-0.1300897
-3.262078	is safety	0.1368632
-3.262078	is singapore	-0.01787958
-2.473708	is so	-0.3186921
-4.26854	is some	-0.04516637
-3.630055	is spending
-3.262078	is such	-0.2770856
-4.701526	is technology
-1.688875	is that	-0.2181306
-1.111541	is the	-0.3567926
-2.876727	is their	0.2559715
-3.152934	is there	-0.1904641
-4.701526	is these	0.3803629
-4.701526	is they
-3.152934	is this	0.06983495
-1.544883	is to	-0.7488934
-4.107176	is vhtr
-4.701526	is we	-0.1164797
-3.262078	is when	0.1002457
-3.630055	is which	0.06202161
-4.107176	is will
-4.701526	is with	-0.07744278
-2.96895	it "	-0.1926081
-2.081654	it 's	-0.03338349
-2.609928	it (	0.1659872
-3.814048	it )
-1.962789	it ,	0.1474811
-1.342756	it .	1.717391
-0.588997	it <unk>	-0.2570375
-2.491828	it a	-0.2953809
-3.50478	it all	-0.09792358
-1.859805	it also	-0.8100649
-3.50478	it an	0.3518028
-2.36689	it and	0.3451791
-2.734866	it are	0.1639409
-2.295534	it as	0.1540014
-3.115078	it at	-0.08735109
-2.96895	it be	0.1189283
-3.336926	it but	-0.06386714
-3.115078	it by	-0.1238495
-1.29291	it can	-0.009021997
-3.814048	it cost
-3.814048	it design
-2.513018	it for	0.1954424
-2.772655	it from	0.1422274
-1.456113	it has	0.3431306
-2.96895	it have	-0.009162426
-3.336926	it help
-2.336926	it in	0.1488758
-0.4667177	it is	-0.357131
-3.814048	it many
-1.65268	it may	0.2275165
-2.35165	it more	-0.1845447
-3.814048	it new
-2.160835	it not	-0.5287339
-3.814048	it of
-2.700104	it on	0.4637527
-3.336926	it one	-0.1526334
-2.814048	it only	-0.1591997
-3.50478	it or	0.324478
-1.731262	it should	0.2753453
-2.96895	it so	0.03535527
-3.814048	it some
-3.814048	it such
-4.408398	it that
-2.96895	it the	0.1186858
-3.814048	it there
-3.814048	it this
-1.822822	it to	0.4582007
-3.814048	it use
-1.450436	it was	0.178331
-4.408398	it when
-4.408398	it which	-0.06684333
-1.209822	it will	0.1891789
-2.583599	it with	-0.2620961
-1.581052	it would	0.4720669
-3.301872	its "	-0.1765242
-0.09090243	its <unk>	-0.2922754
-3.140508	its ]
-3.140508	its a
-2.663387	its aged	-0.07886714
-3.140508	its aging
-1.936388	its cost	0.3153126
-2.663387	its country
-2.026565	its design	0.1897021
-1.910059	its development	-0.1340495
-3.140508	its elderly
-2.83124	its energy	0.03408651
-2.441538	its government	-0.1449057
-1.560724	its high	-0.0312376
-3.301872	its many	0.3601415
-3.140508	its new
-2.663387	its not	0.1727772
-2.83124	its nuclear	-0.4503777
-3.140508	its only
-3.140508	its other
-1.517259	its people	-0.00413987
-1.910059	its population	-0.1503305
-3.301872	its power
-3.140508	its problems
-3.734858	its process	-0.1591896
-2.186265	its public	-0.2576104
-3.734858	its reactor	-0.1579986
-3.140508	its reactors
-2.29541	its research	-0.2401044
-1.798085	its safety	0.05710438
-1.964417	its spending	0.06311172
-3.734858	its technology
-2.061327	its use	-0.0878766
-3.206286	many "
-3.206286	many ,
-2.507316	many .	3.489713
-0.1355096	many <unk>	-0.3724375
-3.206286	many a
-3.206286	many aged
-3.206286	many and
-2.206286	many are	-0.01552093
-2.361188	many as	0.08088931
-3.800636	many can
-1.826075	many elderly	-0.0743392
-3.206286	many energy
-3.206286	many for
-3.206286	many from
-2.729165	many genetic	1.294792
-2.127105	many have	-0.1430475
-3.206286	many if
-2.729165	many in	0.1611951
-3.206286	many is
-2.507316	many may	-0.1247053
-1.884067	many more	0.3175786
-1.975837	many new	-0.2144915
-2.361188	many nuclear	0.03978363
-1.420956	many of	-0.1257586
-1.442858	many other	-0.3055214
-1.119926	many people	-0.0651927
-1.729165	many problems	-0.1163317
-3.800636	many public	-0.1554543
-3.206286	many reactors
-3.36765	many research	0.002933636
-2.897018	many safety	-0.3449008
-3.206286	many such
-3.800636	many technology	-0.1925523
-3.206286	many that
-2.361188	many to	-0.1423927
-2.729165	many will
-2.361188	many would	-0.05289504
-3.301247	may "
-3.301247	may (
-2.301247	may )	0.1703623
-2.99198	may ,	0.01136391
-3.301247	may 2009
-0.2134657	may <unk>	-0.2817258
-1.537819	may also	-0.5470206
-3.301247	may at
-0.7697682	may be	0.3824314
-3.462611	may cost	-0.03189339
-1.342206	may have	0.3163183
-2.070798	may help	-0.01349536
-2.398157	may in	-0.3984739
-0.9667934	may not	-0.6409301
-3.301247	may on
-2.824126	may one	-0.1369532
-2.99198	may only	0.2109469
-2.602277	may or	-0.53517
-3.301247	may power
-2.456149	may use	0.0006675646
-3.095518	more "
-3.572639	more (
-1.992856	more ,	0.131517
-1.981575	more .	2.597618
-0.09248857	more <unk>	-0.4686117
-4.166989	more aged	-0.2077321
-3.572639	more an
-1.482734	more and	-0.5964987
-3.572639	more are
-3.572639	more as
-3.095518	more at	-0.03954494
-3.572639	more but
-3.572639	more by
-3.734004	more can	-0.2778853
-2.34219	more cost	-0.4391913
-4.166989	more development
-2.081278	more elderly	-0.1284279
-2.004438	more energy	0.04065573
-2.317367	more for	0.2411999
-3.095518	more from	-0.09737217
-3.572639	more genetic
-3.263372	more government	-0.2110171
-3.572639	more has
-4.166989	more have	-0.253708
-2.873669	more help
-4.166989	more if	-0.289315
-2.25042	more in	0.2374601
-3.572639	more is
-3.572639	more may
-3.263372	more new	0.3835164
-2.531247	more nuclear	0.2616806
-1.959855	more of	0.2526888
-1.753095	more on	-0.03406566
-2.493458	more or	-0.2643866
-1.709316	more people	-0.2114188
-3.572639	more population
-2.873669	more power	0.1512957
-3.572639	more problem
-2.531247	more problems	-0.000556618
-2.25042	more public	-0.02292103
-2.095518	more research	0.1179016
-2.873669	more safety	0.1095324
-3.263372	more should	-0.3833502
-2.873669	more so	0.06955326
-2.669549	more spending	0.1176158
-3.572639	more technology
-3.572639	more that
-2.873669	more the	0.0378598
-2.016337	more to	0.3271734
-4.166989	more when
-4.166989	more which
-3.572639	more will
-3.572639	more with
-2.725639	new "	-0.05158544
-2.299671	new ,	-0.2618726
-3.202761	new .
-0.1181844	new <unk>	-0.4397869
-1.841033	new and	-0.2982571
-3.202761	new can
-2.088817	new design	-0.05347966
-2.299671	new development	-0.08569218
-1.600701	new energy	-0.05041724
-1.283683	new generation	0.07957399
-3.797111	new genetic
-3.202761	new high
-1.512565	new nuclear	0.8110597
-3.202761	new on
-2.503791	new one
-2.503791	new or	0.3427787
-3.202761	new people
-3.797111	new power	-0.05870038
-3.202761	new problem
-2.893493	new problems	0.03866846
-3.202761	new process
-3.797111	new public	-0.1554543
-1.998641	new reactor	-0.07752115
-2.056633	new reactors	0.04788829
-3.797111	new research
-2.503791	new safety	-0.0387654
-1.273342	new technology	0.007881224
-3.202761	new vhtr
-3.202761	new which
-3.721975	not "
-3.88334	not (	0.3927952
-2.165673	not ,	0.2217846
-2.177907	not .	2.644615
-0.2548114	not <unk>	-0.4727172
-1.744252	not a	-0.3687842
-2.153774	not all	0.1384092
-3.721975	not also
-2.324035	not an	-0.267986
-3.244854	not and	-0.1789442
-2.068763	not as	-0.6161309
-3.244854	not at
-0.7437949	not be	-0.4787865
-2.098726	not been	0.06451952
-3.721975	not but
-4.316325	not by	0.1028346
-3.88334	not cost	-0.3429859
-2.767733	not for	-0.09350874
-3.721975	not from
-3.721975	not has
-1.29873	not have	-0.1565225
-2.399756	not help	0.008117884
-3.244854	not high	-0.1679571
-2.575847	not in	0.3671146
-4.316325	not is
-4.316325	not it
-2.608032	not many	0.1949894
-3.023005	not more	0.5568407
-3.244854	not new
-3.721975	not nuclear
-3.412708	not of	0.1769702
-3.412708	not on	0.4214232
-3.88334	not one	-0.1223968
-1.125378	not only	0.05939293
-4.316325	not other	0.5284255
-2.379553	not so	-0.4789618
-3.721975	not some
-3.721975	not spending
-2.575847	not that	-0.7976573
-1.704942	not the	-0.1246406
-3.023005	not their	0.5604963
-3.721975	not them
-3.721975	not there
-3.721975	not they
-1.608032	not to	-0.008366227
-2.399756	not use	-0.2189437
-3.721975	not we
-3.638988	nuclear "
-3.161867	nuclear 's	-0.3124972
-3.638988	nuclear (
-2.525045	nuclear ,	-0.1261704
-2.559807	nuclear .	3.109502
-3.161867	nuclear :	0.342921
-3.638988	nuclear </s>
-0.5016341	nuclear <unk>	-0.3416272
-2.79389	nuclear and	0.07007486
-4.233338	nuclear are
-4.233338	nuclear as
-3.161867	nuclear can	0.09911475
-3.161867	nuclear development
-0.7762606	nuclear energy	0.09985077
-3.161867	nuclear generation
-3.638988	nuclear has
-3.161867	nuclear high	0.3715536
-4.233338	nuclear in
-2.638988	nuclear is	0.1433342
-3.638988	nuclear only
-0.5067285	nuclear power	0.06525803
-3.161867	nuclear process
-1.242789	nuclear reactor	0.2131896
-0.9734071	nuclear reactors	0.4875647
-2.597595	nuclear research	0.1327636
-2.559807	nuclear safety	0.1191286
-1.741361	nuclear technology	-0.09973323
-3.161867	nuclear the	0.2597085
-3.800353	nuclear to	0.3275995
-3.638988	nuclear was
-3.638988	nuclear will
-3.638988	nuclear would
-2.948345	of "	-0.6237197
-5.005094	of (	0.5225694
-3.331562	of ,	-0.001686543
-2.842542	of .	2.620481
-4.101476	of 2009	0.09470211
-4.410744	of :
-0.2960325	of <unk>	0.1408219
-4.410744	of [
-1.49693	of a	0.09781814
-3.410743	of aged	-0.2229569
-2.270864	of aging	0.265685
-2.249376	of all	-0.4282392
-1.963585	of an	0.4042692
-3.410743	of and	0.4489981
-4.410744	of are
-4.410744	of as
-5.005094	of at	-0.03470957
-3.369351	of by	-0.4512826
-4.410744	of can
-3.012804	of cost	-0.1794499
-3.410743	of country	-0.04883611
-2.842542	of design	0.2502777
-2.410743	of development	0.2266624
-2.212086	of elderly	-0.08207762
-1.869164	of energy	0.08838767
-2.43302	of generation	-0.8737477
-2.018047	of genetic	-0.2455313
-2.703173	of government	-0.3102157
-4.410744	of has
-5.005094	of have	-0.01160219
-3.456501	of help	-0.06860904
-2.777275	of high	-0.01371455
-4.410744	of if
-3.507653	of in	0.1252564
-5.005094	of is
-2.466261	of it	0.2704511
-2.127442	of its	0.08597374
-2.69474	of many	0.1178747
-2.729502	of more	-0.1540951
-2.437616	of new	0.1121873
-3.088524	of not	-0.320424
-1.518093	of nuclear	-0.0327661
-4.410744	of of
-4.410744	of on
-2.808683	of one	-0.4547033
-3.711773	of only	0.2901281
-4.410744	of or
-2.647316	of other	0.1186905
-2.058561	of people	0.1243944
-2.933622	of population	0.07086706
-2.757531	of power	-0.05990812
-4.572108	of problem	-0.04848792
-2.854441	of problems	-0.1219537
-3.565645	of process	-0.2484155
-2.30694	of public	-0.6689578
-2.879265	of reactor	-0.1062422
-2.808683	of reactors	-0.1699194
-2.486464	of research	0.06117409
-2.49693	of safety	-0.001704693
-2.190635	of singapore	-0.04492795
-3.933622	of so
-3.012804	of some	0.04461604
-2.919382	of spending	0.1023009
-2.13199	of such	-0.9349821
-2.274023	of technology	0.05910856
-2.686468	of that	-0.4988856
-0.6254849	of the	0.4369156
-1.747043	of their	0.01559496
-2.103247	of them	0.01390433
-2.062439	of these	-0.1166586
-2.035995	of this	-0.3375225
-3.933622	of to	0.2255841
-4.101476	of use	0.1329469
-2.37732	of vhtr	-0.03691399
-2.819679	of which	0.02597511
-4.410744	of will
-3.455954	on "	0.1329817
-3.066251	on (	0.2958853
-2.443002	on ,	0.20109
-1.884408	on .	2.307869
-0.4594402	on <unk>	-0.01487088
-1.689674	on a	0.1097018
-2.509949	on aged	0.1100717
-2.141972	on aging	-0.2960178
-2.920123	on all	0.05050038
-2.260071	on an	0.5262558
-2.723829	on and	0.3343072
-2.862131	on as	0.1116779
-4.359571	on but
-3.2881	on by	0.09799919
-3.926586	on cost	-0.09576128
-3.926586	on country	-0.2054629
-3.765221	on design
-3.765221	on development
-2.403494	on elderly	-0.1362838
-3.2881	on energy	-0.04013541
-3.455954	on for	0.1961147
-4.359571	on from
-3.2881	on generation	0.2243918
-2.68604	on genetic	1.419626
-2.443002	on government	-0.4523985
-3.926586	on high	0.473569
-3.765221	on http
-2.920123	on in	0.403431
-3.066251	on is	0.2461064
-2.152437	on it	0.08709607
-2.112009	on its	0.2491989
-2.765221	on many	-0.03779852
-4.359571	on may
-2.765221	on more	-0.1194413
-2.920123	on new	0.1682718
-1.97283	on nuclear	0.2528672
-3.765221	on of
-3.765221	on on
-2.333858	on one	-0.1794402
-3.2881	on only	-0.1709342
-3.926586	on or	0.2127346
-1.901899	on other	-0.4661254
-2.58913	on people	0.09602976
-3.765221	on population
-3.765221	on power
-3.765221	on problem
-4.359571	on problems
-1.994369	on public	-0.4715537
-3.765221	on reactor
-2.302823	on research	-0.1482481
-2.68604	on safety	0.005073428
-3.455954	on singapore	-0.06178318
-3.926586	on some	-0.1483618
-2.920123	on spending	0.1202918
-2.810979	on such	-0.2043631
-2.651278	on technology	-0.02807419
-3.066251	on that	0.02475266
-0.3609009	on the	-0.2352217
-1.569322	on their	-0.141058
-1.952308	on them	0.1771155
-2.58913	on these	0.2500673
-2.040946	on this	-0.3416089
-2.075025	on to	-0.1217085
-2.723829	on vhtr	0.01387509
-3.926586	on when	-0.03655915
-3.455954	on which	0.1128885
-4.359571	on will
-3.066251	on with	0.04336427
-1.087552	one 's	-0.7927277
-2.611298	one (	0.2958853
-2.231087	one ,	0.1160899
-1.666816	one .	2.54523
-0.4758477	one <unk>	-0.07768708
-3.904618	one aged
-2.407178	one and	0.46568
-2.833147	one as
-3.310268	one at
-3.310268	one but
-3.310268	one by
-1.620072	one can	0.1106501
-2.46517	one country	0.006650448
-3.310268	one design
-2.310268	one elderly	-0.006373852
-2.46517	one for	0.3892339
-2.833147	one from	-0.03762597
-2.833147	one generation	0.2243918
-3.310268	one genetic
-1.778789	one has	-0.1056037
-3.310268	one if
-1.912328	one in	-0.4051025
-1.484194	one is	0.1317675
-1.778789	one may	-0.2234192
-3.471633	one more	0.2784987
-3.310268	one new
-2.46517	one nuclear	-0.2556804
-0.5088646	one of	-0.7813277
-2.46517	one or	0.2129716
-3.310268	one other
-3.904618	one people
-2.611298	one problem	-0.1224368
-3.310268	one process
-3.310268	one research
-1.778789	one should	0.7514737
-3.310268	one so
-1.666816	one such	-0.8200455
-3.471633	one technology	-0.2024984
-1.930057	one that	-0.3202954
-2.611298	one the	0.0378598
-3.310268	one there
-1.895295	one to	0.2329401
-2.611298	one was	0.4051098
-2.833147	one we	-0.1375843
-3.310268	one when
-2.196325	one which	0.06366789
-1.948541	one will	-0.1177913
-3.001001	one with	-0.008056223
-1.967846	one would	0.6424139
-3.100715	only "
-3.695065	only (
-3.100715	only )
-2.401745	only ,	-0.212337
-2.197625	only .	3.285593
-0.1900907	only <unk>	-0.1754784
-1.437957	only a	-0.1503223
-3.100715	only an
-3.100715	only and
-3.262079	only are	-0.1966127
-3.262079	only as	0.136827
-2.791448	only at	0.3213046
-1.352527	only be	-0.1125432
-1.954587	only by	0.2168564
-1.924624	only can	0.5669547
-3.695065	only cost
-3.695065	only energy
-2.059322	only for	0.1382505
-2.623594	only from	0.09607434
-3.100715	only generation
-2.197625	only has	-0.1312879
-2.021534	only have	0.2065155
-2.021534	only help	-0.1021874
-1.986772	only if	0.08547495
-1.870266	only in	0.170274
-2.623594	only is
-3.695065	only it	-0.1794654
-3.100715	only its
-3.100715	only many
-2.623594	only more	0.4034375
-3.100715	only new
-3.695065	only nuclear
-2.100715	only on	-0.2128878
-1.685742	only one	-0.1943684
-3.695065	only people	-0.1247831
-3.100715	only problem
-3.100715	only problems
-3.695065	only reactor	-0.3043526
-3.695065	only should	-0.3039723
-3.100715	only singapore
-3.695065	only so
-3.695065	only some
-1.870266	only that	-0.5700481
-1.315385	only the	-0.2197326
-2.623594	only their	0.9160453
-2.623594	only this	0.1950594
-1.702775	only to	0.1282164
-3.100715	only use
-1.954587	only when	0.2790722
-2.255617	only will	0.1173145
-2.197625	only with	0.07326204
-3.100715	only would
-2.389343	or "	-0.1992123
-3.983693	or ,
-0.1096764	or <unk>	0.06407797
-1.596952	or a	-0.06181186
-3.389343	or also
-2.389343	or an	0.5052059
-2.347951	or are	0.2017294
-3.983693	or as
-2.213252	or at	-0.02047378
-2.690373	or be	0.2650564
-3.389343	or been
-2.486253	or by	-0.3279696
-2.486253	or can	-0.08770137
-3.389343	or country
-2.912222	or design	-0.01561505
-3.983693	or development	-0.2326907
-3.389343	or elderly
-2.544245	or for	-0.1595456
-3.983693	or from	-0.2262371
-3.389343	or generation
-3.983693	or genetic	1.299628
-2.486253	or government	0.04312763
-2.912222	or has
-2.2754	or have	-0.05176088
-3.983693	or help
-3.550708	or high	0.2466148
-3.983693	or if
-2.2754	or in	0.3992993
-2.912222	or is	0.2264035
-2.544245	or it	-0.1597306
-3.389343	or its
-3.080076	or may	-0.3381496
-2.009132	or more	0.2320781
-3.550708	or new	0.1843557
-1.514282	or not	-0.2906262
-2.544245	or nuclear	-0.2903704
-3.389343	or of
-3.550708	or on	-0.02645798
-3.389343	or one
-1.926945	or other	-0.2347326
-2.690373	or people	0.08521298
-2.912222	or power	-0.06353575
-3.389343	or problem
-3.983693	or problems	-0.2707174
-3.550708	or process	-0.1536753
-2.912222	or research	-0.07061134
-2.912222	or should	-0.1751074
-2.486253	or some	0.1394008
-3.983693	or spending
-3.080076	or technology	-0.0950657
-2.690373	or that
-1.633469	or the	-0.2027312
-2.2754	or their	0.1455229
-3.389343	or these
-2.2754	or they	0.2383021
-1.798279	or to	-0.3185557
-2.912222	or use
-2.912222	or vhtr
-3.389343	or was
-2.690373	or when	0.07100511
-3.389343	or which
-3.550708	or will	0.1006342
-3.550708	or with	-0.1146121
-3.481511	other 's	0.1269839
-3.320146	other (
-2.417056	other ,	-0.05608583
-2.089697	other .	2.958234
-0.06826483	other <unk>	-0.4479805
-3.320146	other aging
-2.843025	other and	0.2110975
-3.320146	other are
-3.320146	other as
-2.843025	other by	0.09799919
-2.843025	other country	-0.01566538
-2.475048	other development	-0.3332776
-3.914496	other elderly
-1.828785	other energy	-0.5165619
-3.914496	other for
-3.320146	other from
-1.939935	other generation	-0.8123984
-2.843025	other government	-0.01631074
-3.320146	other have
-3.320146	other if
-2.417056	other in	-0.02322197
-2.475048	other is	0.3039593
-3.320146	other may
-2.116026	other more	-0.3235613
-2.843025	other new	-0.168952
-2.475048	other nuclear	-0.01490517
-3.320146	other of
-3.320146	other on
-2.475048	other one	-0.2919261
-1.666934	other people	-0.1065819
-2.621176	other power	-0.05047911
-3.481511	other problem	-0.04848792
-2.041393	other problems	0.04574439
-3.320146	other process
-2.843025	other public	-0.1602897
-3.481511	other reactor	-0.2877727
-1.696897	other reactors	-0.09551182
-2.843025	other research	-0.2043116
-2.843025	other safety	0.08982953
-3.320146	other such
-3.914496	other technology
-3.320146	other that
-3.320146	other the
-3.914496	other to	0.2304195
-3.320146	other use
-3.320146	other which
-3.320146	other with
-3.645807	people "	0.1345683
-1.241404	people 's	-1.28704
-2.308351	people (	0.04571807
-3.484442	people )
-1.475842	people ,	-0.0415656
-1.031124	people .	1.735364
-3.645807	people :	0.311236
-4.078792	people </s>
-0.4616016	people <unk>	-0.2719656
-3.484442	people [
-3.175175	people a	0.2486871
-2.205689	people aged	-0.7374201
-3.645807	people all	-0.2510669
-3.175175	people also	-0.1782945
-1.621119	people and	-0.002714574
-1.138089	people are	-0.1211264
-2.022044	people as	0.06611484
-3.175175	people at	0.04910877
-3.484442	people be
-3.007321	people but	-0.08459287
-2.443049	people by	-0.2393182
-1.615211	people can	-0.1294568
-2.443049	people for	0.2620264
-2.022044	people from	-0.5373055
-2.253993	people has	-0.2474663
-1.575957	people have	0.2667879
-4.078792	people if
-1.475842	people in	-0.07338363
-1.821684	people is	0.002455592
-1.592348	people may	0.4172266
-4.078792	people more	0.4082729
-2.581352	people not	0.1225711
-2.308351	people of	0.2406904
-3.175175	people on	0.3494482
-3.484442	people only
-2.370499	people or	0.07784432
-3.484442	people other
-3.484442	people people
-1.506719	people should	-0.07122922
-3.175175	people so	-0.1210868
-2.785472	people such	-0.16702
-2.443049	people that	0.05828312
-3.007321	people the	0.2597085
-3.484442	people there
-1.212601	people to	-0.2973379
-3.175175	people use	-0.1071266
-2.639344	people when	0.06169355
-2.785472	people which	0.08172449
-1.367171	people will	0.1577342
-1.776872	people with	-0.2348934
-1.952963	people would	0.07737827
-2.778874	population "
-2.301753	population 's	0.001755476
-2.214603	population (	0.3378198
-2.557026	population )	-0.02877099
-1.074152	population ,	-0.06300557
-0.6616032	population .	1.59429
-2.352906	population :	0.247309
-3.850346	population </s>
-0.7069924	population <unk>	0.1248692
-3.255996	population [
-3.255996	population a
-1.977242	population aged	-0.5882044
-1.593238	population aging	-0.4245758
-3.255996	population also
-1.347511	population and	0.153947
-1.894268	population are	-0.2744251
-1.875785	population as	0.3438921
-2.778874	population at
-3.850346	population be
-2.301753	population but	-0.04882701
-2.079905	population by	0.1149182
-2.176815	population can	0.5553043
-3.850346	population for
-1.53172	population has	-0.2095191
-2.255996	population have	-0.1640644
-3.255996	population http
-3.850346	population if
-1.326577	population in	-0.1903122
-1.012958	population is	0.2519583
-2.176815	population may	-0.1296646
-3.255996	population more
-3.255996	population not
-1.548426	population of	-0.135283
-2.301753	population on	0.3014936
-3.850346	population only
-3.41736	population or	0.4396887
-1.954966	population problem	-0.05374214
-2.946728	population problems
-3.850346	population process
-3.255996	population retrieved
-2.109868	population should	-0.05981994
-2.778874	population so	-0.1138049
-3.255996	population such
-2.142052	population that	-0.1713857
-2.778874	population the	0.3934088
-2.778874	population there
-1.764634	population to	-0.1196308
-2.946728	population was	0.1810251
-3.850346	population we	-0.2684576
-2.255996	population which	0.2145648
-1.358369	population will	0.3101589
-2.557026	population with	-0.3041269
-1.913573	population would	0.2328002
-2.817565	power "
-1.1215	power 's	-0.924548
-2.148559	power (	0.2239791
-3.889037	power )
-1.335645	power ,	0.1872376
-1.07197	power .	1.965966
-2.015933	power :	-0.04842412
-2.449589	power </s>
-0.3586758	power <unk>	0.03633869
-3.294687	power ]
-3.456051	power a	0.4247784
-3.294687	power also
-3.294687	power an
-1.604491	power and	0.00262785
-2.391597	power are	0.3334284
-1.803325	power as	0.1606278
-2.817565	power at
-3.889037	power be
-3.889037	power but
-2.449589	power by	0.2156196
-1.932959	power can	0.2727576
-3.294687	power cost
-2.817565	power development	-0.1038258
-2.294687	power energy	-0.09426329
-2.064238	power for	0.12846
-2.595717	power from	-0.01143041
-1.847529	power generation	0.2232204
-1.789537	power has	0.1298508
-2.817565	power have	-0.01643756
-3.294687	power http
-1.896747	power in	0.1833422
-1.046713	power is	0.1126385
-2.817565	power it	-0.05060044
-3.456051	power may	0.1991588
-3.294687	power more
-2.595717	power new	0.08744574
-2.595717	power not	0.1213138
-3.889037	power nuclear
-2.118595	power of	0.1084276
-3.456051	power or	0.2127346
-3.294687	power people
-2.294687	power reactor	-0.02808427
-1.972467	power reactors	0.1606937
-3.889037	power research	-0.1994763
-3.889037	power retrieved
-3.294687	power safety
-2.064238	power should	-0.2429583
-3.889037	power such	0.05966407
-1.972467	power technology	0.1329075
-2.595717	power that	-0.08922275
-2.294687	power the	-0.03621614
-3.294687	power there
-3.889037	power these	0.3803629
-3.294687	power they
-1.703622	power to	0.05278742
-3.294687	power vhtr
-2.340444	power was	-0.2220202
-3.889037	power when
-2.253294	power which	-0.1711838
-2.064238	power will	0.3651339
-3.456051	power with	0.2030361
-3.456051	power would	0.1259836
-2.189631	problem "	-0.001651257
-3.254085	problem (	0.6197494
-0.9623868	problem ,	0.04655653
-0.750298	problem .	1.84626
-3.092721	problem :
-2.393751	problem </s>
-0.7788534	problem <unk>	0.05706096
-3.687071	problem a
-3.687071	problem also	0.1275708
-1.490661	problem and	0.08700621
-3.092721	problem are
-1.862272	problem as	0.02581945
-3.092721	problem at
-3.254085	problem but	-0.09555208
-1.946593	problem by	-0.3440535
-1.770501	problem can	0.07773042
-1.615599	problem for	0.05065882
-3.254085	problem from	0.1485278
-2.051328	problem has	0.02669641
-2.615599	problem have	-0.1313269
-2.393751	problem if	-0.1407472
-1.449268	problem in	0.2092128
-1.153201	problem is	0.1323448
-3.687071	problem it
-2.783453	problem may	0.6480075
-0.8302696	problem of	-0.2270674
-2.783453	problem on	-0.05425143
-3.092721	problem one
-3.092721	problem only
-1.916629	problem or	-0.3612967
-3.092721	problem population
-2.783453	problem should	-0.1563961
-3.687071	problem singapore
-2.393751	problem so	-0.1401728
-3.092721	problem some
-1.321869	problem that	-0.1619038
-3.687071	problem the	0.2645439
-3.092721	problem they
-1.837448	problem to	0.6090308
-2.393751	problem was	0.0332523
-2.393751	problem we	-0.05846148
-3.092721	problem when
-1.916629	problem which	0.06936955
-1.791691	problem will	-0.02889466
-1.978777	problem with	0.2986412
-2.393751	problem would	0.006722033
-3.699178	problems "
-2.201738	problems (	0.3206068
-1.075445	problems ,	-0.0385049
-0.8283666	problems .	1.912221
-3.104828	problems :
-2.627707	problems </s>
-0.6191069	problems <unk>	-0.1907455
-2.627707	problems also	0.1227355
-3.104828	problems an
-1.212734	problems and	0.115874
-1.423587	problems are	-0.001440942
-2.063436	problems as	0.1671655
-3.104828	problems at
-3.699178	problems but
-2.150586	problems by	-0.1521679
-1.900708	problems can	-0.2899139
-2.150586	problems for	0.2254007
-3.266193	problems from	0.06438941
-3.104828	problems has
-2.150586	problems have	0.1368704
-3.266193	problems if
-1.319499	problems in	0.0546
-2.405859	problems is	-0.1253165
-3.699178	problems it
-2.104828	problems may	-0.05048338
-3.699178	problems more	0.4082729
-1.212734	problems of	-0.1661534
-3.699178	problems on
-3.699178	problems only
-2.201738	problems or	0.1386588
-3.699178	problems should	-0.07748488
-2.627707	problems so	-0.01157787
-1.502768	problems such	-1.07011
-1.075445	problems that	-0.3903265
-2.201738	problems the	0.4072495
-3.699178	problems there	-0.1413233
-2.25973	problems they	-0.2067253
-3.104828	problems this
-1.689855	problems to	0.2288787
-3.104828	problems was
-2.201738	problems we	0.08944677
-2.063436	problems when	0.2662112
-1.599678	problems which	-0.1750262
-1.762406	problems will	0.02853012
-1.928737	problems with	-0.554294
-2.795561	problems would	0.2314451
-2.249087	process "	0.2112522
-2.211298	process (	0.1426281
-1.002678	process ,	0.04589981
-0.5353675	process .	1.433571
-3.451844	process :	0.311236
-2.336237	process </s>
-0.90309	process <unk>	0.1070616
-2.981212	process a	0.5088692
-3.29048	process also
-3.29048	process an
-1.519628	process and	-0.05417031
-2.445382	process are	0.2876789
-1.98945	process as	0.1293527
-2.59151	process at	-0.03043717
-2.249087	process but	-0.0133364
-1.968261	process by	-0.5201447
-1.710696	process can	0.3391427
-3.451844	process design
-1.464405	process for	-0.4671658
-2.38739	process from	0.109915
-1.813359	process has	-0.02883148
-3.451844	process have	-0.07887352
-3.29048	process however
-2.813359	process if
-1.421248	process in	0.06796926
-1.200575	process is	0.1329378
-3.88483	process it
-2.38739	process may	0.2941193
-2.981212	process more	0.1024075
-0.9402318	process of	-0.4643471
-3.451844	process on	0.05768038
-3.29048	process one
-3.88483	process only
-3.451844	process or	0.5238271
-2.38739	process should	-0.133037
-3.451844	process such	0.1568441
-1.98945	process that	-0.2851741
-3.88483	process the	0.2645439
-3.88483	process there	-0.09150283
-3.29048	process these
-3.88483	process they
-1.512329	process to	-0.2576652
-2.981212	process was	0.4396682
-3.29048	process we
-3.451844	process when	0.04377081
-1.98945	process which	0.06369337
-1.968261	process will	0.2733635
-2.981212	process with	0.2701758
-2.035207	process would	0.4760825
-3.285332	public "
-1.780182	public 's	-0.549152
-3.879682	public (	0.5225694
-1.870359	public ,	-0.04384971
-1.366254	public .	2.269605
-3.285332	public :
-0.5264204	public <unk>	-0.1652863
-3.285332	public a
-1.808211	public and	0.2210377
-2.285332	public are	0.2431222
-2.33109	public as	-0.09116529
-3.285332	public by
-2.976065	public can	0.2735001
-3.285332	public development
-3.285332	public for
-2.808211	public from	0.09607434
-2.24394	public has	0.3701418
-2.206151	public have	0.01193166
-3.879682	public if	-0.2730309
-3.879682	public in
-1.694268	public is	-0.3978786
-3.446697	public may	-0.04665142
-3.285332	public more
-2.808211	public of	-0.06257926
-2.440234	public on	-0.1840927
-2.586362	public or	0.1158246
-2.24394	public safety	0.1754006
-2.139204	public should	0.4604187
-3.879682	public so
-0.2958824	public spending	-0.09086311
-2.440234	public that	0.07688241
-3.879682	public the	0.2645439
-3.879682	public their	0.7871804
-1.753853	public to	-0.02478266
-3.285332	public use
-3.285332	public was
-3.285332	public when
-3.285332	public which
-2.586362	public will	0.152022
-2.808211	public with	-0.03776686
-3.879682	public would
-2.492481	reactor "	-0.07391638
-2.11227	reactor 's	-0.1231833
-0.8529945	reactor (	-0.5840018
-2.288361	reactor )	0.4101934
-1.070877	reactor ,	-0.06014454
-1.009607	reactor .	2.006839
-2.191451	reactor :	-0.07386523
-1.987331	reactor </s>
-0.5324862	reactor <unk>	0.05746073
-3.352815	reactor [	1.81276
-3.191451	reactor a
-3.191451	reactor also
-1.611667	reactor and	0.10124
-2.191451	reactor are	0.1327769
-2.045323	reactor as	0.1445456
-2.882184	reactor at	-0.1136208
-3.191451	reactor but
-2.71433	reactor by	0.2316995
-1.589391	reactor can	0.2577386
-3.191451	reactor cost
-1.961002	reactor design	0.09851511
-2.71433	reactor development
-2.237209	reactor for	0.08394726
-2.71433	reactor from	-0.03762597
-3.191451	reactor generation
-1.776478	reactor has	0.3545103
-3.785801	reactor have	-0.01160219
-3.191451	reactor however
-1.849028	reactor in	-0.09389365
-1.067599	reactor is	0.09313977
-2.882184	reactor may	0.2817106
-3.191451	reactor not
-3.191451	reactor nuclear
-2.346353	reactor of	0.04916312
-3.352815	reactor or	-0.126997
-3.191451	reactor research
-3.191451	reactor retrieved
-2.492481	reactor safety	0.1095324
-2.346353	reactor should	0.1970813
-3.785801	reactor so
-3.191451	reactor such
-2.150058	reactor technology	0.00614848
-1.987331	reactor that	-0.2252176
-3.352815	reactor the	0.1347698
-1.659972	reactor to	-0.1195531
-1.869232	reactor was	0.2146388
-2.71433	reactor we
-3.352815	reactor when	-0.04036756
-1.912697	reactor which	0.05120727
-1.659972	reactor will	0.4596244
-1.987331	reactor with	0.157971
-2.150058	reactor would	0.2282697
-2.822351	reactors "	-0.1571657
-1.325439	reactors (	0.2890288
-3.131619	reactors )
-0.8349535	reactors ,	0.06859255
-0.6875739	reactors .	1.744638
-2.286521	reactors :	-0.1913231
-2.052437	reactors </s>
-0.7568703	reactors <unk>	0.1522661
-3.725969	reactors [	1.71558
-2.654497	reactors a	0.5497171
-2.286521	reactors also	-0.01828721
-1.575316	reactors and	0.2985286
-1.082401	reactors are	-0.01280272
-1.90117	reactors as	0.06910408
-2.654497	reactors at	0.09415537
-3.131619	reactors be
-2.822351	reactors by	0.5128582
-1.613105	reactors can	0.5156753
-2.177376	reactors for	-0.01004702
-2.286521	reactors has	0.32071
-1.551835	reactors have	0.4122546
-1.540554	reactors in	-0.03675246
-1.508369	reactors is	0.146126
-3.131619	reactors it
-2.286521	reactors may	0.4082729
-3.131619	reactors not
-2.052437	reactors of	0.2017336
-2.654497	reactors on
-3.725969	reactors or	0.3425087
-3.131619	reactors retrieved
-3.131619	reactors safety
-2.177376	reactors should	-0.08929488
-3.131619	reactors so
-1.927499	reactors such	-0.67217
-1.733679	reactors that	-0.2107893
-3.131619	reactors the
-3.131619	reactors their
-1.684461	reactors to	-0.215291
-2.432649	reactors use	-0.02994368
-3.131619	reactors was
-3.131619	reactors when
-1.769891	reactors which	0.0119676
-1.551835	reactors will	0.2696286
-2.286521	reactors with	-0.07500301
-2.052437	reactors would	0.3150581
-3.215902	research "
-3.215902	research 's
-2.312812	research (	0.5773624
-3.215902	research )
-1.182478	research ,	-0.01944935
-1.224676	research .	2.197457
-3.810252	research :
-3.215902	research </s>
-0.6524207	research <unk>	-0.0381397
-3.215902	research a
-3.377266	research also	-0.002203286
-0.4090438	research and	-0.7952123
-2.174509	research are	0.2017294
-2.516932	research as	0.1040764
-3.810252	research at	-0.03470957
-2.73878	research but	-0.2784407
-2.73878	research by	0.09799919
-2.312812	research can	0.3539387
-2.516932	research cost	0.08076444
-3.377266	research development	-0.1271049
-1.873479	research for	0.3081778
-1.697388	research has	-0.1845741
-2.261659	research have	0.07995091
-1.6477	research in	0.2485046
-1.525706	research is	-0.0824818
-3.215902	research it
-1.768744	research of	0.1799178
-1.271419	research on	0.0212723
-1.960629	research or	0.313797
-3.215902	research people
-2.215902	research process	0.04914761
-2.516932	research should	-0.07721487
-2.73878	research such	0.0548287
-2.906634	research technology	0.03556145
-2.73878	research that	-0.1657419
-2.906634	research the	-0.04132146
-1.800928	research to	-0.1831063
-3.215902	research use
-3.810252	research was	0.2599364
-3.215902	research we
-3.215902	research when
-2.516932	research which	0.08172449
-2.215902	research will	0.2721353
-3.810252	research with	-0.07744278
-3.377266	research would	0.3135211
-3.396388	retrieved (	0.6197494
-3.396388	retrieved ,	0.1232957
-2.925756	retrieved 2009	-0.1043618
-3.235023	retrieved </s>
-0.0983026	retrieved <unk>	-2.013164
-3.235023	retrieved and
-2.536053	retrieved at	-0.2613937
-0.9562696	retrieved from	-0.4304362
-3.235023	retrieved if
-2.389925	retrieved in	-0.3057112
-1.131219	retrieved on	-1.755156
-3.829373	retrieved retrieved	0.3845966
-2.132473	safety (	0.4158647
-3.086716	safety )
-1.049289	safety ,	-0.3263583
-1.127674	safety .	2.229641
-2.609594	safety :	0.2092206
-3.086716	safety </s>
